{
  "L1.Weight": [
    [
      0.23078759,
      0.15905467,
      0.020909399,
      0.48302084,
      -0.33080778,
      0.03739133,
      0.019119423,
      0.14852063
    ],
    [
      0.321067,
      -0.40239272,
      0.38445595,
      0.15337527,
      0.42861822,
      0.27065957,
      0.29547882,
      -0.22292091
    ],
    [
      0.40729836,
      0.04792363,
      -0.043312833,
      0.3527331,
      -0.23842864,
      0.1233938,
      -0.13282739,
      0.12951909
    ],
    [
      -0.35334235,
      -0.459433,
      -0.19776191,
      -0.21469603,
      0.051229898,
      -0.166607,
      0.30614647,
      -0.5428842
    ],
    [
      0.341965,
      0.023682551,
      -0.06408258,
      0.39932638,
      -0.081898555,
      0.34907448,
      0.06840734,
      -0.0878098
    ],
    [
      0.069282174,
      -0.24298796,
      0.16105096,
      0.4190633,
      0.2521519,
      -0.24605034,
      0.44575846,
      -0.0966881
    ],
    [
      0.2082025,
      -0.18079789,
      -0.32740742,
      -0.05127626,
      -0.38326958,
      0.37897643,
      0.14677478,
      0.14347836
    ],
    [
      0.32669422,
      0.073556885,
      0.26999602,
      -0.31080326,
      -0.0105903745,
      -0.3569811,
      0.11717493,
      0.009512432
    ],
    [
      0.085237935,
      0.029722795,
      0.30871397,
      -0.17722319,
      -0.46746755,
      -0.47394648,
      0.36981863,
      0.32399416
    ],
    [
      0.30962363,
      -0.16895564,
      -0.31309667,
      -0.3572931,
      -0.34949428,
      0.19920978,
      0.24977055,
      0.3337057
    ],
    [
      -0.099539414,
      -0.19885199,
      0.28571528,
      -0.09590088,
      0.4578987,
      0.016200032,
      0.30201253,
      -0.28111646
    ],
    [
      -0.082428716,
      0.049442433,
      0.04811166,
      -0.032179687,
      0.18556218,
      0.33828747,
      -0.21564732,
      -0.18080236
    ],
    [
      0.35905895,
      -0.046264224,
      -0.057739314,
      -0.22694498,
      -0.27606606,
      0.15674892,
      -0.07154539,
      -0.09624999
    ],
    [
      -0.11953051,
      -0.029281424,
      -0.25948778,
      -0.11159837,
      -0.33614984,
      -0.26220256,
      0.47285914,
      0.21573763
    ],
    [
      0.12655494,
      -0.65048283,
      -0.16272056,
      -0.0337109,
      0.110724986,
      -0.21911131,
      -0.16067274,
      -0.1133583
    ],
    [
      -0.050273128,
      -0.36226082,
      0.06931154,
      -0.27476513,
      -0.29398927,
      -0.16855912,
      -0.15758392,
      -0.34557498
    ],
    [
      0.3913848,
      0.020188952,
      0.3044223,
      0.30361864,
      -0.44933695,
      0.3201384,
      -0.10546139,
      -0.122840114
    ],
    [
      -0.35549477,
      -0.2676502,
      0.14426552,
      0.10461013,
      0.3058524,
      -0.31519526,
      0.35375306,
      -0.18565403
    ],
    [
      -0.036597557,
      -0.006167407,
      0.25326833,
      0.43996802,
      0.4267028,
      -0.36923948,
      0.17151758,
      -0.124571145
    ],
    [
      0.0027755902,
      -0.22242258,
      0.4010902,
      -0.21181744,
      0.3652512,
      0.31196913,
      0.26060784,
      -0.13360891
    ],
    [
      0.43918523,
      0.04136297,
      0.18123183,
      -0.3073944,
      0.28827044,
      -0.00548338,
      -0.18877299,
      0.32056406
    ],
    [
      0.0075339875,
      -0.1737416,
      -0.12656035,
      0.045230094,
      0.25809062,
      0.023941321,
      -0.18612723,
      -0.12902151
    ],
    [
      -0.4072856,
      0.104229346,
      0.14691606,
      -0.36787868,
      0.09151909,
      0.1715472,
      0.05038394,
      -0.05443992
    ],
    [
      0.06883098,
      0.28531703,
      -0.012858842,
      -0.07494837,
      -0.2789776,
      -0.04247462,
      -0.2580903,
      -0.13908295
    ],
    [
      0.42471728,
      0.3761816,
      -0.034176003,
      -0.0098239975,
      -0.18479708,
      -0.08767691,
      0.22199279,
      0.105139785
    ],
    [
      -0.38373584,
      -0.2690168,
      0.28406408,
      0.071363,
      -0.28224555,
      -0.25919688,
      -0.20689857,
      -0.5429134
    ],
    [
      -0.079964444,
      0.11687636,
      0.31661102,
      0.2732094,
      -0.43495044,
      -0.3019013,
      0.124153994,
      0.37699908
    ],
    [
      -0.13128313,
      0.11330316,
      0.008676652,
      -0.1125666,
      -0.18312295,
      0.34993047,
      -0.1789914,
      -0.048876714
    ],
    [
      -0.5377095,
      0.3956117,
      0.22147043,
      0.24721487,
      -0.24760498,
      -0.25587592,
      -0.32980904,
      0.514814
    ],
    [
      0.07636357,
      0.65069807,
      0.036577843,
      -0.099483326,
      -0.013971296,
      -0.09521429,
      -0.26474845,
      -0.29955217
    ],
    [
      0.21835361,
      -0.21536888,
      -0.054282412,
      -0.18112049,
      -0.045107134,
      -0.3045589,
      -0.23817115,
      0.23035692
    ],
    [
      -0.062151138,
      0.40705392,
      -0.17272805,
      -0.36868626,
      -0.11257792,
      -0.13313602,
      -0.023719182,
      -0.4817333
    ],
    [
      0.17411327,
      -0.20109236,
      0.25522605,
      0.3486118,
      0.39029333,
      -0.37609047,
      0.23858367,
      -0.14256352
    ],
    [
      -0.08041406,
      0.32603815,
      0.08262297,
      0.14194964,
      -0.05970155,
      -0.5625398,
      0.15950143,
      -0.4274669
    ],
    [
      0.24327032,
      0.36159512,
      0.37160063,
      0.1809708,
      -0.4519207,
      0.07648263,
      0.21408658,
      -0.25228316
    ],
    [
      -0.07618825,
      -0.37660018,
      0.026676336,
      -0.020464793,
      -0.12028283,
      0.010209989,
      -0.34606987,
      0.45025885
    ],
    [
      0.373829,
      0.07689275,
      0.110927075,
      -0.021648847,
      -0.56905,
      -0.6054517,
      0.2677465,
      -0.03020995
    ],
    [
      -0.35482308,
      0.014946319,
      -0.18541636,
      -0.26030922,
      -0.13479784,
      -0.057265345,
      -0.29053718,
      -0.34476757
    ],
    [
      -0.35098588,
      0.23539214,
      -0.00046134906,
      0.15695862,
      -0.19375457,
      -0.07143762,
      0.5285316,
      0.18824701
    ],
    [
      -0.22564825,
      0.07032542,
      0.33269596,
      -0.015303231,
      0.17184013,
      0.36395836,
      -0.046386678,
      0.15440358
    ],
    [
      -0.457649,
      -0.15881929,
      0.15475577,
      -0.023730922,
      -0.4306157,
      -0.229563,
      -0.4425822,
      -0.49270332
    ],
    [
      -0.31014702,
      0.08481282,
      0.22296847,
      0.19726136,
      -0.29067,
      -0.40196356,
      0.3081884,
      -0.31390387
    ],
    [
      -0.19360492,
      0.12995072,
      -0.28183025,
      -0.16742226,
      -0.15363373,
      -0.061360795,
      -0.2813009,
      -0.4954039
    ],
    [
      -0.3911332,
      -0.0927071,
      0.40549472,
      -0.20037253,
      -0.42344025,
      0.16286804,
      0.090763435,
      0.41908735
    ],
    [
      0.18771645,
      0.19988301,
      -0.24292098,
      0.10775586,
      0.29615426,
      -0.07921306,
      -0.23176919,
      0.3480717
    ],
    [
      -0.4232379,
      -0.080986544,
      -0.38723418,
      0.05164489,
      0.31323308,
      0.21857505,
      0.07048004,
      -0.5092047
    ],
    [
      -0.3796547,
      -0.0833642,
      0.21694398,
      0.14089128,
      -0.39853632,
      -0.037848476,
      -0.46557686,
      -0.19593485
    ],
    [
      0.021740997,
      0.100738876,
      0.34174868,
      -0.31506687,
      0.34206477,
      -0.3511493,
      0.21273918,
      0.37444606
    ],
    [
      -0.13571814,
      0.38202986,
      -0.44674727,
      -0.23051716,
      0.07117484,
      0.04066576,
      -0.014564445,
      -0.30870745
    ],
    [
      0.22326748,
      0.17433916,
      0.17435865,
      -0.059881385,
      -0.5465189,
      0.072261944,
      0.20849584,
      -0.049077258
    ],
    [
      -0.15025578,
      0.37557986,
      0.12890838,
      0.021280736,
      -0.12979636,
      -0.201395,
      -0.39878556,
      -0.08025303
    ],
    [
      -0.32247072,
      -0.118517354,
      -0.11590678,
      -0.2052483,
      0.5255619,
      0.23672336,
      0.10863252,
      0.046761885
    ],
    [
      -0.14378488,
      0.29907772,
      -0.29835597,
      -0.30265015,
      -0.067278214,
      -0.26791233,
      -0.3644498,
      0.19344693
    ],
    [
      0.3531839,
      0.10385967,
      -0.008468372,
      -0.48378533,
      -0.27710262,
      0.04110273,
      0.34003022,
      0.016494276
    ],
    [
      -0.34937608,
      0.0833212,
      -0.2949226,
      0.042475928,
      -0.3307464,
      -0.033523917,
      -0.28659353,
      -0.1831531
    ],
    [
      0.066085756,
      0.15231776,
      0.1447263,
      0.38012177,
      0.49399066,
      -0.12776381,
      -0.29031244,
      0.26174262
    ],
    [
      0.2758138,
      -0.25636485,
      0.09412822,
      -0.36884865,
      -0.30533755,
      0.17346847,
      0.1977264,
      0.117623426
    ],
    [
      -0.11868802,
      0.81982213,
      -0.016743883,
      -0.25279695,
      -0.07258586,
      0.13529573,
      0.10087822,
      -0.39981067
    ],
    [
      -0.2643215,
      -0.16836242,
      -0.27710807,
      -0.22626233,
      0.47031185,
      0.4450702,
      0.3788025,
      0.27950254
    ],
    [
      0.34300563,
      -0.054058574,
      -0.10862868,
      0.4094225,
      -0.17513736,
      -0.25135508,
      -0.09787142,
      0.07798974
    ],
    [
      0.23135178,
      0.051117465,
      -0.18554424,
      0.15959758,
      -0.3666463,
      -0.3845923,
      0.23409383,
      -0.09949651
    ],
    [
      0.3901985,
      0.17897892,
      0.2350347,
      0.07557989,
      -0.009547742,
      -0.15511087,
      -0.07865221,
      -0.10340961
    ],
    [
      0.041639227,
      0.24013728,
      0.036034107,
      -0.19081983,
      -0.29567456,
      -0.17959139,
      0.26020667,
      0.34791544
    ],
    [
      0.46057433,
      0.14848126,
      -0.15484512,
      -0.09447056,
      -0.051068578,
      -0.13365237,
      0.16575472,
      -0.28073284
    ]
  ],
  "L1.Bias": [
    [
      0.26209638,
      -0.15816131,
      -0.20466296,
      -0.29516426,
      0.34093955,
      -0.20346996,
      0.47684726,
      0.106303215,
      0.23977017,
      0.4738346,
      0.05691569,
      0.39659134,
      0.47202265,
      -0.26656002,
      0.07721953,
      -0.02614802,
      0.3513492,
      0.107840285,
      0.2218482,
      -0.08625248,
      -0.0009832183,
      0.5065737,
      0.35616115,
      0.2184917,
      -0.1949963,
      -0.0402582,
      -0.10670901,
      0.4124747,
      -0.3308561,
      -0.14104426,
      -0.02142793,
      -0.027561119,
      0.47466815,
      0.33590907,
      0.43030158,
      0.14984192,
      0.549144,
      -0.2756047,
      0.11662243,
      0.23297872,
      -0.25494775,
      0.3236504,
      -0.1587353,
      0.009713168,
      0.34123528,
      0.27300766,
      0.10166757,
      0.5637415,
      0.14128475,
      0.6313569,
      -0.06585236,
      -0.27019387,
      -0.23889153,
      -0.026799973,
      -0.41114512,
      -0.03233426,
      -0.30748335,
      -0.35878292,
      -0.09655412,
      -0.32973108,
      -0.062607996,
      0.2780964,
      0.4017151,
      -0.031107293
    ]
  ],
  "L2.Weight": [
    [
      0.03988228,
      0.3004058,
      -0.008607335,
      -0.10971162,
      0.17710645,
      0.12213091,
      0.11190845,
      0.11489696,
      0.13420764,
      0.10652342,
      0.10080098,
      0.12215374,
      0.069434494,
      0.10079418,
      0.05375,
      0.03832359,
      0.02494448,
      0.07565067,
      0.10205974,
      0.015025191,
      0.014358123,
      0.0086578615,
      0.2625153,
      0.23167415,
      -0.06629788,
      0.024265777,
      -0.03928408,
      0.10191633,
      -0.14119884,
      -0.16833057,
      -0.13991667,
      -0.041359708,
      0.13314126,
      0.31686163,
      0.19253643,
      -0.019251358,
      0.0794722,
      -0.031950094,
      0.23361048,
      0.122419275,
      -0.10345218,
      0.0818615,
      -0.094910905,
      0.29972214,
      0.008870318,
      0.13828748,
      -0.08499413,
      0.037675604,
      0.1085094,
      0.105842754,
      -0.0050484072,
      0.26407436,
      -0.04247772,
      0.028790843,
      -0.18395232,
      -0.008863711,
      -0.0083779255,
      -0.14108431,
      0.08623945,
      0.066790216,
      -0.13681494,
      -0.0055327415,
      0.06866326,
      -0.13037784
    ],
    [
      0.056803823,
      -0.38025597,
      0.07869883,
      0.24746343,
      -0.23177594,
      -0.11604616,
      -0.03205123,
      -0.15329783,
      -0.18730184,
      -0.18566148,
      0.100351974,
      -0.052196674,
      -0.039785758,
      -0.117822096,
      0.046558764,
      0.22356674,
      -0.15202056,
      0.029511303,
      -0.13819264,
      0.19554779,
      -0.38314596,
      -0.05768002,
      -0.08383034,
      -0.07172531,
      -0.2622754,
      0.14687112,
      0.22407363,
      0.024268758,
      0.38941142,
      0.06424376,
      0.025349455,
      0.27645555,
      0.047192976,
      -0.016884224,
      -0.1721849,
      0.2311542,
      -0.3864968,
      0.23587096,
      -0.06816429,
      0.005502014,
      0.3057097,
      0.02158487,
      0.1645941,
      0.07190659,
      0.0025122825,
      0.14790176,
      0.035315443,
      -0.18001117,
      0.026087599,
      -0.3086828,
      0.16317269,
      -0.00804224,
      0.21661192,
      -0.22205144,
      0.31076616,
      0.095219456,
      0.018931853,
      0.6139058,
      -0.1735003,
      0.062877454,
      -0.044954486,
      -0.29048136,
      -0.18504544,
      -0.05651275
    ],
    [
      0.06758486,
      0.13019706,
      0.0960255,
      -0.0067516025,
      -0.019882666,
      0.26603532,
      0.081645146,
      0.06322563,
      0.17879835,
      -0.057647854,
      0.29005083,
      0.20993663,
      0.109265655,
      -0.03678135,
      -0.03591287,
      -0.121545255,
      0.07303577,
      0.14590757,
      0.1992234,
      0.2145578,
      -0.040642075,
      0.14881942,
      0.21196048,
      0.094696246,
      -0.13124321,
      -0.107422695,
      0.1407179,
      0.02118376,
      -0.24485347,
      -0.0077109924,
      0.012874124,
      0.051334597,
      -0.06139168,
      0.1086506,
      0.1694146,
      0.1415174,
      0.23104057,
      -0.15930991,
      0.20158957,
      0.2235295,
      -0.20768376,
      0.12846133,
      -0.0007233299,
      0.09035946,
      -0.06517344,
      0.23489732,
      0.04783363,
      0.1228452,
      0.0152701195,
      0.16475478,
      0.09670343,
      0.13634479,
      0.03454261,
      0.049012266,
      -0.22624432,
      0.13829027,
      -0.11788313,
      -0.28101915,
      0.0848368,
      0.038100325,
      -0.138906,
      0.10469438,
      0.16530862,
      -0.21440278
    ],
    [
      -0.26727057,
      -0.20822859,
      -0.35007674,
      0.30093536,
      -0.2646468,
      -0.1803401,
      -0.13136812,
      -0.19250882,
      -0.4233128,
      -0.15375195,
      0.036729146,
      -0.0050619133,
      -0.11602919,
      -0.17047781,
      0.16377255,
      0.28578702,
      -0.29664078,
      0.02136427,
      -0.19906765,
      0.12530491,
      -0.35425037,
      0.015619454,
      -0.01689334,
      0.0095938165,
      -0.27062753,
      0.10545328,
      -0.00940506,
      -0.042604312,
      0.20534527,
      0.22261749,
      0.0028075387,
      0.3814856,
      -0.27636722,
      0.04666248,
      -0.19706397,
      0.15646885,
      -0.583044,
      0.22483118,
      -0.02301132,
      0.017053185,
      0.42047152,
      -0.029803218,
      0.23974161,
      0.0016678093,
      -0.011181947,
      0.1601775,
      0.26534513,
      -0.23523991,
      0.2158341,
      -0.23837587,
      0.15539974,
      -0.05222097,
      0.261721,
      -0.33551386,
      0.28685397,
      -0.27445984,
      -0.14033373,
      0.54843646,
      -0.033005014,
      -0.38142005,
      -0.15648244,
      -0.29064,
      -0.15689486,
      0.038517613
    ],
    [
      -0.19076441,
      -0.22348851,
      -0.44039354,
      0.22684398,
      -0.20721075,
      0.0034996439,
      -0.045973014,
      -0.24328986,
      -0.07714833,
      -0.21388754,
      -0.16700667,
      -0.14415617,
      -0.13859574,
      -0.13518775,
      0.14413397,
      0.10230732,
      -0.024475863,
      0.18381462,
      -0.12887253,
      0.0713026,
      -0.32577115,
      -0.038875755,
      -0.09483712,
      -0.02468435,
      -0.12562735,
      0.1889601,
      0.16962527,
      0.1197182,
      0.2286583,
      0.0071724616,
      0.22765124,
      0.038685206,
      -0.17027792,
      -0.04236096,
      0.049395986,
      0.12181824,
      -0.2748827,
      0.20528409,
      -0.052448988,
      0.1520107,
      0.2187529,
      0.0015522405,
      0.20301223,
      -0.0059477743,
      -0.0151135195,
      0.043233104,
      0.16360307,
      -0.13908102,
      0.0844489,
      -0.112364955,
      0.08254398,
      -0.19962667,
      0.24439418,
      -0.11003702,
      0.37358853,
      -0.113079265,
      -0.16712253,
      0.37864357,
      -0.20321727,
      -0.38080692,
      -0.14695023,
      -0.16188622,
      -0.048727877,
      -0.043826364
    ],
    [
      -0.06876435,
      -0.07909194,
      -0.047808845,
      -0.058872465,
      0.080866456,
      0.05357496,
      0.08021688,
      -0.013285423,
      0.010209988,
      0.012956429,
      -0.13886146,
      -0.019603213,
      -0.039595023,
      -0.08003186,
      -0.109949894,
      0.09606797,
      0.068343416,
      0.046114143,
      0.10445935,
      -0.082140386,
      -0.041256323,
      0.015618599,
      -0.04663865,
      -0.046790957,
      -0.116215914,
      0.02092696,
      -0.08606643,
      -0.027352404,
      0.11364858,
      -0.053356446,
      -0.046851918,
      0.06379146,
      -0.06174556,
      -0.0244969,
      0.09078967,
      -0.07042534,
      -0.10379512,
      -0.08049457,
      -0.052259095,
      -0.087813325,
      -0.077377066,
      0.03519211,
      0.0064599444,
      -0.066341095,
      -0.11538035,
      -0.067269966,
      -0.07072228,
      -0.054120667,
      -0.12675254,
      0.0014019526,
      -0.10152705,
      -0.12007938,
      -0.112351134,
      0.02374127,
      -0.09137946,
      -0.056940895,
      0.06742853,
      0.047292985,
      0.04149161,
      -0.12720507,
      -0.10047419,
      -0.0682824,
      0.0904848,
      -0.0046161995
    ],
    [
      -0.17234157,
      -0.16412753,
      -0.44817063,
      0.18032977,
      -0.15322182,
      0.058045,
      0.0043969364,
      -0.19885238,
      -0.18575338,
      -0.10496238,
      -0.03930591,
      0.0066509442,
      -0.031791568,
      -0.09042332,
      0.27412504,
      0.16039935,
      -0.20558159,
      0.1290938,
      -0.20376953,
      0.21219559,
      -0.18520997,
      -0.13919885,
      0.04100436,
      0.10108378,
      -0.3296321,
      0.12713353,
      -0.11504429,
      0.03839684,
      0.32001472,
      0.16040069,
      0.13940795,
      0.23156442,
      -0.2645653,
      -0.15121138,
      0.07184499,
      0.030336298,
      -0.39461735,
      0.31395504,
      0.06990032,
      -0.13446924,
      0.28515568,
      -0.05206734,
      0.22104754,
      0.00830521,
      -0.077260226,
      0.011853508,
      0.07811303,
      -0.26636687,
      0.052576378,
      -0.24382193,
      0.21082777,
      -0.45434943,
      0.204907,
      -0.27105546,
      0.43827245,
      -0.13043882,
      -0.117464006,
      0.4637787,
      -0.152483,
      -0.16371271,
      -0.19186081,
      -0.267073,
      -0.24677098,
      -0.13502984
    ],
    [
      0.04056191,
      -0.043285668,
      0.030966068,
      -0.09081368,
      -0.012178036,
      -0.098959774,
      0.030623015,
      -0.081195086,
      -0.060521547,
      -0.13517815,
      -0.025669359,
      0.08217748,
      0.03616235,
      -0.08892053,
      -0.015692225,
      -0.018871618,
      -0.13240977,
      0.07557694,
      -0.025840363,
      -0.007559583,
      -0.07606021,
      -0.08256174,
      -0.0150063215,
      0.022736402,
      0.001851472,
      -0.08578575,
      0.08500428,
      -0.05394758,
      -0.110327736,
      -0.078871526,
      0.104655355,
      -0.020398743,
      -0.042521294,
      -0.07615446,
      -0.06309154,
      -0.13593295,
      -0.12175375,
      0.061093934,
      0.06869276,
      0.08198495,
      -0.10935808,
      0.03922682,
      -0.096312754,
      0.033300802,
      0.062020913,
      0.070916414,
      0.05464486,
      0.047122728,
      -0.025977513,
      0.029347586,
      -0.07230204,
      0.02075424,
      -0.0665223,
      -0.027111813,
      -0.13484669,
      -0.0634142,
      -0.08681274,
      -0.07740171,
      -0.11287136,
      -0.13288663,
      -0.010431662,
      0.054924976,
      0.08429386,
      0.053421926
    ],
    [
      -0.022687403,
      0.14919321,
      0.08681598,
      0.012123834,
      -0.0126151815,
      0.29877692,
      0.18913667,
      0.01049596,
      0.037285585,
      0.15647756,
      0.24213423,
      0.18397024,
      -0.032863375,
      0.14257297,
      -0.097962104,
      0.020781074,
      0.06238971,
      0.14020874,
      0.19823118,
      0.15514326,
      -0.015525694,
      0.15130904,
      0.112485364,
      0.09471487,
      -0.067798026,
      0.0365858,
      0.025361408,
      0.17102098,
      -0.19281146,
      0.008489748,
      -0.0050827,
      -0.007424382,
      -0.03497712,
      0.11323794,
      0.118666,
      -0.052732687,
      0.27280834,
      -0.28370455,
      0.23901829,
      0.23556085,
      -0.07988719,
      0.22468789,
      -0.20559576,
      0.2913557,
      -0.016953755,
      0.018974775,
      0.117215425,
      0.046058808,
      0.069038235,
      0.30176616,
      -0.10402564,
      0.14220726,
      0.07622425,
      -0.03456602,
      -0.099446066,
      -0.07839575,
      -0.070208386,
      -0.32414073,
      0.06275649,
      -0.0012046833,
      0.035170853,
      0.06537066,
      0.049558,
      -0.013288947
    ],
    [
      0.007234441,
      -0.020555839,
      -0.094043896,
      -0.0024199497,
      0.08204052,
      0.04763784,
      -0.12905066,
      0.08683957,
      -0.012892363,
      0.0324827,
      0.058077816,
      0.0578396,
      -0.12605861,
      0.08948389,
      -0.11267146,
      -0.0032927273,
      -0.11986882,
      -0.057858944,
      -0.04290489,
      -0.064983346,
      -0.0508587,
      -0.030260276,
      0.08229693,
      0.048046783,
      0.045733456,
      0.02164466,
      0.06947135,
      -0.043440886,
      -0.016127933,
      -0.00068920146,
      -0.12910344,
      -0.12183537,
      -0.018162921,
      -0.07433096,
      -0.029797457,
      -0.05759216,
      -0.0019233916,
      0.071179636,
      -0.073150486,
      0.05551621,
      0.077655524,
      -0.11989931,
      -0.123678744,
      -0.13287602,
      -0.10267282,
      -0.089986,
      -0.041076798,
      -0.0634758,
      -0.10230387,
      -0.064826205,
      -0.06950831,
      0.06809107,
      -0.06926352,
      -0.11593273,
      0.025738643,
      -0.044714022,
      0.074014924,
      0.033911422,
      0.06749575,
      -0.11587163,
      0.05957456,
      0.074662335,
      -0.08670516,
      0.09050264
    ],
    [
      0.07193737,
      -0.03179945,
      0.014786381,
      -0.070228316,
      -0.1380101,
      -0.0026751477,
      0.011651756,
      -0.111661114,
      0.04150906,
      -0.1676436,
      0.052166887,
      0.07971598,
      0.0009993919,
      -0.14092621,
      0.018835708,
      -0.0040311757,
      -0.006796821,
      -0.005283355,
      0.044793468,
      -0.1082287,
      -0.06384236,
      -0.040477652,
      -0.016872756,
      0.088229835,
      -0.10412495,
      -0.046855308,
      -0.003947076,
      -0.037699744,
      0.09050743,
      -0.0057813074,
      -0.13175435,
      -0.02810526,
      -0.09451027,
      -0.019430721,
      -0.031235836,
      -0.164171,
      -0.053162597,
      0.007870172,
      -0.04066304,
      0.08270229,
      -0.031314638,
      0.06693381,
      0.016621526,
      -0.098174855,
      -0.014399814,
      0.054657258,
      -0.089915365,
      -0.12136829,
      0.08477384,
      0.08001021,
      -0.089869305,
      0.01888708,
      -0.021708567,
      -0.1704121,
      0.059911404,
      -0.014767429,
      -0.049930364,
      0.09356368,
      -0.13560978,
      0.05513631,
      0.075439274,
      0.035906367,
      -0.00906379,
      0.005717938
    ],
    [
      -0.044716235,
      0.120741226,
      0.024204189,
      -0.100012854,
      -0.019953866,
      0.25539452,
      0.15679389,
      -0.110055044,
      0.1133588,
      0.10036539,
      0.24695572,
      0.1645825,
      0.16109723,
      0.019216899,
      0.10172123,
      0.044111,
      -0.042149093,
      -0.034116894,
      0.14299978,
      0.15568933,
      -0.052885156,
      0.10348338,
      0.13713627,
      0.19602802,
      -0.078724414,
      0.037525807,
      0.13218965,
      0.027822785,
      -0.101825275,
      -0.049693488,
      -0.0008860178,
      0.094144754,
      0.07060522,
      0.14386502,
      0.18992451,
      -0.0118538635,
      0.07243487,
      -0.14163193,
      0.042174138,
      0.09545167,
      -0.18884398,
      0.1631645,
      -0.053833038,
      0.15803055,
      -0.08987764,
      0.019761806,
      0.07511099,
      0.1661731,
      -0.026867473,
      0.16237652,
      -0.08951268,
      0.17308891,
      0.17516758,
      0.072083525,
      -0.19259225,
      0.09893725,
      0.01727104,
      -0.20962612,
      0.20993453,
      0.053168062,
      -0.043242127,
      -0.029925166,
      0.12269326,
      -0.043681893
    ],
    [
      0.049029253,
      0.15715913,
      -0.016655533,
      0.0007386163,
      -0.015845167,
      0.20797619,
      0.088532224,
      -0.045466144,
      0.14675353,
      0.07005205,
      0.25906223,
      0.09739754,
      -0.014127008,
      0.16235928,
      0.031953916,
      -0.10512862,
      0.023678895,
      0.10372278,
      0.033641312,
      0.15124461,
      0.06734568,
      -0.00067780603,
      0.09156971,
      0.11710455,
      0.094103836,
      0.061260995,
      0.063719384,
      0.26376835,
      -0.17522547,
      -0.18358178,
      -0.010900087,
      0.014275399,
      0.15337461,
      0.20315118,
      0.2012106,
      0.10753643,
      0.23763885,
      -0.29770038,
      0.26014942,
      0.008150928,
      -0.009293842,
      0.17513935,
      -0.18440703,
      0.20756176,
      -0.019153519,
      0.04437665,
      -0.035840575,
      0.093975015,
      0.1861188,
      0.12511413,
      0.06337225,
      0.23346657,
      0.04812247,
      0.0117787225,
      -0.2099804,
      -0.08469531,
      -0.09495021,
      -0.34620556,
      0.062087175,
      0.12097769,
      -0.10049407,
      -0.0136994235,
      0.10612244,
      -0.100606754
    ],
    [
      -0.23552734,
      -0.06781851,
      -0.19179545,
      0.28816128,
      -0.13474154,
      -0.2008133,
      -0.1682872,
      0.035767756,
      -0.35622522,
      -0.14236033,
      0.027909154,
      0.0301903,
      -0.004346793,
      -0.022613183,
      0.2038691,
      0.18715279,
      -0.026735816,
      0.08042681,
      -0.28615317,
      0.052650005,
      -0.04335485,
      -0.10077953,
      0.10433307,
      0.075999804,
      -0.34191364,
      0.30811703,
      -0.17464559,
      0.026394168,
      0.32548848,
      0.31878808,
      0.1701344,
      0.2784984,
      -0.2467859,
      -0.002707465,
      -0.020307401,
      0.033953506,
      -0.4930634,
      0.20361015,
      0.008536857,
      -0.012602644,
      0.17522371,
      -0.049232665,
      0.23908208,
      -0.1424078,
      0.03239445,
      0.1742806,
      0.16276272,
      -0.2323818,
      0.12044928,
      -0.17704499,
      0.2499121,
      -0.1841654,
      0.10138937,
      -0.2309823,
      0.30119738,
      -0.26627228,
      -0.12241495,
      0.39502385,
      0.024959704,
      -0.41528243,
      -0.27132323,
      0.08687349,
      -0.21365063,
      0.12023068
    ],
    [
      0.018894112,
      0.3355543,
      -0.078486644,
      -0.011198822,
      0.064395934,
      0.29247504,
      0.07593203,
      -0.04369912,
      0.094455324,
      0.11900227,
      0.09317493,
      0.012490472,
      0.017652756,
      0.022227198,
      0.030068766,
      -0.032272313,
      0.095427975,
      0.18044157,
      0.1082329,
      0.046218302,
      -0.060810998,
      0.00076144555,
      0.06623481,
      0.09498666,
      -0.13576196,
      -0.036226314,
      0.12702902,
      0.23678917,
      -0.056563277,
      -0.10637591,
      -0.053648703,
      -0.1478957,
      0.07383452,
      0.08308216,
      0.16951744,
      0.026459407,
      0.19938476,
      -0.13470761,
      0.10471075,
      0.20937367,
      -0.0948877,
      0.25539687,
      -0.090049654,
      0.24531527,
      0.0718968,
      0.18055764,
      0.07318814,
      0.061575238,
      0.13040708,
      0.2074997,
      0.026994482,
      0.33935642,
      0.049583755,
      -0.06318122,
      -0.1742129,
      0.04346806,
      -0.048144225,
      -0.3037457,
      0.2119309,
      0.18343133,
      -0.10733874,
      0.023006137,
      0.119625,
      -0.19459403
    ],
    [
      0.045851417,
      0.111648336,
      -0.033372745,
      -0.07103469,
      0.019718096,
      0.28196734,
      0.118850894,
      0.12574804,
      0.10737977,
      0.0777538,
      0.18097258,
      0.120367765,
      -0.044631235,
      -0.018277701,
      -0.0061883107,
      -0.038182873,
      0.119658485,
      0.11089185,
      0.20711464,
      0.11409628,
      -0.034662496,
      -0.0008830802,
      0.052409377,
      0.08925975,
      0.022643333,
      0.048266564,
      0.15114604,
      0.081197046,
      -0.12138741,
      -0.0803679,
      -0.03693766,
      0.03017927,
      0.02785817,
      0.16347279,
      0.092212714,
      0.085232385,
      0.06871557,
      -0.2101256,
      0.14405042,
      0.06570351,
      -0.14340432,
      0.19886136,
      -0.04106303,
      0.123880245,
      -0.053632744,
      0.11950733,
      -0.081365526,
      0.08687278,
      0.08185806,
      0.1911123,
      0.019433927,
      0.17579645,
      0.08823913,
      0.071340404,
      -0.15883724,
      0.08272226,
      -0.019165253,
      -0.29322168,
      0.13300529,
      0.02150589,
      -0.057974942,
      -0.03240263,
      0.011726872,
      0.02324207
    ],
    [
      -0.13135087,
      0.043494027,
      -0.12074562,
      -0.03005589,
      -0.014162228,
      0.065759845,
      -0.056410998,
      0.026321545,
      0.0020180447,
      0.06297836,
      -0.010441809,
      0.036640402,
      -0.078554824,
      -0.098495185,
      0.10602689,
      -0.08657925,
      -0.032674454,
      -0.03807711,
      0.09798265,
      -0.038022432,
      -0.104909346,
      -0.04601302,
      0.050971244,
      0.04436203,
      0.10341151,
      -0.03996053,
      0.037447292,
      -0.121046424,
      0.03314814,
      0.049263936,
      0.08190552,
      -0.06871896,
      -0.057133302,
      0.02040799,
      -0.1022566,
      -0.10888045,
      -0.1374207,
      0.01191962,
      0.059563022,
      0.010610741,
      -0.0037076087,
      0.021733345,
      -0.07395862,
      -0.0054290527,
      -0.041420836,
      -0.079049915,
      0.09084889,
      -0.11213092,
      0.011742255,
      -0.12185882,
      -0.009706898,
      -0.06819062,
      0.03560045,
      -0.07575111,
      0.06909188,
      -0.120966,
      0.075079456,
      -0.09376957,
      0.053411443,
      -0.06371659,
      -0.014802337,
      -0.04073352,
      0.07097742,
      0.03585002
    ],
    [
      -0.2737946,
      -0.21223515,
      -0.41134447,
      0.28564018,
      -0.13777345,
      -0.16188137,
      -0.11658541,
      -0.096598126,
      -0.33535954,
      -0.048403513,
      0.062103707,
      0.07840977,
      -0.0628325,
      -0.21711771,
      0.23330478,
      0.13238901,
      -0.23198965,
      0.055094227,
      -0.12983347,
      0.17734997,
      -0.20174243,
      -0.017378073,
      -0.11095645,
      -0.083606996,
      -0.3910611,
      0.1464574,
      -0.18707712,
      -0.006604962,
      0.2872598,
      0.25932848,
      0.06296134,
      0.13378997,
      -0.16242808,
      0.0077694114,
      -0.107486285,
      0.06809962,
      -0.507408,
      0.33139324,
      0.06453269,
      -0.11024945,
      0.25962585,
      -0.0043823863,
      0.3464996,
      -0.05022137,
      -0.008517761,
      0.18918025,
      0.16693783,
      -0.033090066,
      0.09502156,
      -0.21432334,
      0.17918268,
      -0.1956206,
      0.24740559,
      -0.3820396,
      0.38885835,
      -0.2508301,
      -0.07482565,
      0.54875594,
      -0.17577605,
      -0.37699568,
      -0.2894128,
      -0.10375661,
      -0.10432228,
      -0.023951722
    ],
    [
      -0.0820423,
      -0.25015846,
      -0.35689297,
      0.28704607,
      -0.07541153,
      -0.11575032,
      -0.050910067,
      -0.15377143,
      -0.21297988,
      -0.13549162,
      -0.18582627,
      0.021484701,
      -0.035512913,
      -0.030327456,
      0.10664306,
      0.23610762,
      -0.095633596,
      0.09449452,
      -0.27216694,
      0.15005998,
      -0.2443846,
      -0.07471111,
      0.07502008,
      0.099166,
      -0.21624179,
      0.22032781,
      -0.031185096,
      -0.019658105,
      0.29048875,
      0.10685329,
      0.20717078,
      0.3128667,
      -0.35837373,
      -0.10049755,
      -0.17755412,
      0.03528984,
      -0.47552022,
      0.24233902,
      0.017394776,
      0.02764864,
      0.26746672,
      0.049226623,
      0.31515083,
      -0.13770166,
      -0.13931577,
      0.039084923,
      0.18747194,
      -0.20714456,
      0.0881274,
      -0.3064165,
      0.08489545,
      -0.3893585,
      0.3304036,
      -0.3289237,
      0.20692004,
      -0.207015,
      -0.086785145,
      0.3751103,
      -0.1705226,
      -0.17279233,
      -0.20377403,
      -0.2930021,
      -0.15444642,
      -0.05471567
    ],
    [
      -0.09825131,
      0.42397684,
      0.011441753,
      -0.1819658,
      0.030505061,
      0.16949092,
      0.15696418,
      -0.04261329,
      0.048481174,
      -0.06485846,
      0.28748745,
      0.10016572,
      0.0015981296,
      -0.018495997,
      -0.098617375,
      -0.09939071,
      0.20843998,
      -0.009985443,
      0.17728174,
      0.041379657,
      -0.076166876,
      0.20505235,
      0.17556393,
      0.30897844,
      -0.07477509,
      -0.12508035,
      -0.013984111,
      0.26078105,
      -0.25088367,
      -0.037628677,
      -0.054586034,
      -0.04807729,
      0.08554597,
      0.15248114,
      0.18450151,
      -0.06449362,
      0.1138488,
      -0.08705244,
      0.2180279,
      0.09110838,
      -0.18709546,
      0.12065976,
      -0.026592892,
      0.21812867,
      -0.02573265,
      0.13579082,
      0.094023235,
      0.046856508,
      -0.006903827,
      0.27316442,
      0.064005546,
      0.15906695,
      -0.07571402,
      -0.02754282,
      -0.112952374,
      0.030429998,
      -0.026595192,
      -0.4235344,
      0.16820425,
      0.015858393,
      -0.008276222,
      0.098548815,
      0.18958521,
      -0.07363416
    ],
    [
      -0.034835942,
      0.16041893,
      -0.0817376,
      0.022995636,
      0.14702737,
      0.15605405,
      0.14127886,
      0.123486646,
      -0.0071244626,
      0.14397755,
      0.20780253,
      0.12149182,
      0.16128483,
      0.18348679,
      0.041837554,
      0.0037123905,
      0.17679138,
      0.08670368,
      0.07277224,
      0.14858626,
      -0.08792589,
      0.13828531,
      0.19131993,
      0.21829635,
      -0.10292038,
      -0.13017616,
      0.1572752,
      0.19722056,
      -0.07237622,
      -0.0969942,
      -0.09826623,
      -0.07649406,
      0.12406118,
      0.17366791,
      0.2032117,
      0.10408274,
      0.057885095,
      -0.1665012,
      0.1628333,
      0.055488434,
      -0.08916625,
      0.17993781,
      0.029433073,
      0.09686043,
      0.054202754,
      0.023394499,
      -0.056411408,
      0.10681557,
      0.16676621,
      0.25640842,
      -0.112782314,
      0.23513053,
      -0.044471312,
      -0.008950269,
      -0.25187892,
      -0.01409766,
      0.018049194,
      -0.37686768,
      0.004954076,
      0.13708976,
      -0.009298544,
      0.0245312,
      0.25324234,
      -0.18253009
    ],
    [
      -0.09935056,
      -0.115319766,
      -0.04314385,
      -0.05499432,
      0.05519291,
      -0.02696571,
      0.008440566,
      -0.08233664,
      0.064693175,
      0.072342984,
      -0.13694195,
      -0.059790585,
      -0.1312527,
      0.01566717,
      -0.12773135,
      -0.07348725,
      0.10408014,
      -0.14620082,
      0.06819554,
      -0.014966774,
      0.069970764,
      -0.08607232,
      0.049995262,
      -0.0053023444,
      -0.020533571,
      0.06517672,
      -0.15528533,
      -0.12629762,
      0.085890085,
      -0.09289091,
      -0.11695697,
      -0.029794766,
      -0.06454326,
      -0.041222554,
      -0.10860942,
      0.009862318,
      -0.13734773,
      0.0099399295,
      0.032944232,
      -0.0050596246,
      -0.0006761794,
      -0.012652106,
      -0.038709275,
      -0.06250142,
      -0.08260107,
      -0.10754046,
      -0.09235765,
      0.088613324,
      -0.05126945,
      0.015122383,
      0.05923875,
      -0.037373185,
      -0.112755895,
      -0.1140028,
      -0.06612501,
      0.016572274,
      -0.13324729,
      -0.041105404,
      0.012795747,
      0.08516745,
      0.016577853,
      0.0008935662,
      0.050586056,
      0.03952123
    ],
    [
      0.076648414,
      0.15976833,
      -0.06408679,
      -0.05907525,
      0.06795995,
      0.19223325,
      0.072898895,
      0.06664226,
      0.17584756,
      0.010238758,
      0.05077427,
      0.06192991,
      0.021315748,
      0.13138114,
      -0.053873975,
      -0.04050072,
      0.075960256,
      0.005002202,
      0.19181648,
      0.07036693,
      0.0061744694,
      0.023630785,
      0.1640392,
      0.22914284,
      -0.014013371,
      -0.05295152,
      0.08398495,
      0.12249346,
      -0.17749146,
      -0.11063219,
      -0.060946863,
      -0.10815677,
      0.14378186,
      0.13561742,
      0.055392135,
      0.05378122,
      0.17409784,
      -0.14727809,
      0.22182946,
      0.035792615,
      -0.027200162,
      0.17551512,
      -0.139604,
      0.112420276,
      0.040562894,
      0.16935638,
      0.13075417,
      0.16034044,
      0.02455191,
      0.10591969,
      0.008346626,
      0.115062736,
      0.015352735,
      -0.10741928,
      -0.06779716,
      0.10076503,
      -0.03557217,
      -0.29092804,
      0.01927665,
      0.05481567,
      0.025821619,
      0.04219945,
      0.13723384,
      0.05917265
    ],
    [
      -0.12547447,
      -0.2654717,
      -0.28774214,
      0.30078322,
      -0.14510937,
      -0.25682133,
      -0.17115647,
      -0.13417087,
      -0.26234743,
      -0.075394884,
      0.0044176923,
      -0.055919077,
      -0.12145531,
      -0.12748049,
      0.16684796,
      0.14262657,
      -0.13341098,
      0.16747871,
      -0.15896831,
      0.05134399,
      -0.16846387,
      -0.046710473,
      0.026088972,
      -0.042160146,
      -0.4054526,
      0.26778474,
      -0.06356577,
      0.059387606,
      0.293765,
      0.1635205,
      0.14171281,
      0.28191933,
      -0.3235724,
      0.03928108,
      -0.11650027,
      0.07010157,
      -0.41781223,
      0.37217015,
      -0.09299116,
      -0.07102652,
      0.31162012,
      -0.055393603,
      0.25915402,
      -0.008922656,
      -0.0041420353,
      0.21931976,
      0.06957612,
      -0.23867236,
      0.19608909,
      -0.28117687,
      0.09375037,
      -0.17752345,
      0.29117545,
      -0.37902492,
      0.25488758,
      -0.22715846,
      -0.12699278,
      0.54290795,
      -0.08257778,
      -0.16280638,
      -0.26745805,
      -0.21655461,
      -0.12472753,
      0.020876428
    ],
    [
      -0.00018499029,
      0.17944922,
      0.12728283,
      -0.0056834496,
      0.14261302,
      0.23301376,
      0.09803605,
      0.04911473,
      0.1106877,
      0.058505714,
      0.22733715,
      0.19893727,
      0.087773375,
      0.045337867,
      0.12292168,
      -0.15784015,
      0.15756094,
      0.1276251,
      0.18154633,
      0.07510658,
      -0.083558686,
      0.16493255,
      0.076802276,
      0.1792002,
      0.05604604,
      -0.15000303,
      0.050919224,
      0.06169305,
      -0.023838159,
      -0.1385135,
      0.040059913,
      0.035468202,
      0.10167042,
      0.2580499,
      0.09065502,
      -0.082839616,
      0.18288603,
      -0.15761599,
      0.109058574,
      -0.04531328,
      -0.13594271,
      0.07703281,
      0.04147233,
      0.22767487,
      0.09819257,
      0.20127694,
      -0.067544,
      0.0024317529,
      0.005923201,
      0.053496104,
      0.08157132,
      0.19613741,
      0.12872988,
      -0.029050348,
      -0.23991024,
      -0.029869374,
      0.042761404,
      -0.14313659,
      0.1225631,
      0.0447627,
      -0.13597015,
      -0.041426603,
      0.15257627,
      -0.12649317
    ],
    [
      0.044297803,
      0.013421964,
      -0.056106783,
      0.058733966,
      -0.059680067,
      -0.02299131,
      -0.06302416,
      -0.13697541,
      0.00601688,
      0.021182451,
      -0.088024855,
      0.055257984,
      -0.128567,
      -0.12822951,
      -0.100548774,
      -0.045232385,
      -0.028459642,
      -0.0481846,
      0.035053924,
      -0.12868235,
      -0.0037298265,
      -0.02445808,
      0.010230882,
      0.106934324,
      0.05875916,
      -0.084388986,
      -0.10833164,
      -0.04580242,
      -0.0675957,
      0.024208572,
      -0.015899664,
      0.07403915,
      0.027926689,
      -0.045888077,
      -0.01117962,
      0.010667854,
      -0.025629476,
      0.06399136,
      -0.11150835,
      0.04146112,
      -0.09249289,
      -0.119605646,
      -0.05597399,
      0.047183987,
      0.062773675,
      0.0008173647,
      -0.022575999,
      -0.02943561,
      -0.07662373,
      -0.025082879,
      -0.025661537,
      0.07736427,
      0.04082737,
      -0.11534592,
      -0.006448735,
      -0.10005034,
      -0.025202971,
      -0.1252355,
      0.0064706453,
      -0.09852901,
      0.11542673,
      0.0758837,
      -0.10215411,
      -0.13186665
    ],
    [
      -0.012270393,
      -0.046894908,
      0.020371284,
      -0.09061958,
      0.03493296,
      -0.12506138,
      -0.073891185,
      -0.075836316,
      0.051643264,
      -0.0032726526,
      -0.12717852,
      -0.08350088,
      -0.06904572,
      -0.1159787,
      0.00566744,
      0.034733664,
      -0.037517194,
      -0.055748586,
      -0.016155956,
      -0.105693296,
      -0.08712939,
      -0.015824161,
      0.10206848,
      -0.051674474,
      0.048368204,
      -0.062264368,
      -0.050261553,
      -0.13059607,
      0.087003715,
      0.10734158,
      -0.010063439,
      0.06805315,
      0.08770871,
      0.048690423,
      0.051296845,
      -0.13245483,
      -0.12981778,
      -0.101948015,
      0.021396438,
      -0.121924125,
      -0.108987205,
      -0.07270462,
      -0.1273564,
      -0.0062326817,
      0.002734967,
      -0.07915554,
      0.067065924,
      -0.058881946,
      -0.04882288,
      0.08282245,
      0.092451155,
      -0.01968702,
      -0.097759776,
      -0.069251806,
      0.0012946534,
      0.05688811,
      0.062230587,
      -0.06342974,
      -0.11817083,
      -0.12531082,
      -0.0496697,
      -0.013847516,
      -0.07078083,
      -0.11070087
    ],
    [
      0.041960184,
      0.09581822,
      -0.06349602,
      -0.12683275,
      0.040622246,
      0.3109417,
      0.1290282,
      -0.009344222,
      0.11981349,
      0.104835466,
      0.16506441,
      0.01281269,
      -0.022262083,
      -0.015080215,
      0.010934381,
      -0.1691099,
      0.06822117,
      0.03298208,
      0.25817603,
      0.21090563,
      0.07644049,
      0.10388228,
      0.13077837,
      0.21568967,
      -0.10043893,
      -0.07425704,
      0.02801243,
      0.10904299,
      -0.23855482,
      -0.009352565,
      0.053412598,
      -0.08902578,
      0.06309961,
      0.16783494,
      0.0905126,
      0.042584848,
      0.23823188,
      -0.13174279,
      0.07060799,
      0.059436634,
      -0.036638524,
      0.21789904,
      -0.052740682,
      0.15318182,
      -0.04892492,
      0.101215735,
      -0.042390026,
      0.09474349,
      0.11122042,
      0.24100085,
      -0.026001522,
      0.2080682,
      0.12051091,
      0.035725538,
      -0.106740296,
      0.05093401,
      -0.04765051,
      -0.3301194,
      0.11244489,
      0.073847234,
      0.090665646,
      0.14016911,
      0.1415811,
      0.021259334
    ],
    [
      0.013428287,
      -0.019422522,
      0.15864605,
      -0.020577697,
      -0.0025804988,
      -0.19586053,
      0.010266469,
      -0.37803292,
      -0.37941533,
      -0.04222894,
      -0.40869808,
      0.08215364,
      -0.43107957,
      -0.121812426,
      -0.31146085,
      -0.20992237,
      0.016592747,
      -0.11532438,
      0.23330735,
      -0.34188956,
      0.1342014,
      0.031233717,
      -0.32730007,
      -0.119413085,
      -0.3009244,
      -0.40360376,
      -0.07361332,
      -0.13534065,
      0.20037046,
      0.18072939,
      -0.04308275,
      -0.18703525,
      0.006128127,
      -0.4541271,
      -0.37863582,
      0.1364141,
      0.016227389,
      0.11591783,
      0.13928244,
      0.007390766,
      -0.3378114,
      -0.0068620015,
      -0.012533725,
      -0.1847864,
      0.21061684,
      -0.38678822,
      -0.06270815,
      0.10087626,
      -0.08306271,
      0.0058191023,
      0.042288713,
      0.13507211,
      -0.0019978927,
      -0.17140336,
      0.07439347,
      0.16585018,
      0.08077667,
      -0.06976378,
      -0.01723966,
      0.057809643,
      0.09654212,
      0.029507663,
      -0.030091025,
      -0.39978468
    ],
    [
      -0.07048824,
      0.24111412,
      -0.0426755,
      0.0687039,
      0.08477907,
      0.19625996,
      0.1848496,
      -0.059740327,
      0.06311698,
      0.0716774,
      0.17625779,
      -0.02942908,
      0.0959117,
      -0.015888538,
      0.03395318,
      0.041577764,
      0.0648482,
      0.0601604,
      0.10875584,
      0.19666019,
      0.08427439,
      0.109874085,
      0.07928977,
      0.10290254,
      0.090219356,
      0.06381833,
      0.12299242,
      0.024833823,
      -0.016547915,
      -0.055117413,
      0.056684315,
      0.096885696,
      0.0503339,
      0.1100836,
      0.2025559,
      -0.028831087,
      0.18834083,
      -0.27620906,
      0.09699241,
      -0.015127572,
      -0.14874041,
      0.19839613,
      -0.14639722,
      0.044183478,
      0.0974106,
      0.19982779,
      0.013436416,
      -0.013520734,
      0.05444463,
      0.08487309,
      0.081834525,
      0.14321081,
      0.02022224,
      -0.10459949,
      -0.16724572,
      0.080231756,
      0.036192164,
      -0.19241264,
      0.051308565,
      0.20570935,
      0.005683822,
      -0.014926018,
      0.06682599,
      -0.087539755
    ],
    [
      0.028487053,
      0.009123144,
      0.064501755,
      -0.026290283,
      0.06832684,
      -0.093048185,
      -0.08358701,
      -0.07526458,
      -0.1403092,
      -0.10733704,
      -0.1443985,
      -0.040169347,
      -0.025554579,
      -0.053367976,
      -0.11561715,
      0.090878375,
      -0.06840569,
      0.030031772,
      0.046402827,
      -0.111799896,
      -0.04577582,
      0.03560909,
      0.09296134,
      -0.042384356,
      0.057385977,
      -0.12277502,
      -0.10469328,
      0.078469925,
      -0.03268939,
      0.09397759,
      -0.015517716,
      -0.08249857,
      0.0819083,
      0.07426915,
      -0.016311212,
      -0.09782452,
      -0.032525007,
      -0.069098294,
      0.05790726,
      -0.023774011,
      0.0044733942,
      0.051640105,
      0.007911825,
      -0.09576968,
      0.06697951,
      0.03895906,
      -0.10043294,
      0.062413745,
      -0.0008503976,
      -0.050941303,
      -0.117944814,
      -0.061112367,
      -0.14171195,
      0.04459557,
      0.059978776,
      -0.07544559,
      0.09820222,
      -0.079867624,
      -0.017135652,
      -0.118035756,
      -0.030724617,
      0.017806938,
      0.024620503,
      -0.03544183
    ],
    [
      -0.036679473,
      0.42756808,
      0.10051455,
      -0.049386762,
      0.06028445,
      0.31834856,
      0.066231444,
      0.11392512,
      0.1449496,
      0.045478657,
      0.22365674,
      0.19240944,
      0.048648756,
      0.14918385,
      0.07253255,
      -0.17972304,
      0.15087752,
      -0.027297359,
      0.11096706,
      0.16032305,
      0.017557666,
      0.11345083,
      0.2879737,
      0.13263439,
      -0.096403666,
      -0.054408025,
      0.05415369,
      0.13411877,
      -0.074812815,
      -0.13640746,
      -0.16609462,
      -0.037751865,
      0.14375542,
      0.23970078,
      0.19665177,
      0.028536255,
      0.2991413,
      -0.09060367,
      0.26878792,
      0.09921389,
      -0.24779598,
      0.15907532,
      -0.033223365,
      0.26333782,
      -0.078508794,
      0.25074905,
      0.020895116,
      0.11128351,
      0.053765558,
      0.18988013,
      0.10799504,
      0.23016413,
      0.07324147,
      -0.13621321,
      -0.24999636,
      0.016102836,
      7.702459E-05,
      -0.25775653,
      0.14634809,
      -0.01532132,
      -0.058471084,
      -0.039806794,
      0.036556475,
      -0.12068984
    ]
  ],
  "L2.Bias": [
    [
      0.11289295,
      0.06314422,
      0.079841636,
      -0.037036132,
      -0.01209603,
      -0.12431155,
      -0.005620694,
      -0.049076896,
      0.23457055,
      0.08623612,
      -0.08840138,
      0.0603049,
      0.24845332,
      -0.053219624,
      0.12733638,
      0.2048938,
      -0.083366424,
      -0.09182185,
      -0.0024466694,
      0.234804,
      0.094326966,
      0.0006112802,
      0.04792634,
      -0.13288827,
      0.17248034,
      -0.05474029,
      -0.07824778,
      0.14254414,
      0.09442647,
      0.042071063,
      -0.115905896,
      0.07780194
    ]
  ],
  "L3.Weight": [
    [
      0.24148412,
      -0.54296464,
      0.17825088,
      -0.5133251,
      -0.5104647,
      -0.028186506,
      -0.7191377,
      -0.06683902,
      0.16646992,
      -0.119337775,
      -0.15030873,
      0.2626257,
      0.17225681,
      -0.5404527,
      0.14722133,
      0.26832846,
      -0.12635818,
      -0.5210184,
      -0.48810124,
      0.2289226,
      0.16074897,
      -0.11320712,
      0.28825212,
      -0.5936598,
      0.28086448,
      -0.106343284,
      -0.010945456,
      0.17649527,
      -0.23499386,
      0.28401506,
      -0.09589622,
      0.2364576
    ]
  ],
  "L3.Bias": [
    [
      -0.052530292
    ]
  ]
}