{
  "L1.Weight": [
    [
      0.23071016371250153,
      0.1588754504919052,
      0.021378347650170326,
      0.48336973786354065,
      -0.33039581775665283,
      0.03748854622244835,
      0.01901763491332531,
      0.14894907176494598
    ],
    [
      0.32096612453460693,
      -0.40242841839790344,
      0.3844926059246063,
      0.15343435108661652,
      0.4286249876022339,
      0.2706683278083801,
      0.29541805386543274,
      -0.22299502789974213
    ],
    [
      0.4071301519870758,
      0.047890838235616684,
      -0.04343803972005844,
      0.35266923904418945,
      -0.23852281272411346,
      0.12282345443964005,
      -0.13283681869506836,
      0.12964892387390137
    ],
    [
      -0.3533484637737274,
      -0.45944860577583313,
      -0.1978483498096466,
      -0.21467255055904388,
      0.051145534962415695,
      -0.16668568551540375,
      0.3062339425086975,
      -0.5429186224937439
    ],
    [
      0.3419201970100403,
      0.02362706884741783,
      -0.06402260810136795,
      0.39935731887817383,
      -0.08193010091781616,
      0.3490622639656067,
      0.0683479905128479,
      -0.08785054087638855
    ],
    [
      0.06930109113454819,
      -0.24287313222885132,
      0.16109919548034668,
      0.41907140612602234,
      0.2522009313106537,
      -0.24602876603603363,
      0.4457109570503235,
      -0.0967579111456871
    ],
    [
      0.2082308679819107,
      -0.1807677447795868,
      -0.32738563418388367,
      -0.05123290792107582,
      -0.3832159638404846,
      0.3789864480495453,
      0.14671169221401215,
      0.14352494478225708
    ],
    [
      0.3254184126853943,
      0.07424470782279968,
      0.26990818977355957,
      -0.3116473853588104,
      -0.011138171888887882,
      -0.35789626836776733,
      0.1177772805094719,
      0.008951373398303986
    ],
    [
      0.08554338663816452,
      0.029812313616275787,
      0.309496134519577,
      -0.17942048609256744,
      -0.46669119596481323,
      -0.47317126393318176,
      0.3704856038093567,
      0.32262784242630005
    ],
    [
      0.30949926376342773,
      -0.16832616925239563,
      -0.3134955167770386,
      -0.3569648563861847,
      -0.3498367369174957,
      0.19914816319942474,
      0.2497112900018692,
      0.33339694142341614
    ],
    [
      -0.09944965690374374,
      -0.19877029955387115,
      0.28577715158462524,
      -0.0958598181605339,
      0.45801571011543274,
      0.015669021755456924,
      0.3018549382686615,
      -0.28108730912208557
    ],
    [
      -0.08248259127140045,
      0.04951879754662514,
      0.04810633137822151,
      -0.0320323184132576,
      0.18557557463645935,
      0.3383098244667053,
      -0.2157883644104004,
      -0.1807534545660019
    ],
    [
      0.3591293394565582,
      -0.046430084854364395,
      -0.05768614634871483,
      -0.22676418721675873,
      -0.2760283350944519,
      0.1567659080028534,
      -0.07147776335477829,
      -0.0962325781583786
    ],
    [
      -0.11949711292982101,
      -0.029311278834939003,
      -0.25951087474823,
      -0.11159483343362808,
      -0.3361879289150238,
      -0.26223933696746826,
      0.47269439697265625,
      0.21585345268249512
    ],
    [
      0.1267162263393402,
      -0.6502708196640015,
      -0.16287875175476074,
      -0.03369741141796112,
      0.11118343472480774,
      -0.21932587027549744,
      -0.16087950766086578,
      -0.11344720423221588
    ],
    [
      -0.050286419689655304,
      -0.3622444272041321,
      0.06928115338087082,
      -0.2748214900493622,
      -0.29406988620758057,
      -0.16860045492649078,
      -0.1576186716556549,
      -0.3455449044704437
    ],
    [
      0.39136675000190735,
      0.02018350549042225,
      0.3044445216655731,
      0.30372023582458496,
      -0.449274480342865,
      0.3201369047164917,
      -0.10540277510881424,
      -0.12292491644620895
    ],
    [
      -0.35557299852371216,
      -0.2678050398826599,
      0.14417843520641327,
      0.10493850708007812,
      0.3057973384857178,
      -0.3152867257595062,
      0.35365039110183716,
      -0.18571840226650238
    ],
    [
      -0.03668246418237686,
      -0.0061052278615534306,
      0.2533200681209564,
      0.4399910569190979,
      0.42670097947120667,
      -0.3692973256111145,
      0.17142260074615479,
      -0.12464645504951477
    ],
    [
      0.0024771213065832853,
      -0.22205494344234467,
      0.40093278884887695,
      -0.21206451952457428,
      0.36594071984291077,
      0.3119332790374756,
      0.2600885331630707,
      -0.13383284211158752
    ],
    [
      0.43921616673469543,
      0.04147002473473549,
      0.181099534034729,
      -0.30738499760627747,
      0.2882924973964691,
      -0.005439253523945808,
      -0.18872882425785065,
      0.32050639390945435
    ],
    [
      0.007492569275200367,
      -0.17371970415115356,
      -0.12659651041030884,
      0.045316100120544434,
      0.2581116259098053,
      0.02394944056868553,
      -0.18615926802158356,
      -0.12902115285396576
    ],
    [
      -0.40727728605270386,
      0.1041351929306984,
      0.14698544144630432,
      -0.36773252487182617,
      0.09157013148069382,
      0.17154063284397125,
      0.05041268840432167,
      -0.05447360500693321
    ],
    [
      0.06878596544265747,
      0.28531935811042786,
      -0.012746443971991539,
      -0.0747782438993454,
      -0.2789593040943146,
      -0.042474448680877686,
      -0.2582545876502991,
      -0.1390693634748459
    ],
    [
      0.4247560501098633,
      0.3761160969734192,
      -0.034124020487070084,
      -0.009641432203352451,
      -0.1847960203886032,
      -0.08762897551059723,
      0.22207650542259216,
      0.10516826063394547
    ],
    [
      -0.38374799489974976,
      -0.2688973844051361,
      0.284116268157959,
      0.07125768065452576,
      -0.28224366903305054,
      -0.2591332793235779,
      -0.20681039988994598,
      -0.5430289506912231
    ],
    [
      -0.07996633648872375,
      0.11686103045940399,
      0.31649839878082275,
      0.27329084277153015,
      -0.43502047657966614,
      -0.30197209119796753,
      0.12412143498659134,
      0.3770308196544647
    ],
    [
      -0.13125334680080414,
      0.11309947818517685,
      0.008588897995650768,
      -0.11229176074266434,
      -0.18332019448280334,
      0.3498819172382355,
      -0.17911170423030853,
      -0.0488182008266449
    ],
    [
      -0.5370320081710815,
      0.3947446644306183,
      0.22188924252986908,
      0.24753950536251068,
      -0.24989505112171173,
      -0.2552196979522705,
      -0.32921066880226135,
      0.5153881907463074
    ],
    [
      0.07642544060945511,
      0.6507054567337036,
      0.03648706525564194,
      -0.09962388873100281,
      -0.013955618254840374,
      -0.09516283869743347,
      -0.26470303535461426,
      -0.29953354597091675
    ],
    [
      0.21833351254463196,
      -0.2154410034418106,
      -0.05419737845659256,
      -0.18112733960151672,
      -0.045146092772483826,
      -0.30466270446777344,
      -0.23823311924934387,
      0.23031483590602875
    ],
    [
      -0.062075987458229065,
      0.40695950388908386,
      -0.17274224758148193,
      -0.3687860667705536,
      -0.11258693784475327,
      -0.13313144445419312,
      -0.023613791912794113,
      -0.4818134009838104
    ],
    [
      0.17410622537136078,
      -0.20102767646312714,
      0.25527262687683105,
      0.3486163914203644,
      0.39032551646232605,
      -0.3760831356048584,
      0.23854178190231323,
      -0.142610564827919
    ],
    [
      -0.08099916577339172,
      0.3264724016189575,
      0.08176161348819733,
      0.1392728090286255,
      -0.06048962101340294,
      -0.5634458065032959,
      0.16414184868335724,
      -0.4254990220069885
    ],
    [
      0.24321629106998444,
      0.3615916669368744,
      0.37167641520500183,
      0.1811055690050125,
      -0.4519416093826294,
      0.07645862549543381,
      0.21398775279521942,
      -0.25223344564437866
    ],
    [
      -0.07622497528791428,
      -0.37667834758758545,
      0.02677493914961815,
      -0.02064928412437439,
      -0.12030839174985886,
      0.010188915766775608,
      -0.34616196155548096,
      0.4500409960746765
    ],
    [
      0.3738100528717041,
      0.07695845514535904,
      0.11093081533908844,
      -0.021579356864094734,
      -0.5690240263938904,
      -0.6054196953773499,
      0.2677041292190552,
      -0.030178509652614594
    ],
    [
      -0.35479113459587097,
      0.014943573623895645,
      -0.18540994822978973,
      -0.26037073135375977,
      -0.13484476506710052,
      -0.057259321212768555,
      -0.29053670167922974,
      -0.34478577971458435
    ],
    [
      -0.35101425647735596,
      0.23551958799362183,
      -0.0004387602093629539,
      0.1570044904947281,
      -0.19371666014194489,
      -0.07138720899820328,
      0.528369665145874,
      0.18828150629997253
    ],
    [
      -0.2259313464164734,
      0.07046744972467422,
      0.33237332105636597,
      -0.015440105460584164,
      0.17180149257183075,
      0.36392509937286377,
      -0.04624973610043526,
      0.15439572930335999
    ],
    [
      -0.4576607346534729,
      -0.15885517001152039,
      0.15474966168403625,
      -0.023782651871442795,
      -0.43066978454589844,
      -0.2295602560043335,
      -0.4425801932811737,
      -0.49267831444740295
    ],
    [
      -0.3101641833782196,
      0.08485490828752518,
      0.2230054885149002,
      0.19737054407596588,
      -0.29059654474258423,
      -0.40192481875419617,
      0.308121919631958,
      -0.31393948197364807
    ],
    [
      -0.19353479146957397,
      0.12996286153793335,
      -0.2818581163883209,
      -0.16744866967201233,
      -0.15363682806491852,
      -0.06133317947387695,
      -0.2812385559082031,
      -0.4954879581928253
    ],
    [
      -0.3911489248275757,
      -0.09272228181362152,
      0.40547609329223633,
      -0.20030944049358368,
      -0.42344826459884644,
      0.16286338865756989,
      0.09075260162353516,
      0.41909271478652954
    ],
    [
      0.18763379752635956,
      0.199986532330513,
      -0.2430402785539627,
      0.10767208784818649,
      0.2961834967136383,
      -0.0793052613735199,
      -0.23175856471061707,
      0.3481350839138031
    ],
    [
      -0.42341476678848267,
      -0.08065575361251831,
      -0.38735997676849365,
      0.052545759826898575,
      0.31312325596809387,
      0.21894145011901855,
      0.07158041000366211,
      -0.5065047144889832
    ],
    [
      -0.3796224594116211,
      -0.08346806466579437,
      0.21696780622005463,
      0.14084596931934357,
      -0.3985523581504822,
      -0.037825971841812134,
      -0.4655628204345703,
      -0.19595956802368164
    ],
    [
      0.02173583395779133,
      0.10081422328948975,
      0.3417094051837921,
      -0.315064013004303,
      0.3420908749103546,
      -0.3511478304862976,
      0.21270377933979034,
      0.3744158446788788
    ],
    [
      -0.1369626671075821,
      0.3832048773765564,
      -0.44545885920524597,
      -0.2311781495809555,
      0.07213760912418365,
      0.04115739464759827,
      -0.013646001927554607,
      -0.30911681056022644
    ],
    [
      0.2232408970594406,
      0.17435824871063232,
      0.17435669898986816,
      -0.059812601655721664,
      -0.5464919209480286,
      0.07226282358169556,
      0.2084776908159256,
      -0.04905802756547928
    ],
    [
      -0.15030279755592346,
      0.3755326271057129,
      0.12889611721038818,
      0.021179787814617157,
      -0.12986207008361816,
      -0.20136842131614685,
      -0.39883100986480713,
      -0.08018352091312408
    ],
    [
      -0.32168442010879517,
      -0.11877274513244629,
      -0.11445204168558121,
      -0.2043127715587616,
      0.5259169340133667,
      0.2368583083152771,
      0.10788597166538239,
      0.04812801629304886
    ],
    [
      -0.14373789727687836,
      0.2990916669368744,
      -0.29827314615249634,
      -0.302753210067749,
      -0.06732756644487381,
      -0.2678523361682892,
      -0.3644837439060211,
      0.19332297146320343
    ],
    [
      0.3531387448310852,
      0.10388173162937164,
      -0.008366712369024754,
      -0.4837149679660797,
      -0.2770255506038666,
      0.041481874883174896,
      0.3400345742702484,
      0.016485972329974174
    ],
    [
      -0.34966403245925903,
      0.08397841453552246,
      -0.29507237672805786,
      0.04230053350329399,
      -0.32890498638153076,
      -0.03354663401842117,
      -0.2870334982872009,
      -0.1832278072834015
    ],
    [
      0.06705306470394135,
      0.15111657977104187,
      0.14715945720672607,
      0.37924832105636597,
      0.49442964792251587,
      -0.126979798078537,
      -0.290839284658432,
      0.2611742913722992
    ],
    [
      0.27639326453208923,
      -0.2557150423526764,
      0.0944555252790451,
      -0.3680972158908844,
      -0.30464088916778564,
      0.17379514873027802,
      0.1973787397146225,
      0.11869757622480392
    ],
    [
      -0.11825624853372574,
      0.8199131488800049,
      -0.016672398895025253,
      -0.2526867389678955,
      -0.07251591235399246,
      0.1349157840013504,
      0.10121205449104309,
      -0.3997673988342285
    ],
    [
      -0.2642984390258789,
      -0.16848346590995789,
      -0.2771233916282654,
      -0.22629444301128387,
      0.4703297019004822,
      0.4450549781322479,
      0.378741592168808,
      0.27954283356666565
    ],
    [
      0.34287184476852417,
      -0.05403909087181091,
      -0.10868322849273682,
      0.4095354676246643,
      -0.17520584166049957,
      -0.25142207741737366,
      -0.09784913063049316,
      0.07792387157678604
    ],
    [
      0.23130139708518982,
      0.050822898745536804,
      -0.1856285184621811,
      0.15976236760616302,
      -0.36666879057884216,
      -0.384615421295166,
      0.23374879360198975,
      -0.09908109158277512
    ],
    [
      0.389784038066864,
      0.17916440963745117,
      0.23506894707679749,
      0.07415241003036499,
      -0.009597856551408768,
      -0.15518876910209656,
      -0.07921355217695236,
      -0.10449129343032837
    ],
    [
      0.04163763299584389,
      0.2401789277791977,
      0.03597671538591385,
      -0.19074591994285583,
      -0.29563963413238525,
      -0.1795656681060791,
      0.2602141201496124,
      0.3479558527469635
    ],
    [
      0.46071478724479675,
      0.1485024243593216,
      -0.15495643019676208,
      -0.09447026997804642,
      -0.051022645086050034,
      -0.13375091552734375,
      0.1657005101442337,
      -0.2806631028652191
    ]
  ],
  "L1.Bias": [
    0.2616519033908844,
    -0.15809409320354462,
    -0.20461560785770416,
    -0.2951214015483856,
    0.3409678041934967,
    -0.20349086821079254,
    0.4767855107784271,
    0.10721803456544876,
    0.23899543285369873,
    0.47411519289016724,
    0.05689290538430214,
    0.3966120481491089,
    0.4719419479370117,
    -0.26652389764785767,
    0.07742476463317871,
    -0.026079481467604637,
    0.3512905538082123,
    0.10793288052082062,
    0.2219064086675644,
    -0.08589006215333939,
    -0.0010162232210859656,
    0.5065557360649109,
    0.35616254806518555,
    0.21846820414066315,
    -0.19504788517951965,
    -0.040275368839502335,
    -0.10663822293281555,
    0.4126545786857605,
    -0.33140280842781067,
    -0.14105036854743958,
    -0.021324124187231064,
    -0.027607081457972527,
    0.4746597409248352,
    0.33681246638298035,
    0.43031948804855347,
    0.1499578058719635,
    0.5491130352020264,
    -0.27558034658432007,
    0.1166047751903534,
    0.23304696381092072,
    -0.2549021244049072,
    0.32361581921577454,
    -0.15876206755638123,
    0.009721646085381508,
    0.3411794602870941,
    0.27218034863471985,
    0.10168536752462387,
    0.5637325048446655,
    0.13973504304885864,
    0.6313287615776062,
    -0.06578419357538223,
    -0.2712014615535736,
    -0.23887676000595093,
    -0.026872627437114716,
    -0.4110100567340851,
    -0.03331805765628815,
    -0.30817797780036926,
    -0.35900217294692993,
    -0.09655909240245819,
    -0.3296632170677185,
    -0.06258505582809448,
    0.2781674265861511,
    0.4016781151294708,
    -0.03098965995013714
  ],
  "L2.Weight": [
    [
      0.0398782342672348,
      0.3004116415977478,
      -0.008554496802389622,
      -0.10973446816205978,
      0.17712774872779846,
      0.12215960025787354,
      0.11188950389623642,
      0.11484773457050323,
      0.1341676414012909,
      0.10649339109659195,
      0.10082453489303589,
      0.12219133228063583,
      0.06940387189388275,
      0.10074899345636368,
      0.05378149077296257,
      0.03831348568201065,
      0.024989858269691467,
      0.0756535455584526,
      0.10211798548698425,
      0.015068856067955494,
      0.01433607004582882,
      0.008679607883095741,
      0.2625083327293396,
      0.2316870391368866,
      -0.06634026765823364,
      0.02430405281484127,
      -0.03926343843340874,
      0.10192117094993591,
      -0.14114294946193695,
      -0.16830886900424957,
      -0.139931783080101,
      -0.041404783725738525,
      0.13317528367042542,
      0.3168278932571411,
      0.192551389336586,
      -0.01922902651131153,
      0.07942903786897659,
      -0.03194576874375343,
      0.23358404636383057,
      0.12244542688131332,
      -0.10341671854257584,
      0.08188347518444061,
      -0.09491489827632904,
      0.29970020055770874,
      0.008886666968464851,
      0.1382499784231186,
      -0.08493603020906448,
      0.03765586018562317,
      0.10846410691738129,
      0.10580840706825256,
      -0.004964850842952728,
      0.2640972435474396,
      -0.04244842752814293,
      0.028737066313624382,
      -0.18390215933322906,
      -0.008789855986833572,
      -0.00836758129298687,
      -0.1411125212907791,
      0.0862414538860321,
      0.06682172417640686,
      -0.13687610626220703,
      -0.005537035875022411,
      0.06862659752368927,
      -0.1304551661014557
    ],
    [
      0.05681794136762619,
      -0.3803007900714874,
      0.07864130288362503,
      0.24748626351356506,
      -0.23181000351905823,
      -0.11618376523256302,
      -0.0320245698094368,
      -0.15328042209148407,
      -0.18724173307418823,
      -0.18562884628772736,
      0.10030271112918854,
      -0.05221708491444588,
      -0.039762239903211594,
      -0.11769425123929977,
      0.046563588082790375,
      0.2235875278711319,
      -0.15207019448280334,
      0.029478605836629868,
      -0.13832060992717743,
      0.19545380771160126,
      -0.3830355107784271,
      -0.05766209959983826,
      -0.08382047712802887,
      -0.07176230847835541,
      -0.26225724816322327,
      0.1468292474746704,
      0.22410182654857635,
      0.02427872084081173,
      0.38936930894851685,
      0.06417112797498703,
      0.02540215291082859,
      0.27646490931510925,
      0.04711059108376503,
      -0.016713611781597137,
      -0.1722123920917511,
      0.23115673661231995,
      -0.3864153325557709,
      0.23587092757225037,
      -0.06804528087377548,
      0.005476817488670349,
      0.30567213892936707,
      0.021572787314653397,
      0.16460293531417847,
      0.07194124907255173,
      0.0025276371743530035,
      0.14796222746372223,
      0.03526199609041214,
      -0.17999625205993652,
      0.02611662447452545,
      -0.30863648653030396,
      0.1630813330411911,
      -0.00797776598483324,
      0.21661657094955444,
      -0.22197146713733673,
      0.31070637702941895,
      0.09503202885389328,
      0.018894165754318237,
      0.6138647198677063,
      -0.1734611541032791,
      0.06282519549131393,
      -0.044841185212135315,
      -0.2904598116874695,
      -0.1849934607744217,
      -0.05646548792719841
    ],
    [
      0.06758105009794235,
      0.13020369410514832,
      0.09607984870672226,
      -0.006775997579097748,
      -0.019860703498125076,
      0.2660670280456543,
      0.08162519335746765,
      0.06317344307899475,
      0.17875713109970093,
      -0.05767925828695297,
      0.29007601737976074,
      0.2099757194519043,
      0.10923384875059128,
      -0.03682932257652283,
      -0.03588033467531204,
      -0.12155606597661972,
      0.0730821043252945,
      0.14591063559055328,
      0.1992838978767395,
      0.2146034836769104,
      -0.040664929896593094,
      0.14884190261363983,
      0.2119533121585846,
      0.09471013396978378,
      -0.13128787279129028,
      -0.10738292336463928,
      0.14073890447616577,
      0.021189266815781593,
      -0.24479587376117706,
      -0.007689541205763817,
      0.012857741676270962,
      0.05128750205039978,
      -0.06135757267475128,
      0.10861629992723465,
      0.16943004727363586,
      0.14154057204723358,
      0.23099583387374878,
      -0.15930511057376862,
      0.20156137645244598,
      0.22355642914772034,
      -0.20764726400375366,
      0.12848487496376038,
      -0.0007267729961313307,
      0.09033694118261337,
      -0.06515682488679886,
      0.23485921323299408,
      0.04789423942565918,
      0.12282439321279526,
      0.015224302187561989,
      0.16471906006336212,
      0.09679080545902252,
      0.13636977970600128,
      0.03457319363951683,
      0.0489552766084671,
      -0.22619426250457764,
      0.13836626708507538,
      -0.11787278205156326,
      -0.28104937076568604,
      0.08483892679214478,
      0.03813346102833748,
      -0.1389700025320053,
      0.10468994826078415,
      0.1652715504169464,
      -0.21448548138141632
    ],
    [
      -0.26777324080467224,
      -0.20827551186084747,
      -0.35037535429000854,
      0.30095455050468445,
      -0.2647467255592346,
      -0.1804344803094864,
      -0.1314249187707901,
      -0.19246821105480194,
      -0.42331862449645996,
      -0.1538040041923523,
      0.03666713088750839,
      -0.005129081197082996,
      -0.11602900177240372,
      -0.17055408656597137,
      0.163736954331398,
      0.28580135107040405,
      -0.2966878414154053,
      0.021326646208763123,
      -0.19921492040157318,
      0.12523803114891052,
      -0.35426780581474304,
      0.015530383214354515,
      -0.016921749338507652,
      0.009461211040616035,
      -0.27079397439956665,
      0.1054060235619545,
      -0.009520930238068104,
      -0.04266805574297905,
      0.20515143871307373,
      0.22251293063163757,
      0.0027949728537350893,
      0.3814552426338196,
      -0.2764771580696106,
      0.04662925377488136,
      -0.19714565575122833,
      0.156422957777977,
      -0.5831140279769897,
      0.2248082011938095,
      -0.023259777575731277,
      0.017028359696269035,
      0.42043280601501465,
      -0.029911262914538383,
      0.2396915853023529,
      0.0016585665289312601,
      -0.011413395404815674,
      0.1600877195596695,
      0.2652757167816162,
      -0.23527316749095917,
      0.21573813259601593,
      -0.23844286799430847,
      0.1552470177412033,
      -0.052246395498514175,
      0.2615506052970886,
      -0.3354332149028778,
      0.28671276569366455,
      -0.27497729659080505,
      -0.14039857685565948,
      0.5483799576759338,
      -0.033036764711141586,
      -0.38174960017204285,
      -0.15663129091262817,
      -0.29062727093696594,
      -0.15705572068691254,
      0.038574524223804474
    ],
    [
      -0.1908562034368515,
      -0.22351911664009094,
      -0.4405038058757782,
      0.2268848568201065,
      -0.2072044014930725,
      0.0033685858361423016,
      -0.04594595357775688,
      -0.24324814975261688,
      -0.07713858038187027,
      -0.21386782824993134,
      -0.16705569624900818,
      -0.14422346651554108,
      -0.13853834569454193,
      -0.13510385155677795,
      0.14411590993404388,
      0.10235068202018738,
      -0.024514565244317055,
      0.18381527066230774,
      -0.12900662422180176,
      0.07124695181846619,
      -0.3257428705692291,
      -0.03892527520656586,
      -0.09483460336923599,
      -0.02467101439833641,
      -0.12549437582492828,
      0.1889192759990692,
      0.16956688463687897,
      0.11971961706876755,
      0.22854194045066833,
      0.0071329050697386265,
      0.22765149176120758,
      0.038737569004297256,
      -0.1703370213508606,
      -0.04231942445039749,
      0.049364373087882996,
      0.1217925101518631,
      -0.27481845021247864,
      0.20528843998908997,
      -0.05247354879975319,
      0.1519554704427719,
      0.21872656047344208,
      0.0015124804340302944,
      0.2030322104692459,
      -0.005946871358901262,
      -0.015243936330080032,
      0.0432572178542614,
      0.16355043649673462,
      -0.1391058713197708,
      0.08446697890758514,
      -0.11234106123447418,
      0.08243344724178314,
      -0.1997232884168625,
      0.24429187178611755,
      -0.10991739481687546,
      0.37352967262268066,
      -0.11315085738897324,
      -0.1671605259180069,
      0.37869563698768616,
      -0.20323993265628815,
      -0.3808007538318634,
      -0.14679524302482605,
      -0.16207535564899445,
      -0.04875018075108528,
      -0.04368694871664047
    ],
    [
      -0.06876432150602341,
      -0.07909250259399414,
      -0.04780902713537216,
      -0.05887238681316376,
      0.08086614310741425,
      0.05357503890991211,
      0.08021646738052368,
      -0.013285336084663868,
      0.010210069827735424,
      0.012955966405570507,
      -0.13885946571826935,
      -0.01960347592830658,
      -0.039595358073711395,
      -0.08003181219100952,
      -0.10994986444711685,
      0.09606793522834778,
      0.0683431327342987,
      0.04611421003937721,
      0.10445941984653473,
      -0.08214084059000015,
      -0.04125622287392616,
      0.015618186444044113,
      -0.04663877189159393,
      -0.0467909537255764,
      -0.11621623486280441,
      0.02092703990638256,
      -0.0860663577914238,
      -0.02735263481736183,
      0.11364863067865372,
      -0.0533563606441021,
      -0.04685186594724655,
      0.063791424036026,
      -0.06174547225236893,
      -0.024496817961335182,
      0.09078962355852127,
      -0.07042526453733444,
      -0.10379502922296524,
      -0.08049452304840088,
      -0.05225914716720581,
      -0.0878133624792099,
      -0.07737700641155243,
      0.03519219532608986,
      0.006460029631853104,
      -0.06634098291397095,
      -0.11538026481866837,
      -0.06727027148008347,
      -0.07072217017412186,
      -0.054120611399412155,
      -0.12675291299819946,
      0.0014017050852999091,
      -0.10152699798345566,
      -0.12007956206798553,
      -0.11235106736421585,
      0.023740587756037712,
      -0.09137941151857376,
      -0.05694085732102394,
      0.06742799282073975,
      0.047292761504650116,
      0.041491251438856125,
      -0.1272050440311432,
      -0.10047414153814316,
      -0.06828196346759796,
      0.09048472344875336,
      -0.004616578109562397
    ],
    [
      -0.17259126901626587,
      -0.16414932906627655,
      -0.44823944568634033,
      0.18028737604618073,
      -0.1532430201768875,
      0.05795570835471153,
      0.0041616675443947315,
      -0.1986166536808014,
      -0.1855904906988144,
      -0.10531625896692276,
      -0.03932599723339081,
      0.006726537831127644,
      -0.03177782520651817,
      -0.09087289124727249,
      0.2739548981189728,
      0.16044175624847412,
      -0.20553725957870483,
      0.1290009319782257,
      -0.2039029598236084,
      0.21214474737644196,
      -0.18446604907512665,
      -0.1392890214920044,
      0.04104950278997421,
      0.10118374973535538,
      -0.3296148180961609,
      0.12721745669841766,
      -0.11450395733118057,
      0.03841938078403473,
      0.3202418386936188,
      0.16033752262592316,
      0.13953691720962524,
      0.23158827424049377,
      -0.26465630531311035,
      -0.15132878720760345,
      0.07179203629493713,
      0.030424585565924644,
      -0.39460012316703796,
      0.3138715326786041,
      0.06947531551122665,
      -0.13422763347625732,
      0.28524431586265564,
      -0.05211528390645981,
      0.22101521492004395,
      0.008521203882992268,
      -0.0774109810590744,
      0.01175213884562254,
      0.07822918146848679,
      -0.26615822315216064,
      0.05249222368001938,
      -0.24374940991401672,
      0.21099600195884705,
      -0.45452848076820374,
      0.204787477850914,
      -0.27098652720451355,
      0.43805259466171265,
      -0.1302259862422943,
      -0.11752184480428696,
      0.4637642502784729,
      -0.1528944969177246,
      -0.16375185549259186,
      -0.19174742698669434,
      -0.2671034634113312,
      -0.24685165286064148,
      -0.13494767248630524
    ],
    [
      0.040562063455581665,
      -0.04328553006052971,
      0.030966201797127724,
      -0.09081359207630157,
      -0.012177887372672558,
      -0.09895964711904526,
      0.03062317706644535,
      -0.0811949372291565,
      -0.060521405190229416,
      -0.13517799973487854,
      -0.025669220834970474,
      0.08217763155698776,
      0.036162491887807846,
      -0.08892040699720383,
      -0.01569211669266224,
      -0.018871599808335304,
      -0.1324096918106079,
      0.07557706534862518,
      -0.02584020420908928,
      -0.0075593977235257626,
      -0.07606010138988495,
      -0.08256158977746964,
      -0.015006160363554955,
      0.022736521437764168,
      0.001851614098995924,
      -0.0857856273651123,
      0.08500444144010544,
      -0.053947411477565765,
      -0.11032763868570328,
      -0.07887140661478043,
      0.10465545207262039,
      -0.020398642867803574,
      -0.042521145194768906,
      -0.07615432143211365,
      -0.06309139728546143,
      -0.1359327733516693,
      -0.12175364047288895,
      0.06109396368265152,
      0.06869291514158249,
      0.08198514580726624,
      -0.10935802012681961,
      0.0392269492149353,
      -0.09631264209747314,
      0.033301010727882385,
      0.06202108785510063,
      0.0709165558218956,
      0.05464500933885574,
      0.04712289571762085,
      -0.025977354496717453,
      0.029347721487283707,
      -0.07230189442634583,
      0.020754409953951836,
      -0.06652212142944336,
      -0.027111666277050972,
      -0.13484656810760498,
      -0.06341404467821121,
      -0.08681260049343109,
      -0.0774015560746193,
      -0.11287117004394531,
      -0.13288651406764984,
      -0.010431542061269283,
      0.054925087839365005,
      0.08429403603076935,
      0.053422048687934875
    ],
    [
      -0.022691020742058754,
      0.14920030534267426,
      0.08687037974596024,
      0.012099623680114746,
      -0.012592139653861523,
      0.29881030321121216,
      0.1891167014837265,
      0.01044390257447958,
      0.03724447637796402,
      0.1564466655254364,
      0.2421599179506302,
      0.18400904536247253,
      -0.0328950509428978,
      0.14252565801143646,
      -0.09792953729629517,
      0.020770428702235222,
      0.06243736669421196,
      0.1402110606431961,
      0.1982925683259964,
      0.1551920622587204,
      -0.01554859895259142,
      0.15133136510849,
      0.11247754842042923,
      0.09472798556089401,
      -0.06784167885780334,
      0.036626268178224564,
      0.0253831185400486,
      0.17102578282356262,
      -0.19275353848934174,
      0.0085114361718297,
      -0.005098543595522642,
      -0.007472215220332146,
      -0.0349404476583004,
      0.11320219933986664,
      0.11868175119161606,
      -0.05270959436893463,
      0.2727636992931366,
      -0.28369978070259094,
      0.2389899045228958,
      0.23558835685253143,
      -0.07984980195760727,
      0.22471070289611816,
      -0.20559994876384735,
      0.29133307933807373,
      -0.016936862841248512,
      0.01893654279410839,
      0.11727600544691086,
      0.04603816941380501,
      0.06899159401655197,
      0.3017299175262451,
      -0.10393770784139633,
      0.14223094284534454,
      0.07625404000282288,
      -0.03462137281894684,
      -0.09939494729042053,
      -0.07831971347332001,
      -0.07019741088151932,
      -0.3241702914237976,
      0.06275830417871475,
      -0.0011718571186065674,
      0.03510783612728119,
      0.06536625325679779,
      0.04952002316713333,
      -0.013370043598115444
    ],
    [
      0.007234606891870499,
      -0.02055637538433075,
      -0.09404376894235611,
      -0.002419864758849144,
      0.08204052597284317,
      0.047638047486543655,
      -0.12905047833919525,
      0.0868397131562233,
      -0.012892222963273525,
      0.0324828065931797,
      0.05807909741997719,
      0.05783881992101669,
      -0.12605859339237213,
      0.08948405086994171,
      -0.11267133802175522,
      -0.0032926613930612803,
      -0.1198686882853508,
      -0.057858794927597046,
      -0.04290470853447914,
      -0.06498458236455917,
      -0.05085892602801323,
      -0.03026069700717926,
      0.0822966992855072,
      0.04804689437150955,
      0.045733559876680374,
      0.02164451777935028,
      0.06947150081396103,
      -0.04344090446829796,
      -0.01612795889377594,
      -0.0006893526297062635,
      -0.12910331785678864,
      -0.12183554470539093,
      -0.018162760883569717,
      -0.07433083653450012,
      -0.02979731559753418,
      -0.05759206414222717,
      -0.0019232603954151273,
      0.07117883116006851,
      -0.0731504037976265,
      0.05551576986908913,
      0.07765563577413559,
      -0.1198991909623146,
      -0.1236792728304863,
      -0.13287600874900818,
      -0.10267287492752075,
      -0.08998767286539078,
      -0.041076719760894775,
      -0.06347577273845673,
      -0.10230424255132675,
      -0.06482606381177902,
      -0.06950821727514267,
      0.06808971613645554,
      -0.06926337629556656,
      -0.11593257635831833,
      0.025738775730133057,
      -0.0447150282561779,
      0.0740150660276413,
      0.03391009196639061,
      0.067495197057724,
      -0.11587146669626236,
      0.059574685990810394,
      0.0746624693274498,
      -0.08670501410961151,
      0.0905027911067009
    ],
    [
      0.07192394137382507,
      -0.03180157393217087,
      0.014765365049242973,
      -0.07023271173238754,
      -0.13801996409893036,
      -0.0026758909225463867,
      0.01165693812072277,
      -0.11166852712631226,
      0.04152349382638931,
      -0.16764996945858002,
      0.05215563252568245,
      0.07970719039440155,
      0.0009962186450138688,
      -0.1408955603837967,
      0.018829230219125748,
      -0.004036767408251762,
      -0.00680591119453311,
      -0.005287744104862213,
      0.0447840578854084,
      -0.10824217647314072,
      -0.0638497993350029,
      -0.04050354287028313,
      -0.01685309037566185,
      0.08820445835590363,
      -0.10412119328975677,
      -0.046902067959308624,
      -0.003954596817493439,
      -0.03770226985216141,
      0.09046406298875809,
      -0.005812129005789757,
      -0.13175435364246368,
      -0.028127094730734825,
      -0.09451670944690704,
      -0.019492680206894875,
      -0.031238829717040062,
      -0.1641916036605835,
      -0.05316592752933502,
      0.007848326116800308,
      -0.04065091907978058,
      0.0827045738697052,
      -0.031347185373306274,
      0.06693422049283981,
      0.01658746786415577,
      -0.09816111624240875,
      -0.014435507357120514,
      0.05466178059577942,
      -0.08994033932685852,
      -0.12137721478939056,
      0.08475282043218613,
      0.08001041412353516,
      -0.08992113918066025,
      0.01888732612133026,
      -0.021788494661450386,
      -0.1704075038433075,
      0.05987745150923729,
      -0.014865359291434288,
      -0.04993028938770294,
      0.0935530960559845,
      -0.13560336828231812,
      0.0551052950322628,
      0.07542000710964203,
      0.0358903743326664,
      -0.009063868783414364,
      0.005703957285732031
    ],
    [
      -0.04472028464078903,
      0.1207452043890953,
      0.024252276867628098,
      -0.10003537684679031,
      -0.01993679068982601,
      0.25541529059410095,
      0.1567770093679428,
      -0.11009830236434937,
      0.11332284659147263,
      0.10033822804689407,
      0.24697405099868774,
      0.16461676359176636,
      0.1610695868730545,
      0.01917441003024578,
      0.10174979269504547,
      0.0441010408103466,
      -0.04211198911070824,
      -0.034114085137844086,
      0.1430487483739853,
      0.15572068095207214,
      -0.052904415875673294,
      0.10350287705659866,
      0.13713166117668152,
      0.19604161381721497,
      -0.07876487076282501,
      0.03756056725978851,
      0.132206991314888,
      0.027828313410282135,
      -0.10177409648895264,
      -0.04967475309967995,
      -0.000900768325664103,
      0.09410323202610016,
      0.0706285610795021,
      0.14383672177791595,
      0.1899358332157135,
      -0.0118336770683527,
      0.0723968967795372,
      -0.14162768423557281,
      0.04215099662542343,
      0.09547262638807297,
      -0.1888120323419571,
      0.16318468749523163,
      -0.05383577197790146,
      0.15801066160202026,
      -0.08986324816942215,
      0.019727401435375214,
      0.0751648098230362,
      0.16615669429302216,
      -0.02690761350095272,
      0.16234749555587769,
      -0.08943556249141693,
      0.17311054468154907,
      0.17519481480121613,
      0.07203216105699539,
      -0.1925465166568756,
      0.09900704771280289,
      0.017279526218771935,
      -0.20965434610843658,
      0.20993630588054657,
      0.0531981997191906,
      -0.04330078884959221,
      -0.029930302873253822,
      0.12266261875629425,
      -0.04375438019633293
    ],
    [
      0.049025602638721466,
      0.15716448426246643,
      -0.01660226099193096,
      0.0007148133008740842,
      -0.015823349356651306,
      0.20800504088401794,
      0.08851280808448792,
      -0.04551657289266586,
      0.14671297371387482,
      0.07002157717943192,
      0.2590863108634949,
      0.09743580222129822,
      -0.014158098958432674,
      0.16231240332126617,
      0.031985633075237274,
      -0.10513923317193985,
      0.023724807426333427,
      0.10372553765773773,
      0.03370046615600586,
      0.15128935873508453,
      0.06732375174760818,
      -0.0006558489403687418,
      0.09156227856874466,
      0.11711757630109787,
      0.09406059980392456,
      0.06130010262131691,
      0.06374051421880722,
      0.26377326250076294,
      -0.17516840994358063,
      -0.18356040120124817,
      -0.010915713384747505,
      0.014229188673198223,
      0.1534082591533661,
      0.20311695337295532,
      0.20122526586055756,
      0.10755889117717743,
      0.23759552836418152,
      -0.29769575595855713,
      0.26012206077575684,
      0.008177476935088634,
      -0.009257819503545761,
      0.17516128718852997,
      -0.18441075086593628,
      0.207539901137352,
      -0.01913701929152012,
      0.04433870688080788,
      -0.035781025886535645,
      0.09395522624254227,
      0.18607325851917267,
      0.12507972121238708,
      0.0634576827287674,
      0.23349060118198395,
      0.04815153405070305,
      0.011723862029612064,
      -0.2099309116601944,
      -0.08462024480104446,
      -0.09493956714868546,
      -0.34623464941978455,
      0.062089379876852036,
      0.12100999802350998,
      -0.10055666416883469,
      -0.013703824020922184,
      0.10608602315187454,
      -0.10068651288747787
    ],
    [
      -0.23563364148139954,
      -0.06782819330692291,
      -0.1918501853942871,
      0.2881864309310913,
      -0.13475310802459717,
      -0.2009078562259674,
      -0.16827203333377838,
      0.03577864170074463,
      -0.35620999336242676,
      -0.14235718548297882,
      0.027857335284352303,
      0.030149884521961212,
      -0.004336976446211338,
      -0.02255200408399105,
      0.20385277271270752,
      0.18715634942054749,
      -0.026785824447870255,
      0.08040289580821991,
      -0.28627288341522217,
      0.052601974457502365,
      -0.04337773472070694,
      -0.10081455856561661,
      0.10432102531194687,
      0.07595328241586685,
      -0.34193697571754456,
      0.3080736994743347,
      -0.17469386756420135,
      0.026368029415607452,
      0.3253823518753052,
      0.31873854994773865,
      0.17012529075145721,
      0.278516948223114,
      -0.24687045812606812,
      -0.002784978598356247,
      -0.020348910242319107,
      0.03392378240823746,
      -0.49304357171058655,
      0.20359954237937927,
      0.008538908325135708,
      -0.012607123702764511,
      0.17518652975559235,
      -0.049261387437582016,
      0.2390809804201126,
      -0.1423969268798828,
      0.03231167793273926,
      0.1742912083864212,
      0.1627103090286255,
      -0.23240363597869873,
      0.12046069651842117,
      -0.1770474761724472,
      0.24981015920639038,
      -0.18418236076831818,
      0.10131873190402985,
      -0.23092436790466309,
      0.30116280913352966,
      -0.2668081820011139,
      -0.12250880151987076,
      0.39502832293510437,
      0.024931425228714943,
      -0.41527003049850464,
      -0.27118679881095886,
      0.08691208809614182,
      -0.21367256343364716,
      0.12027513235807419
    ],
    [
      0.0188896544277668,
      0.33556291460990906,
      -0.07843245565891266,
      -0.011223201639950275,
      0.06441768258810043,
      0.29251018166542053,
      0.07591231912374496,
      -0.04375246912240982,
      0.09441323578357697,
      0.11897087097167969,
      0.09320153295993805,
      0.012530098669230938,
      0.017620909959077835,
      0.022179311141371727,
      0.030100861564278603,
      -0.032283615320920944,
      0.09547450393438339,
      0.18044449388980865,
      0.10829390585422516,
      0.04626571759581566,
      -0.060834456235170364,
      0.0007843744824640453,
      0.06622873991727829,
      0.0950014740228653,
      -0.13580714166164398,
      -0.03618746995925903,
      0.12705016136169434,
      0.2367953360080719,
      -0.05650755390524864,
      -0.10635507106781006,
      -0.05366562679409981,
      -0.1479422003030777,
      0.07386889308691025,
      0.08304903656244278,
      0.16953279078006744,
      0.02648232690989971,
      0.19933943450450897,
      -0.13470320403575897,
      0.10468196123838425,
      0.20940063893795013,
      -0.09485217928886414,
      0.2554211914539337,
      -0.09005267918109894,
      0.2452930510044098,
      0.07191319763660431,
      0.18052086234092712,
      0.07324833422899246,
      0.061553873121738434,
      0.13036227226257324,
      0.20746362209320068,
      0.027081100270152092,
      0.33938169479370117,
      0.0496147945523262,
      -0.06323857605457306,
      -0.17416349053382874,
      0.04354337602853775,
      -0.048134833574295044,
      -0.3037763237953186,
      0.21193280816078186,
      0.18346473574638367,
      -0.10740344226360321,
      0.02300071343779564,
      0.11958716809749603,
      -0.19467753171920776
    ],
    [
      0.045847661793231964,
      0.11165224015712738,
      -0.033325985074043274,
      -0.0710568055510521,
      0.019734879955649376,
      0.28198733925819397,
      0.11883417516946793,
      0.12570497393608093,
      0.10734408348798752,
      0.07772678881883621,
      0.18099091947078705,
      0.12040179967880249,
      -0.044658441096544266,
      -0.01832001656293869,
      -0.006159679032862186,
      -0.03819243237376213,
      0.11969514191150665,
      0.11089461296796799,
      0.20716331899166107,
      0.11412842571735382,
      -0.03468162566423416,
      -0.0008636236889287829,
      0.05240451171994209,
      0.08927339315414429,
      0.02260325662791729,
      0.04830196127295494,
      0.15116310119628906,
      0.08120249211788177,
      -0.12133575230836868,
      -0.08034926652908325,
      -0.036952219903469086,
      0.030137745663523674,
      0.027881311252713203,
      0.16344507038593292,
      0.0922246053814888,
      0.08525263518095016,
      0.06867825984954834,
      -0.2101210057735443,
      0.14402805268764496,
      0.06572446972131729,
      -0.143372043967247,
      0.198881134390831,
      -0.04106589034199715,
      0.1238606795668602,
      -0.05361834168434143,
      0.11947295814752579,
      -0.08131152391433716,
      0.08685649186372757,
      0.08181822299957275,
      0.19108347594738007,
      0.01951068453490734,
      0.17581786215305328,
      0.08826649188995361,
      0.0712890475988388,
      -0.15879197418689728,
      0.08279158920049667,
      -0.019156554713845253,
      -0.2932494580745697,
      0.13300694525241852,
      0.021535739302635193,
      -0.05803292989730835,
      -0.03240731731057167,
      0.011696653440594673,
      0.023170391097664833
    ],
    [
      -0.13135077059268951,
      0.043494146317243576,
      -0.12074556201696396,
      -0.030055800452828407,
      -0.014162094332277775,
      0.06575999408960342,
      -0.05641091987490654,
      0.02632160857319832,
      0.002018154365941882,
      0.06297844648361206,
      -0.010441696271300316,
      0.0366404689848423,
      -0.07855480164289474,
      -0.09849510341882706,
      0.10602691024541855,
      -0.08657929301261902,
      -0.032674387097358704,
      -0.0380769744515419,
      0.09798279404640198,
      -0.03802235797047615,
      -0.10490930825471878,
      -0.04601294919848442,
      0.050971318036317825,
      0.04436205327510834,
      0.10341151058673859,
      -0.03996044024825096,
      0.037447430193424225,
      -0.12104640156030655,
      0.03314822167158127,
      0.04926396906375885,
      0.08190552145242691,
      -0.06871900707483292,
      -0.05713314563035965,
      0.02040804736316204,
      -0.10225649923086166,
      -0.10888037830591202,
      -0.1374206244945526,
      0.01191958412528038,
      0.059563104063272476,
      0.010610880330204964,
      -0.0037075516302138567,
      0.0217334795743227,
      -0.07395864278078079,
      -0.0054289354011416435,
      -0.04142076522111893,
      -0.07904978841543198,
      0.09084897488355637,
      -0.11213085800409317,
      0.011742291040718555,
      -0.12185873836278915,
      -0.009706875309348106,
      -0.06819053739309311,
      0.035600483417510986,
      -0.07575107365846634,
      0.06909193098545074,
      -0.12096590548753738,
      0.07507945597171783,
      -0.09376955777406693,
      0.05341150984168053,
      -0.06371653079986572,
      -0.014802252873778343,
      -0.04073340818285942,
      0.07097745686769485,
      0.03585007041692734
    ],
    [
      -0.2736954092979431,
      -0.2122824639081955,
      -0.41096219420433044,
      0.2856648564338684,
      -0.13760213553905487,
      -0.16196326911449432,
      -0.11649764329195023,
      -0.09655915200710297,
      -0.3353659212589264,
      -0.048391323536634445,
      0.062050338834524155,
      0.07850851863622665,
      -0.06277350336313248,
      -0.21707583963871002,
      0.23328274488449097,
      0.1324048787355423,
      -0.2318529635667801,
      0.0550687238574028,
      -0.1299527883529663,
      0.1773582249879837,
      -0.20176798105239868,
      -0.017376627773046494,
      -0.11088380962610245,
      -0.08356015384197235,
      -0.3910326361656189,
      0.14641566574573517,
      -0.18717120587825775,
      -0.006483762990683317,
      0.28723692893981934,
      0.25935831665992737,
      0.06295225024223328,
      0.13381147384643555,
      -0.16252107918262482,
      0.007875614799559116,
      -0.1073751375079155,
      0.0680730938911438,
      -0.5073709487915039,
      0.3313840925693512,
      0.06458517163991928,
      -0.11007915437221527,
      0.2596045434474945,
      -0.004417577758431435,
      0.3465048670768738,
      -0.05013391748070717,
      -0.008583893068134785,
      0.18922391533851624,
      0.16696302592754364,
      -0.03312436863780022,
      0.09505794942378998,
      -0.21421653032302856,
      0.17916114628314972,
      -0.19562876224517822,
      0.24733096361160278,
      -0.38194990158081055,
      0.3888578712940216,
      -0.25124630331993103,
      -0.07487721741199493,
      0.5488713383674622,
      -0.17577724158763885,
      -0.37718167901039124,
      -0.289304256439209,
      -0.10372965037822723,
      -0.10436655580997467,
      -0.02388828992843628
    ],
    [
      -0.08209075033664703,
      -0.25017011165618896,
      -0.3570491075515747,
      0.2870822846889496,
      -0.07539340108633041,
      -0.11582137644290924,
      -0.05076408013701439,
      -0.15365490317344666,
      -0.2129383236169815,
      -0.1352803260087967,
      -0.18583916127681732,
      0.021530084311962128,
      -0.03529173135757446,
      -0.030283793807029724,
      0.10665228962898254,
      0.23613093793392181,
      -0.09565787017345428,
      0.09450546652078629,
      -0.27227941155433655,
      0.15000498294830322,
      -0.24425524473190308,
      -0.07458768039941788,
      0.07508035004138947,
      0.09939303994178772,
      -0.21565142273902893,
      0.2203007936477661,
      -0.03125542029738426,
      -0.019575191661715508,
      0.2903895080089569,
      0.10701745003461838,
      0.2072938233613968,
      0.313103586435318,
      -0.35845571756362915,
      -0.1004517525434494,
      -0.17752382159233093,
      0.03526921570301056,
      -0.47520676255226135,
      0.24242055416107178,
      0.017386268824338913,
      0.02763211727142334,
      0.2674402594566345,
      0.049201298505067825,
      0.3153071403503418,
      -0.1377021223306656,
      -0.13910603523254395,
      0.03909815847873688,
      0.1874489188194275,
      -0.20709262788295746,
      0.08839242905378342,
      -0.30623123049736023,
      0.0849478542804718,
      -0.3893907368183136,
      0.3306412100791931,
      -0.3285233676433563,
      0.20696397125720978,
      -0.20736514031887054,
      -0.08683175593614578,
      0.3752528131008148,
      -0.17052502930164337,
      -0.17293259501457214,
      -0.20340344309806824,
      -0.292925089597702,
      -0.15422970056533813,
      -0.05441880598664284
    ],
    [
      -0.09825565665960312,
      0.42398762702941895,
      0.011500159278512001,
      -0.1819918155670166,
      0.030530011281371117,
      0.16953681409358978,
      0.15694314241409302,
      -0.04266985133290291,
      0.04843663424253464,
      -0.06489197164773941,
      0.28751829266548157,
      0.10020826011896133,
      0.0015645999228581786,
      -0.01854773797094822,
      -0.09858164936304092,
      -0.0994022861123085,
      0.20849134027957916,
      -0.00998215563595295,
      0.17734882235527039,
      0.04143476486206055,
      -0.07619154453277588,
      0.20507758855819702,
      0.1755567342042923,
      0.30899375677108765,
      -0.07482253015041351,
      -0.12503556907176971,
      -0.013960895128548145,
      0.26078712940216064,
      -0.25082260370254517,
      -0.037606243044137955,
      -0.05460326746106148,
      -0.04813021793961525,
      0.0855853483080864,
      0.15244446694850922,
      0.1845187097787857,
      -0.06446826457977295,
      0.11380089074373245,
      -0.08704677224159241,
      0.21799616515636444,
      0.09113876521587372,
      -0.1870541125535965,
      0.12068662792444229,
      -0.026596922427415848,
      0.2181047797203064,
      -0.025714712217450142,
      0.13575170934200287,
      0.09408950805664062,
      0.04683370515704155,
      -0.006953616160899401,
      0.2731262743473053,
      0.06410090625286102,
      0.15909452736377716,
      -0.07567894458770752,
      -0.027603086084127426,
      -0.11289548128843307,
      0.03050965629518032,
      -0.026584310457110405,
      -0.4235661029815674,
      0.1682066023349762,
      0.015894150361418724,
      -0.008343114517629147,
      0.09854570776224136,
      0.18954434990882874,
      -0.07372387498617172
    ],
    [
      -0.03483954817056656,
      0.1604258418083191,
      -0.08168458938598633,
      0.022972267121076584,
      0.1470496505498886,
      0.1560852974653244,
      0.14125947654247284,
      0.12343543022871017,
      -0.007164523471146822,
      0.14394760131835938,
      0.20782743394374847,
      0.12152998149394989,
      0.16125379502773285,
      0.18344096839427948,
      0.041869230568408966,
      0.0037017809227108955,
      0.17683768272399902,
      0.08670624345541,
      0.07283157110214233,
      0.14863282442092896,
      -0.08794792741537094,
      0.13830725848674774,
      0.1913129687309265,
      0.2183094024658203,
      -0.10296296328306198,
      -0.13013699650764465,
      0.15729652345180511,
      0.19722530245780945,
      -0.07231991738080978,
      -0.09697268903255463,
      -0.09828179329633713,
      -0.07654055207967758,
      0.12409696727991104,
      0.17363372445106506,
      0.2032271921634674,
      0.10410482436418533,
      0.05784156918525696,
      -0.16649696230888367,
      0.16280597448349,
      0.05551532655954361,
      -0.08913017809391022,
      0.17996034026145935,
      0.02942897193133831,
      0.09683848917484283,
      0.054219234734773636,
      0.023357147350907326,
      -0.056352440267801285,
      0.10679572820663452,
      0.16672112047672272,
      0.25637325644493103,
      -0.11269686371088028,
      0.2351539134979248,
      -0.044442806392908096,
      -0.00900424923747778,
      -0.25182977318763733,
      -0.01402344647794962,
      0.018059978261590004,
      -0.3768954873085022,
      0.0049561564810574055,
      0.1371215283870697,
      -0.009360374882817268,
      0.024526696652173996,
      0.25320565700531006,
      -0.18260902166366577
    ],
    [
      -0.09935043752193451,
      -0.11531960219144821,
      -0.043143726885318756,
      -0.05499422922730446,
      0.05519305169582367,
      -0.026965588331222534,
      0.008440748788416386,
      -0.08233638107776642,
      0.06469336897134781,
      0.07234317809343338,
      -0.13694170117378235,
      -0.05979039520025253,
      -0.13125252723693848,
      0.015667369589209557,
      -0.1277312934398651,
      -0.07348715513944626,
      0.10408029705286026,
      -0.14620055258274078,
      0.06819576025009155,
      -0.014966518618166447,
      0.06997102499008179,
      -0.08607213199138641,
      0.049995508044958115,
      -0.005302227567881346,
      -0.02053338848054409,
      0.0651768147945404,
      -0.15528516471385956,
      -0.1262974590063095,
      0.08589035272598267,
      -0.09289078414440155,
      -0.11695679277181625,
      -0.029794638976454735,
      -0.06454303860664368,
      -0.0412224642932415,
      -0.10860928148031235,
      0.009862539358437061,
      -0.13734754920005798,
      0.009939881041646004,
      0.032944455742836,
      -0.005059421993792057,
      -0.000676087976898998,
      -0.012651932425796986,
      -0.03870927914977074,
      -0.06250113248825073,
      -0.08260086178779602,
      -0.10754038393497467,
      -0.09235748648643494,
      0.08861352503299713,
      -0.0512692965567112,
      0.015122546814382076,
      0.05923891067504883,
      -0.03737295791506767,
      -0.11275569349527359,
      -0.11400264501571655,
      -0.06612490862607956,
      0.016572505235671997,
      -0.13324704766273499,
      -0.04110525920987129,
      0.012795998714864254,
      0.08516757190227509,
      0.016577966511249542,
      0.000893722812179476,
      0.0505862832069397,
      0.03952133655548096
    ],
    [
      0.07664435356855392,
      0.15977375209331512,
      -0.06403852254152298,
      -0.059098292142152786,
      0.06797869503498077,
      0.19225652515888214,
      0.07288115471601486,
      0.06659603863954544,
      0.17581051588058472,
      0.010210562497377396,
      0.05079582333564758,
      0.06196606159210205,
      0.021287230774760246,
      0.1313372552394867,
      -0.0538443997502327,
      -0.04051021486520767,
      0.07600060850381851,
      0.0050046551041305065,
      0.19186852872371674,
      0.07040608674287796,
      0.006153940688818693,
      0.02365138754248619,
      0.16403423249721527,
      0.229157492518425,
      -0.014054452069103718,
      -0.0529160276055336,
      0.08400233089923859,
      0.12249934673309326,
      -0.1774408370256424,
      -0.11061349511146545,
      -0.06096167489886284,
      -0.10819929093122482,
      0.14380891621112823,
      0.13558849692344666,
      0.055405355989933014,
      0.053802113980054855,
      0.17405812442302704,
      -0.14727343618869781,
      0.22180502116680145,
      0.03581627458333969,
      -0.02716742269694805,
      0.1755363941192627,
      -0.13960668444633484,
      0.11240050196647644,
      0.040577709674835205,
      0.16932179033756256,
      0.1308085322380066,
      0.1603224128484726,
      0.024510366842150688,
      0.10588834434747696,
      0.008423931896686554,
      0.11508535593748093,
      0.015380815602838993,
      -0.10747203230857849,
      -0.06775172799825668,
      0.10083474218845367,
      -0.035563621670007706,
      -0.29095661640167236,
      0.01927814446389675,
      0.054845523089170456,
      0.025762001052498817,
      0.04219479486346245,
      0.13720162212848663,
      0.05909785255789757
    ],
    [
      -0.1249375194311142,
      -0.26549282670021057,
      -0.2867562770843506,
      0.3010004162788391,
      -0.14489127695560455,
      -0.256130576133728,
      -0.17094431817531586,
      -0.13412953913211823,
      -0.26219719648361206,
      -0.07525262981653214,
      0.004352290648967028,
      -0.05588019639253616,
      -0.12141073495149612,
      -0.12689892947673798,
      0.16715499758720398,
      0.1426956057548523,
      -0.13329793512821198,
      0.16782644391059875,
      -0.1587217003107071,
      0.05128739774227142,
      -0.16846835613250732,
      -0.04646019637584686,
      0.02612423524260521,
      -0.04209029674530029,
      -0.40542590618133545,
      0.2679523527622223,
      -0.06334664672613144,
      0.05946455895900726,
      0.2937711775302887,
      0.16347502171993256,
      0.14168019592761993,
      0.28194305300712585,
      -0.32325130701065063,
      0.03952469676733017,
      -0.11645838618278503,
      0.07030565291643143,
      -0.41764208674430847,
      0.3722056746482849,
      -0.09247793257236481,
      -0.07102593779563904,
      0.31174948811531067,
      -0.055103600025177,
      0.2592681646347046,
      -0.00873584859073162,
      -0.00416165916249156,
      0.21958433091640472,
      0.0697297751903534,
      -0.23865407705307007,
      0.19612707197666168,
      -0.28112974762916565,
      0.09373655170202255,
      -0.1774587333202362,
      0.29106512665748596,
      -0.3789319097995758,
      0.25509193539619446,
      -0.2274375557899475,
      -0.12704835832118988,
      0.5429058074951172,
      -0.0822482779622078,
      -0.1619928926229477,
      -0.2670119106769562,
      -0.21644163131713867,
      -0.12462246417999268,
      0.020931590348482132
    ],
    [
      -0.00018864609592128545,
      0.179452583193779,
      0.1273273378610611,
      -0.005705227144062519,
      0.14262820780277252,
      0.23303164541721344,
      0.09801994264125824,
      0.049073148518800735,
      0.11065301299095154,
      0.05847981199622154,
      0.2273542433977127,
      0.1989702582359314,
      0.08774708956480026,
      0.045296601951122284,
      0.12294939905405045,
      -0.1578495055437088,
      0.1575951725244522,
      0.12762761116027832,
      0.18159252405166626,
      0.07513600587844849,
      -0.08357678353786469,
      0.16495107114315033,
      0.07679777592420578,
      0.17921365797519684,
      0.05600709468126297,
      -0.14996857941150665,
      0.05093603581190109,
      0.06169833242893219,
      -0.023786883801221848,
      -0.1384953260421753,
      0.040045738220214844,
      0.035427819937467575,
      0.10169178992509842,
      0.2580236792564392,
      0.09066596627235413,
      -0.08282000571489334,
      0.18285036087036133,
      -0.1576111614704132,
      0.10903726518154144,
      -0.04529377818107605,
      -0.13591095805168152,
      0.07705190777778625,
      0.04146978631615639,
      0.22765569388866425,
      0.09820633381605148,
      0.2012432962656021,
      -0.06749113649129868,
      0.002416614443063736,
      0.005884864367544651,
      0.05346887186169624,
      0.08164673298597336,
      0.19615815579891205,
      0.1287568360567093,
      -0.029100576415657997,
      -0.2398660033941269,
      -0.029801107943058014,
      0.04277017340064049,
      -0.14316433668136597,
      0.12256471812725067,
      0.04479187726974487,
      -0.13602668046951294,
      -0.04143121838569641,
      0.15254776179790497,
      -0.1265619844198227
    ],
    [
      0.04429786279797554,
      0.013422079384326935,
      -0.056106727570295334,
      0.058736689388751984,
      -0.05967995896935463,
      -0.022991199046373367,
      -0.06302406638860703,
      -0.13697530329227448,
      0.006016975734382868,
      0.021182551980018616,
      -0.08802846074104309,
      0.055256638675928116,
      -0.1285669058561325,
      -0.12822946906089783,
      -0.10054980963468552,
      -0.04523236304521561,
      -0.02845955267548561,
      -0.04818471893668175,
      0.03505243733525276,
      -0.1287021040916443,
      -0.003731356468051672,
      -0.024460138753056526,
      0.010229517705738544,
      0.10693266242742538,
      0.05875924974679947,
      -0.08438887447118759,
      -0.108331598341465,
      -0.045800723135471344,
      -0.06760312616825104,
      0.024206915870308876,
      -0.01589970290660858,
      0.0740370824933052,
      0.02792593091726303,
      -0.04585921764373779,
      -0.011179528199136257,
      0.010667958296835423,
      -0.025629406794905663,
      0.06398855894804001,
      -0.11150828003883362,
      0.041459981352090836,
      -0.09249280393123627,
      -0.11960557848215103,
      -0.05597684159874916,
      0.04718407988548279,
      0.0627717524766922,
      0.0008249818929471076,
      -0.022575927898287773,
      -0.029436888173222542,
      -0.07662490755319595,
      -0.025082796812057495,
      -0.02566334791481495,
      0.07736293971538544,
      0.04082680493593216,
      -0.11534580588340759,
      -0.00643449742347002,
      -0.10004790872335434,
      -0.02520293928682804,
      -0.1252380758523941,
      0.006470142398029566,
      -0.09852894395589828,
      0.11542676389217377,
      0.07589426636695862,
      -0.10215402394533157,
      -0.13186657428741455
    ],
    [
      -0.012270297855138779,
      -0.046894822269678116,
      0.02037137560546398,
      -0.09061954915523529,
      0.03493303060531616,
      -0.1250612735748291,
      -0.07389111071825027,
      -0.07583627104759216,
      0.051643311977386475,
      -0.0032726526260375977,
      -0.12717844545841217,
      -0.08350081741809845,
      -0.06904564052820206,
      -0.11597870290279388,
      0.005667505320161581,
      0.03473372384905815,
      -0.03751711547374725,
      -0.05574854835867882,
      -0.016155876219272614,
      -0.10569322109222412,
      -0.08712933957576752,
      -0.015824085101485252,
      0.10206852853298187,
      -0.05167439952492714,
      0.048368290066719055,
      -0.06226430833339691,
      -0.05026146396994591,
      -0.13059596717357635,
      0.08700379729270935,
      0.10734165459871292,
      -0.010063392110168934,
      0.0680532231926918,
      0.08770880848169327,
      0.04869049787521362,
      0.051296915858983994,
      -0.13245470821857452,
      -0.1298176646232605,
      -0.10194795578718185,
      0.021396540105342865,
      -0.1219240054488182,
      -0.10898713022470474,
      -0.07270456105470657,
      -0.12735632061958313,
      -0.006232636980712414,
      0.002735061338171363,
      -0.07915550470352173,
      0.06706599146127701,
      -0.05888187885284424,
      -0.0488227941095829,
      0.0828225314617157,
      0.09245125949382782,
      -0.019686970859766006,
      -0.09775972366333008,
      -0.06925176829099655,
      0.0012947262730449438,
      0.05688817426562309,
      0.062230587005615234,
      -0.06342969089746475,
      -0.118170827627182,
      -0.1253107488155365,
      -0.04966963827610016,
      -0.013847429305315018,
      -0.07078073918819427,
      -0.11070078611373901
    ],
    [
      0.041956521570682526,
      0.09582314640283585,
      -0.06344509869813919,
      -0.12685611844062805,
      0.040642403066158295,
      0.31096696853637695,
      0.12900952994823456,
      -0.009392660111188889,
      0.11977444589138031,
      0.10480629652738571,
      0.1650867462158203,
      0.012849458493292332,
      -0.0222919974476099,
      -0.015125343576073647,
      0.010964996181428432,
      -0.16912002861499786,
      0.06826440244913101,
      0.0329848974943161,
      0.2582318186759949,
      0.21094633638858795,
      0.07641921937465668,
      0.1039033979177475,
      0.13077180087566376,
      0.21570271253585815,
      -0.10048116743564606,
      -0.07421951740980148,
      0.028032250702381134,
      0.10904795676469803,
      -0.23849962651729584,
      -0.009332077577710152,
      0.05339735001325607,
      -0.08907036483287811,
      0.0631294846534729,
      0.16780291497707367,
      0.09052663296461105,
      0.04260646551847458,
      0.23819059133529663,
      -0.1317388117313385,
      0.07058217376470566,
      0.059461481869220734,
      -0.03660385683178902,
      0.2179204672574997,
      -0.05274417623877525,
      0.15316055715084076,
      -0.048909157514572144,
      0.10117898881435394,
      -0.042332638055086136,
      0.09472501277923584,
      0.11117663234472275,
      0.24096772074699402,
      -0.025919441133737564,
      0.20809102058410645,
      0.12053926289081573,
      0.03567175567150116,
      -0.10669249296188354,
      0.05100689455866814,
      -0.04764055088162422,
      -0.3301481306552887,
      0.11244689673185349,
      0.07387859374284744,
      0.09060477465391159,
      0.14016427099704742,
      0.1415463089942932,
      0.02118227630853653
    ],
    [
      0.012524258345365524,
      -0.01980234496295452,
      0.15688905119895935,
      -0.01995387300848961,
      -0.003755718469619751,
      -0.1963973045349121,
      0.00996768195182085,
      -0.38012242317199707,
      -0.38276180624961853,
      -0.039574723690748215,
      -0.4108803868293762,
      0.08299780637025833,
      -0.41979989409446716,
      -0.12440016120672226,
      -0.31806957721710205,
      -0.21305981278419495,
      0.014463369734585285,
      -0.11724521219730377,
      0.2330683171749115,
      -0.3432827889919281,
      0.1348104029893875,
      0.03107556141912937,
      -0.31802940368652344,
      -0.10878065228462219,
      -0.30214276909828186,
      -0.4060521721839905,
      -0.07525398582220078,
      -0.12878663837909698,
      0.2011372596025467,
      0.1855752319097519,
      -0.04263698309659958,
      -0.15412114560604095,
      0.005851872265338898,
      -0.457557737827301,
      -0.3855704367160797,
      0.1359511762857437,
      0.01453355047851801,
      0.14057734608650208,
      0.138382226228714,
      0.006707940250635147,
      -0.338737428188324,
      -0.009433514438569546,
      0.015516194514930248,
      -0.18966038525104523,
      0.21104362607002258,
      -0.3816383481025696,
      -0.06311541050672531,
      0.101344034075737,
      -0.07218484580516815,
      0.006095673888921738,
      0.045031264424324036,
      0.13532467186450958,
      0.003576626069843769,
      -0.1714436113834381,
      0.07965501397848129,
      0.16562357544898987,
      0.08077192306518555,
      -0.04846763238310814,
      -0.017417151480913162,
      0.05613682046532631,
      0.09443453699350357,
      0.028517844155430794,
      -0.027299894019961357,
      -0.4067741632461548
    ],
    [
      -0.07049224525690079,
      0.24111808836460114,
      -0.04263118654489517,
      0.06868022680282593,
      0.08479540795087814,
      0.19627869129180908,
      0.18483228981494904,
      -0.059782709926366806,
      0.06308212876319885,
      0.07165148109197617,
      0.1762760728597641,
      -0.029395002871751785,
      0.09588535130023956,
      -0.015929214656352997,
      0.033978886902332306,
      0.04156716167926788,
      0.06488469243049622,
      0.06016187369823456,
      0.10880356281995773,
      0.1966923177242279,
      0.08425543457269669,
      0.10989107936620712,
      0.0792846530675888,
      0.10291625559329987,
      0.09018027782440186,
      0.06385044008493423,
      0.12300974875688553,
      0.024839036166667938,
      -0.016498342156410217,
      -0.05509951338171959,
      0.05667046830058098,
      0.09684562683105469,
      0.05035607889294624,
      0.11005697399377823,
      0.20256780087947845,
      -0.028812779113650322,
      0.1883048415184021,
      -0.2762065827846527,
      0.09696915745735168,
      -0.015105161815881729,
      -0.14871138334274292,
      0.1984146535396576,
      -0.14640222489833832,
      0.044164322316646576,
      0.09742414951324463,
      0.19979079067707062,
      0.013487088494002819,
      -0.01353724580258131,
      0.05440456047654152,
      0.08484455198049545,
      0.08190808445215225,
      0.14323219656944275,
      0.020247675478458405,
      -0.10464939475059509,
      -0.16720537841320038,
      0.08030007779598236,
      0.03620029613375664,
      -0.19244009256362915,
      0.05131012946367264,
      0.2057381123304367,
      0.005627987906336784,
      -0.014930854551494122,
      0.06679609417915344,
      -0.08760868012905121
    ],
    [
      0.028486616909503937,
      0.009123208932578564,
      0.06450116634368896,
      -0.026290258392691612,
      0.06832677870988846,
      -0.09304851293563843,
      -0.08358687162399292,
      -0.0752645954489708,
      -0.14030902087688446,
      -0.1073368638753891,
      -0.14439541101455688,
      -0.04016982018947601,
      -0.025554418563842773,
      -0.05336785316467285,
      -0.11561731994152069,
      0.09087847918272018,
      -0.06840555369853973,
      0.030031882226467133,
      0.046402327716350555,
      -0.1117999330163002,
      -0.04577634111046791,
      0.03560863062739372,
      0.09296297281980515,
      -0.04238419979810715,
      0.05738607048988342,
      -0.12277490645647049,
      -0.10469314455986023,
      0.07847036421298981,
      -0.03269076719880104,
      0.09397760033607483,
      -0.015518317930400372,
      -0.08249852061271667,
      0.08190805464982986,
      0.07426692545413971,
      -0.016311027109622955,
      -0.09782463312149048,
      -0.03252485394477844,
      -0.06909868121147156,
      0.05790739133954048,
      -0.023774171248078346,
      0.004473513457924128,
      0.051639992743730545,
      0.007911669090390205,
      -0.09576957672834396,
      0.06697898358106613,
      0.038953255861997604,
      -0.10043298453092575,
      0.062413763254880905,
      -0.0008503101416863501,
      -0.05094115436077118,
      -0.11794488877058029,
      -0.061112891882658005,
      -0.14171084761619568,
      0.04459570720791817,
      0.05997857823967934,
      -0.07544185221195221,
      0.09820233285427094,
      -0.07986712455749512,
      -0.017135316506028175,
      -0.11803698539733887,
      -0.030724523589015007,
      0.01780754141509533,
      0.02462060935795307,
      -0.03544169291853905
    ],
    [
      -0.03668305277824402,
      0.42757725715637207,
      0.10057064145803452,
      -0.04941147193312645,
      0.060308489948511124,
      0.31838756799697876,
      0.06621137261390686,
      0.11387146264314651,
      0.1449076384305954,
      0.045446958392858505,
      0.22368460893630981,
      0.1924506276845932,
      0.0486169196665287,
      0.1491347998380661,
      0.07256632298231125,
      -0.17973431944847107,
      0.15092696249485016,
      -0.02729485183954239,
      0.11103026568889618,
      0.16037517786026,
      0.01753423921763897,
      0.11347420513629913,
      0.2879665195941925,
      0.13264913856983185,
      -0.09644846618175507,
      -0.05436563119292259,
      0.05417642369866371,
      0.13412460684776306,
      -0.07475356012582779,
      -0.13638542592525482,
      -0.1661108285188675,
      -0.03780170902609825,
      0.14379338920116425,
      0.23966558277606964,
      0.19666850566864014,
      0.028560521081089973,
      0.29909664392471313,
      -0.09059874713420868,
      0.2687583267688751,
      0.09924285858869553,
      -0.24775683879852295,
      0.1590999811887741,
      -0.03322770074009895,
      0.26331523060798645,
      -0.07849134504795074,
      0.2507110834121704,
      0.02095838449895382,
      0.11126217991113663,
      0.05371849611401558,
      0.18984352052211761,
      0.108086496591568,
      0.23018984496593475,
      0.07327336072921753,
      -0.13627028465270996,
      -0.24994409084320068,
      0.016180051490664482,
      8.807033736957237e-05,
      -0.25778624415397644,
      0.1463504582643509,
      -0.015287205576896667,
      -0.05853516608476639,
      -0.03981044515967369,
      0.0365179143846035,
      -0.12077363580465317
    ]
  ],
  "L2.Bias": [
    0.11288900673389435,
    0.06315886974334717,
    0.07983773201704025,
    -0.03713998198509216,
    -0.012112991884350777,
    -0.12431162595748901,
    -0.005651660729199648,
    -0.04907675459980965,
    0.2345663458108902,
    0.08623605966567993,
    -0.08841101825237274,
    0.06030214577913284,
    0.2484494149684906,
    -0.05324515327811241,
    0.12733297049999237,
    0.20489130914211273,
    -0.0833662822842598,
    -0.09179075062274933,
    -0.002323881722986698,
    0.23480011522769928,
    0.09432285279035568,
    0.0006114787538535893,
    0.0479234904050827,
    -0.13269558548927307,
    0.17247799038887024,
    -0.054740991443395615,
    -0.07824774831533432,
    0.14254078269004822,
    0.09450771659612656,
    0.042067356407642365,
    -0.11590582877397537,
    0.07779824733734131
  ],
  "L3.Weight": [
    [
      0.2414635419845581,
      -0.5428958535194397,
      0.17824772000312805,
      -0.5133146643638611,
      -0.5104079842567444,
      -0.028185773640871048,
      -0.7191059589385986,
      -0.06683900952339172,
      0.16645388305187225,
      -0.11933799088001251,
      -0.15032701194286346,
      0.26262253522872925,
      0.17223991453647614,
      -0.5404322147369385,
      0.14722393453121185,
      0.2683213949203491,
      -0.12635819613933563,
      -0.5209943652153015,
      -0.48809340596199036,
      0.22892047464847565,
      0.16073599457740784,
      -0.1132071390748024,
      0.2882477939128876,
      -0.593641996383667,
      0.2808588147163391,
      -0.10634969919919968,
      -0.01094546727836132,
      0.1764829307794571,
      -0.2352169305086136,
      0.2840118408203125,
      -0.09589478373527527,
      0.2364479899406433
    ]
  ],
  "L3.Bias": [
    -0.05253194272518158
  ]
}