{
  "L1.Weight": [
    [
      0.27030518651008606,
      0.29345211386680603,
      -0.08282783627510071,
      0.32477810978889465,
      -0.07746481895446777,
      0.07134377956390381,
      -0.17212924361228943,
      0.2076357901096344
    ],
    [
      0.31167247891426086,
      -0.2593767046928406,
      0.30730727314949036,
      0.06617081165313721,
      0.2612083852291107,
      0.04788193106651306,
      0.1704792082309723,
      -0.049918562173843384
    ],
    [
      0.2725493013858795,
      0.05225834250450134,
      -0.16505283117294312,
      0.09012016654014587,
      -0.16289499402046204,
      -0.041462212800979614,
      -0.14359864592552185,
      0.2345370352268219
    ],
    [
      -0.2790845036506653,
      -0.16299176216125488,
      -0.09983453154563904,
      -0.21258191764354706,
      0.033369481563568115,
      -0.34919729828834534,
      0.31929728388786316,
      -0.30033236742019653
    ],
    [
      0.2729528844356537,
      0.05883803963661194,
      -0.11480037868022919,
      0.21847829222679138,
      0.05510157346725464,
      0.28565821051597595,
      0.038650333881378174,
      -0.11150126159191132
    ],
    [
      0.09499400854110718,
      -0.09587639570236206,
      0.14879563450813293,
      0.3156602680683136,
      0.20437493920326233,
      -0.15456382930278778,
      0.20409390330314636,
      0.06325995922088623
    ],
    [
      0.1795468032360077,
      -0.21549257636070251,
      -0.3499854803085327,
      -0.1365990787744522,
      -0.2711835205554962,
      0.29010429978370667,
      0.10183444619178772,
      0.1464465856552124
    ],
    [
      0.11181521415710449,
      -0.006150394678115845,
      0.27669379115104675,
      -0.2512044906616211,
      0.02226102352142334,
      -0.2413143813610077,
      0.10901889204978943,
      -0.12175752222537994
    ],
    [
      0.1083345115184784,
      -0.07365983724594116,
      0.29323431849479675,
      -0.20955176651477814,
      -0.2108585238456726,
      -0.21087126433849335,
      0.31800106167793274,
      0.11782205104827881
    ],
    [
      0.3402070105075836,
      -0.29177922010421753,
      -0.3506811559200287,
      -0.27660736441612244,
      -0.2378315031528473,
      0.14320331811904907,
      0.12659892439842224,
      0.29377612471580505
    ],
    [
      -0.18258394300937653,
      -0.2410215139389038,
      0.187587708234787,
      -0.14290785789489746,
      0.2145799696445465,
      -0.08389845490455627,
      0.20224878191947937,
      -0.2746996581554413
    ],
    [
      -0.17842063307762146,
      0.10779011249542236,
      0.07474386692047119,
      -0.09014153480529785,
      0.21074238419532776,
      0.24034884572029114,
      -0.25638750195503235,
      -0.18875090777873993
    ],
    [
      0.32373538613319397,
      -0.11930041015148163,
      -0.12534046173095703,
      -0.34209635853767395,
      -0.20246949791908264,
      0.08831894397735596,
      -0.046666622161865234,
      -0.2566394507884979
    ],
    [
      0.008293181657791138,
      -0.24150577187538147,
      -0.29995352029800415,
      -0.19468863308429718,
      -0.309434175491333,
      -0.2251209020614624,
      0.3534151017665863,
      0.06677737832069397
    ],
    [
      0.1089509129524231,
      -0.32975369691848755,
      -0.2322046011686325,
      -0.1176823079586029,
      0.05528554320335388,
      -0.31109917163848877,
      -0.15233662724494934,
      -0.21166129410266876
    ],
    [
      0.000979781150817871,
      -0.1315583437681198,
      -0.024499744176864624,
      -0.2395782768726349,
      -0.24267733097076416,
      -0.2062636762857437,
      -0.12102042138576508,
      -0.2790529131889343
    ],
    [
      0.2964438498020172,
      -0.07016763091087341,
      0.30419620871543884,
      0.11016088724136353,
      -0.29938793182373047,
      0.24467137455940247,
      -0.09727838635444641,
      -0.13552622497081757
    ],
    [
      -0.2934742271900177,
      -0.35148885846138,
      0.1011553704738617,
      -0.07723155617713928,
      0.13764649629592896,
      -0.2901483476161957,
      0.26248833537101746,
      -0.25952717661857605
    ],
    [
      -0.06104925274848938,
      0.07384657859802246,
      0.18252256512641907,
      0.2854273021221161,
      0.32207271456718445,
      -0.280340313911438,
      0.08897781372070312,
      -0.1520724892616272
    ],
    [
      -0.03874409198760986,
      -0.2646312117576599,
      0.32203713059425354,
      -0.2594906687736511,
      0.1889570653438568,
      0.12425264716148376,
      0.11488926410675049,
      -0.19114729762077332
    ],
    [
      0.3213628828525543,
      0.07769349217414856,
      0.0454811155796051,
      -0.3115706145763397,
      0.1484176218509674,
      -0.05304029583930969,
      -0.16197139024734497,
      0.30368348956108093
    ],
    [
      0.07882431149482727,
      -0.19561274349689484,
      -0.17894713580608368,
      -0.016884207725524902,
      0.19741055369377136,
      -0.09034484624862671,
      -0.2017286866903305,
      -0.12107183039188385
    ],
    [
      -0.2641308307647705,
      0.12608861923217773,
      0.27366456389427185,
      -0.3328494131565094,
      0.08211302757263184,
      0.18264278769493103,
      0.06410962343215942,
      -0.12590907514095306
    ],
    [
      0.18453440070152283,
      0.18579694628715515,
      0.13220325112342834,
      -0.06212690472602844,
      -0.09362137317657471,
      0.03782346844673157,
      -0.06245666742324829,
      -0.10535928606987
    ],
    [
      0.2259937822818756,
      0.3038436472415924,
      -0.03500086069107056,
      -0.07915949821472168,
      0.005159139633178711,
      -0.021110057830810547,
      0.084998220205307,
      0.09907755255699158
    ],
    [
      -0.32111725211143494,
      -0.1304745376110077,
      0.2977377474308014,
      0.1377284824848175,
      -0.017584890127182007,
      -0.21315936744213104,
      -0.21630576252937317,
      -0.31670141220092773
    ],
    [
      -0.11524511873722076,
      0.11939644813537598,
      0.22543326020240784,
      0.163234680891037,
      -0.31252139806747437,
      -0.21261373162269592,
      -0.05579662322998047,
      0.34200969338417053
    ],
    [
      0.051144152879714966,
      -0.09155997633934021,
      0.14627042412757874,
      -0.1346619576215744,
      -0.2288394272327423,
      0.25805410742759705,
      -0.16076135635375977,
      -0.07087570428848267
    ],
    [
      -0.35171642899513245,
      0.2366228997707367,
      0.26786431670188904,
      0.12885189056396484,
      -0.2465236485004425,
      -0.34893593192100525,
      -0.2871486246585846,
      0.26364484429359436
    ],
    [
      0.16974303126335144,
      0.29751673340797424,
      0.18521597981452942,
      0.08948159217834473,
      -0.0034622251987457275,
      -0.2688794732093811,
      -0.30291470885276794,
      -0.3306956887245178
    ],
    [
      0.1447313129901886,
      -0.17358338832855225,
      -0.07115352153778076,
      -0.2034718245267868,
      -0.0644257664680481,
      -0.2488432079553604,
      -0.2310173213481903,
      0.11727747321128845
    ],
    [
      -0.10507479310035706,
      0.21826377511024475,
      -0.11342301964759827,
      -0.25935518741607666,
      -0.062380582094192505,
      -0.1713840812444687,
      -0.10816667973995209,
      -0.3365812599658966
    ],
    [
      0.19780990481376648,
      -0.24614547193050385,
      0.17770221829414368,
      0.1604369580745697,
      0.2525900900363922,
      -0.27119386196136475,
      0.2542744576931,
      -0.16714292764663696
    ],
    [
      0.13119277358055115,
      0.3320271670818329,
      -0.049862295389175415,
      -0.0027341842651367188,
      -0.08139878511428833,
      -0.2952116131782532,
      0.16967126727104187,
      -0.3509787619113922
    ],
    [
      0.21948590874671936,
      0.2645375430583954,
      0.33435770869255066,
      -0.08339601755142212,
      -0.29049429297447205,
      0.07948949933052063,
      0.1953125298023224,
      -0.3518947660923004
    ],
    [
      -0.0802508294582367,
      -0.2119395136833191,
      -0.03092309832572937,
      -0.17402374744415283,
      -0.14452116191387177,
      -0.11223866045475006,
      -0.3359832167625427,
      0.29009321331977844
    ],
    [
      0.29639485478401184,
      -0.055461585521698,
      -0.04026338458061218,
      -0.1442921757698059,
      -0.3192809224128723,
      -0.3440585136413574,
      0.13140109181404114,
      -0.19411712884902954
    ],
    [
      -0.22729133069515228,
      -0.027585357427597046,
      -0.11773721873760223,
      -0.11438186466693878,
      0.011360079050064087,
      -0.0749930739402771,
      -0.12173283100128174,
      -0.1692834496498108
    ],
    [
      -0.28773143887519836,
      0.2964570224285126,
      -0.1414875090122223,
      0.09368440508842468,
      -0.122670978307724,
      0.02873021364212036,
      0.32961800694465637,
      0.16289004683494568
    ],
    [
      -0.3063892424106598,
      0.14032632112503052,
      0.33560803532600403,
      0.09301400184631348,
      0.23703089356422424,
      0.34856387972831726,
      -0.05417463183403015,
      0.07338157296180725
    ],
    [
      -0.24573200941085815,
      -0.0728592574596405,
      0.26183590292930603,
      0.18124768137931824,
      -0.22372469305992126,
      -0.28350916504859924,
      -0.24160555005073547,
      -0.34891393780708313
    ],
    [
      -0.2728155851364136,
      -0.08743283152580261,
      0.23860511183738708,
      0.059178560972213745,
      -0.2689146399497986,
      -0.28362900018692017,
      0.17588403820991516,
      -0.2629876136779785
    ],
    [
      -0.04353213310241699,
      0.169601708650589,
      -0.16362877190113068,
      -0.03855141997337341,
      -0.030774861574172974,
      -0.08364483714103699,
      -0.1792629361152649,
      -0.3151710629463196
    ],
    [
      -0.2857973575592041,
      -0.18931429088115692,
      0.3414752185344696,
      -0.17077147960662842,
      -0.23742099106311798,
      0.08569929003715515,
      0.09744295477867126,
      0.19371536374092102
    ],
    [
      0.2687431275844574,
      0.19688472151756287,
      -0.35054853558540344,
      0.03135615587234497,
      0.2141660749912262,
      -0.03267732262611389,
      -0.20834164321422577,
      0.33705654740333557
    ],
    [
      -0.13223880529403687,
      -0.2012936770915985,
      -0.3187478482723236,
      0.015792638063430786,
      0.1566711962223053,
      0.07826358079910278,
      0.06991508603096008,
      -0.26813045144081116
    ],
    [
      -0.33017900586128235,
      0.006225854158401489,
      0.3223820626735687,
      0.2039724886417389,
      -0.20585089921951294,
      -0.04589426517486572,
      -0.2606337368488312,
      -0.17056243121623993
    ],
    [
      0.06402793526649475,
      0.19252344965934753,
      0.29287275671958923,
      -0.3245995044708252,
      0.23639115691184998,
      -0.2493584156036377,
      0.13239416480064392,
      0.299192875623703
    ],
    [
      0.004964739084243774,
      0.32166603207588196,
      -0.30124568939208984,
      -0.1350429654121399,
      0.20621106028556824,
      -0.07702791690826416,
      -0.07237246632575989,
      -0.14735810458660126
    ],
    [
      0.24370649456977844,
      0.17341908812522888,
      0.11329621076583862,
      -0.19868415594100952,
      -0.2869968116283417,
      0.03824055194854736,
      0.10475039482116699,
      -0.16323979198932648
    ],
    [
      -0.09892341494560242,
      0.23877856135368347,
      0.02816396951675415,
      0.01595175266265869,
      -0.08700966835021973,
      -0.32017430663108826,
      -0.33243119716644287,
      -0.16900384426116943
    ],
    [
      -0.1797187477350235,
      0.11015081405639648,
      -0.102923184633255,
      -0.13831789791584015,
      0.33708831667900085,
      0.12315073609352112,
      0.2520489990711212,
      -0.17115969955921173
    ],
    [
      -0.14441482722759247,
      0.12994518876075745,
      -0.23556382954120636,
      -0.2311192750930786,
      -0.0170765221118927,
      -0.12931592762470245,
      -0.26504412293434143,
      0.20971336960792542
    ],
    [
      0.28431448340415955,
      0.05735459923744202,
      -0.06155833601951599,
      -0.32748696208000183,
      -0.12877783179283142,
      0.09000959992408752,
      0.16671136021614075,
      -0.04469534754753113
    ],
    [
      -0.13977833092212677,
      0.19700917601585388,
      -0.28156980872154236,
      0.2234521210193634,
      -0.13716274499893188,
      0.005411267280578613,
      -0.06986775994300842,
      0.042864441871643066
    ],
    [
      -0.10684327781200409,
      0.2570782005786896,
      -0.009191393852233887,
      0.275983601808548,
      0.33993467688560486,
      -0.1722480207681656,
      -0.25792041420936584,
      0.2836565673351288
    ],
    [
      0.27704933285713196,
      -0.26995474100112915,
      -0.027330845594406128,
      -0.3486482799053192,
      -0.289418488740921,
      0.06828621029853821,
      0.09405744075775146,
      0.07494661211967468
    ],
    [
      -0.09622475504875183,
      0.32618048787117004,
      0.05055034160614014,
      -0.20862647891044617,
      -0.020016014575958252,
      0.08490416407585144,
      0.12381181120872498,
      -0.2499908208847046
    ],
    [
      0.13250812888145447,
      -0.18062393367290497,
      -0.2937817871570587,
      -0.19311349093914032,
      0.3409701883792877,
      0.3022378981113434,
      0.31660154461860657,
      0.20753982663154602
    ],
    [
      0.2670917212963104,
      -0.047323018312454224,
      -0.19453492760658264,
      0.17665526270866394,
      -0.1832052618265152,
      -0.23860110342502594,
      -0.11290162801742554,
      0.074196457862854
    ],
    [
      0.1820080578327179,
      -0.1373233199119568,
      -0.20808960497379303,
      0.047691911458969116,
      -0.20839610695838928,
      -0.23018497228622437,
      0.18429037928581238,
      -0.059391528367996216
    ],
    [
      0.32307174801826477,
      0.34393057227134705,
      0.10574975609779358,
      0.12167811393737793,
      0.08141759037971497,
      0.005536943674087524,
      -0.02571481466293335,
      0.004859268665313721
    ],
    [
      0.1320255994796753,
      0.32872363924980164,
      -0.09162658452987671,
      -0.1494525969028473,
      -0.08561819791793823,
      -0.17081022262573242,
      0.060117751359939575,
      0.26390936970710754
    ],
    [
      0.27647075057029724,
      0.16232535243034363,
      -0.26019108295440674,
      -0.18975378572940826,
      -0.07767972350120544,
      -0.06516841053962708,
      0.029078960418701172,
      -0.32455193996429443
    ]
  ],
  "L1.Bias": [
    0.11004161834716797,
    -0.2697160243988037,
    -0.22370901703834534,
    -0.2939381003379822,
    0.3080579936504364,
    -0.3347937762737274,
    0.26670894026756287,
    -0.011885374784469604,
    -0.041117846965789795,
    0.221140056848526,
    -0.03267809748649597,
    0.2217324674129486,
    0.255624383687973,
    -0.3069586157798767,
    0.13604167103767395,
    0.06674346327781677,
    0.07601812481880188,
    0.051615774631500244,
    0.0967077910900116,
    -0.17008280754089355,
    -0.04523402452468872,
    0.3359181582927704,
    0.23753467202186584,
    -0.013282448053359985,
    -0.33252787590026855,
    0.015495449304580688,
    -0.24076050519943237,
    0.2875066101551056,
    -0.21463780105113983,
    -0.025527119636535645,
    -0.07846859097480774,
    0.06291618943214417,
    0.33270350098609924,
    0.033594369888305664,
    0.2047654092311859,
    0.27443578839302063,
    0.28542760014533997,
    -0.12210017442703247,
    -0.07907456159591675,
    0.1703907549381256,
    -0.09647330641746521,
    0.16555634140968323,
    -0.077239990234375,
    -0.2397984117269516,
    0.14391154050827026,
    0.05420610308647156,
    0.15763118863105774,
    0.35125038027763367,
    0.24138256907463074,
    0.335161954164505,
    0.018923163414001465,
    -0.30413106083869934,
    -0.24802732467651367,
    -0.2196180820465088,
    -0.31156834959983826,
    -0.1772177517414093,
    -0.32546985149383545,
    -0.32619374990463257,
    -0.21126744151115417,
    -0.3485448956489563,
    -0.21701547503471375,
    0.13481298089027405,
    0.294882208108902,
    -0.10516898334026337
  ],
  "L2.Weight": [
    [
      -0.03635984659194946,
      0.06674416363239288,
      -0.061671361327171326,
      -0.0591040700674057,
      0.0770161896944046,
      -0.10891270637512207,
      0.015284344553947449,
      0.11042274534702301,
      0.02143581211566925,
      0.03399297595024109,
      -0.07279889285564423,
      -0.0017245709896087646,
      0.0068730562925338745,
      0.030679285526275635,
      0.0485682487487793,
      0.10861597955226898,
      -0.09541243314743042,
      0.003746911883354187,
      -0.06245453655719757,
      -0.09888298809528351,
      -0.010009706020355225,
      -0.11002960801124573,
      0.0872374027967453,
      0.014476850628852844,
      -0.06736975908279419,
      0.0653223842382431,
      -0.11830349266529083,
      -0.04834990203380585,
      -0.024352341890335083,
      -0.10621878504753113,
      -0.07948604226112366,
      -0.020402327179908752,
      0.09484557807445526,
      0.12070678174495697,
      0.07953280210494995,
      -0.07464049756526947,
      -0.0817776471376419,
      0.10908664762973785,
      0.044214680790901184,
      0.0033209621906280518,
      0.016916513442993164,
      -0.10046209394931793,
      -0.041735678911209106,
      0.12032726407051086,
      -0.03082902729511261,
      -0.006270512938499451,
      -0.10379138588905334,
      -0.06992588937282562,
      -0.0025524497032165527,
      -0.07764492928981781,
      -0.015501201152801514,
      0.0508698970079422,
      -0.12227216362953186,
      0.037126511335372925,
      -0.08265101909637451,
      -0.06100638210773468,
      0.047988712787628174,
      0.09939002990722656,
      -0.03416357934474945,
      -0.051321133971214294,
      -0.11302947998046875,
      -0.06445720791816711,
      -0.10945461690425873,
      -0.028608813881874084
    ],
    [
      0.02550692856311798,
      -0.11710946261882782,
      0.10913918912410736,
      0.07842385768890381,
      -0.1223682314157486,
      -0.05970412492752075,
      0.04076939821243286,
      -0.025682449340820312,
      -0.013622060418128967,
      -0.05643945932388306,
      0.10040244460105896,
      -0.06987477838993073,
      0.10365960001945496,
      0.008065283298492432,
      0.025127723813056946,
      0.09751647710800171,
      -0.020595699548721313,
      -0.07116791605949402,
      -0.02021677792072296,
      0.10138167440891266,
      -0.09274841845035553,
      0.02837255597114563,
      -0.12284892797470093,
      0.06553776562213898,
      0.04618346691131592,
      0.005299031734466553,
      0.053649142384529114,
      0.00014059245586395264,
      0.06916910409927368,
      -0.09895256161689758,
      -0.0183565616607666,
      0.05545182526111603,
      0.12447710335254669,
      0.06367392838001251,
      -0.09089680016040802,
      0.09613710641860962,
      -0.02787478268146515,
      -0.026689305901527405,
      -0.11361370980739594,
      -0.01967678964138031,
      0.08841584622859955,
      0.017430603504180908,
      -0.07280674576759338,
      0.03847651183605194,
      -0.04008054733276367,
      0.11412425339221954,
      -0.10849432647228241,
      -0.03948444128036499,
      -0.12069669365882874,
      -0.04922877252101898,
      0.039405956864356995,
      0.12032683193683624,
      0.020993292331695557,
      0.12254481017589569,
      0.024456515908241272,
      0.0721919983625412,
      0.10020777583122253,
      0.10449041426181793,
      -0.06996546685695648,
      0.11492374539375305,
      0.07572068274021149,
      -0.058447375893592834,
      -0.059650421142578125,
      -0.10484327375888824
    ],
    [
      0.03139215707778931,
      -0.10131865739822388,
      0.05280308425426483,
      0.03947471082210541,
      -0.10860027372837067,
      0.03406260907649994,
      -0.010166317224502563,
      0.05710221827030182,
      0.07172369956970215,
      -0.12426812946796417,
      0.1146373599767685,
      0.10483025014400482,
      0.049735456705093384,
      -0.11424513161182404,
      -0.04465259611606598,
      -0.03622610867023468,
      -0.03212474286556244,
      0.07049039006233215,
      0.04544632136821747,
      0.09902238845825195,
      -0.04681539535522461,
      0.04206746816635132,
      0.044474393129348755,
      -0.10407385230064392,
      -0.12125247716903687,
      -0.06486113369464874,
      0.08556845784187317,
      -0.11768245697021484,
      -0.10880422592163086,
      0.07002507150173187,
      0.06744112074375153,
      0.10279908776283264,
      -0.09436734020709991,
      -0.09148746728897095,
      0.06412333250045776,
      0.10870377719402313,
      0.07479235529899597,
      0.019581511616706848,
      0.04119683802127838,
      0.11864084005355835,
      -0.08065053820610046,
      -0.05675147473812103,
      0.08743336796760559,
      -0.08552995324134827,
      -0.06892657279968262,
      0.09124888479709625,
      0.03944025933742523,
      0.040383756160736084,
      -0.052980050444602966,
      -0.0017250627279281616,
      0.11440409719944,
      -0.07502751052379608,
      0.0009827762842178345,
      0.0594499409198761,
      -0.08629453182220459,
      0.12139710783958435,
      -0.0624513179063797,
      -0.030017003417015076,
      -0.033821284770965576,
      -0.08145736157894135,
      -0.12265807390213013,
      0.07048144936561584,
      0.033209264278411865,
      -0.11707510054111481
    ],
    [
      -0.08045335114002228,
      0.12354600429534912,
      0.047779381275177,
      0.050155580043792725,
      -0.07478725910186768,
      -0.05479951202869415,
      -0.018869265913963318,
      -0.02285999059677124,
      -0.0856560468673706,
      0.010298117995262146,
      0.012423500418663025,
      -0.01582762598991394,
      0.017328977584838867,
      -0.0495438277721405,
      0.032531484961509705,
      0.047142550349235535,
      -0.06584237515926361,
      -0.1239473819732666,
      0.06542930006980896,
      0.029817089438438416,
      -0.06357349455356598,
      0.12046274542808533,
      -0.05653099715709686,
      0.08446834981441498,
      0.06341606378555298,
      -0.10480101406574249,
      0.08061766624450684,
      -0.11493411660194397,
      -0.06925183534622192,
      -0.02083936333656311,
      -0.08425581455230713,
      0.12211373448371887,
      -0.025072455406188965,
      0.049648717045784,
      -0.11161398887634277,
      0.07195830345153809,
      -0.038847967982292175,
      -0.09508390724658966,
      0.018277868628501892,
      0.06055772304534912,
      0.1081746369600296,
      -0.07634907960891724,
      -0.061513036489486694,
      0.02403286099433899,
      0.03390765190124512,
      0.04805903136730194,
      0.06860940158367157,
      -0.02834421396255493,
      0.06944620609283447,
      0.09216144680976868,
      -0.03265269100666046,
      0.08893215656280518,
      0.06107243895530701,
      0.11025659739971161,
      -0.07103423774242401,
      -0.061726123094558716,
      -0.036142364144325256,
      0.006340786814689636,
      0.07502487301826477,
      -0.0713578313589096,
      0.06258174777030945,
      -0.04479767382144928,
      0.07551366090774536,
      -0.005934655666351318
    ],
    [
      -0.1095108687877655,
      -0.06878073513507843,
      -0.09046900272369385,
      0.061995312571525574,
      -0.08381852507591248,
      -0.01041477918624878,
      0.02696947753429413,
      -0.06854933500289917,
      0.03605875372886658,
      -0.12205292284488678,
      -0.0894385576248169,
      -0.11326542496681213,
      -0.037809669971466064,
      -0.04553717374801636,
      0.017899170517921448,
      -0.023114308714866638,
      0.058760255575180054,
      0.11459942162036896,
      0.044848889112472534,
      -0.049245938658714294,
      -0.11704820394515991,
      0.0452752411365509,
      -0.06193223595619202,
      0.0636095404624939,
      0.08356061577796936,
      0.04821506142616272,
      0.11728884279727936,
      0.11872455477714539,
      0.02646748721599579,
      -0.09107959270477295,
      0.11168016493320465,
      -0.05931197106838226,
      -0.05904419720172882,
      0.10459733009338379,
      0.09685128927230835,
      0.03776891529560089,
      0.007835477590560913,
      -0.10514573752880096,
      -0.012975513935089111,
      0.11989079415798187,
      0.03183235228061676,
      0.010702252388000488,
      -0.025956377387046814,
      -0.043597787618637085,
      0.0745028406381607,
      0.007708564400672913,
      0.08132177591323853,
      -0.022124826908111572,
      0.05461364984512329,
      0.05159623920917511,
      0.01993301510810852,
      0.07854662835597992,
      0.07833074033260345,
      0.11586540937423706,
      0.09609699249267578,
      -0.0319620817899704,
      -0.10582752525806427,
      0.022852182388305664,
      -0.0010910332202911377,
      -0.032603174448013306,
      -0.02093183994293213,
      0.005879104137420654,
      0.0912037342786789,
      0.03896765410900116
    ],
    [
      -0.044386789202690125,
      -0.051403120160102844,
      -0.030953913927078247,
      -0.048312872648239136,
      0.11240285634994507,
      0.06620566546916962,
      0.11287195980548859,
      0.0003992021083831787,
      0.025208860635757446,
      0.04334558546543121,
      -0.11831913888454437,
      0.01116207242012024,
      -0.008361250162124634,
      -0.07008175551891327,
      -0.09699341654777527,
      0.11065930128097534,
      0.10163325071334839,
      0.05793358385562897,
      0.11928121745586395,
      -0.05072598159313202,
      -0.02159033715724945,
      0.047327324748039246,
      -0.020653322339057922,
      -0.0245293527841568,
      -0.1033201813697815,
      0.0335826575756073,
      -0.07554090023040771,
      0.004545778036117554,
      0.1218719482421875,
      -0.038476914167404175,
      -0.03939896821975708,
      0.07541410624980927,
      -0.04595665633678436,
      -0.0107346773147583,
      0.11671730875968933,
      -0.05124671757221222,
      -0.08942627906799316,
      -0.06995546817779541,
      -0.03465570509433746,
      -0.05931234359741211,
      -0.06486646831035614,
      0.050493061542510986,
      0.021242216229438782,
      -0.04000769555568695,
      -0.09711392223834991,
      -0.03935748338699341,
      -0.05275489389896393,
      -0.04067736864089966,
      -0.112765371799469,
      0.026928633451461792,
      -0.09184044599533081,
      -0.09734989702701569,
      -0.10212914645671844,
      0.052172958850860596,
      -0.07525333762168884,
      -0.051593855023384094,
      0.0979800820350647,
      0.06637053191661835,
      0.07167389988899231,
      -0.11868831515312195,
      -0.08963747322559357,
      -0.04718887805938721,
      0.10326220095157623,
      0.012787550687789917
    ],
    [
      -0.09348714351654053,
      0.0007827281951904297,
      -0.09708385169506073,
      -0.027387410402297974,
      -0.03437188267707825,
      0.10820770263671875,
      0.03871709108352661,
      -0.021796390414237976,
      0.021116092801094055,
      -0.03608319163322449,
      0.04911254346370697,
      0.04944548010826111,
      0.03356826305389404,
      -0.04872211813926697,
      0.10664384067058563,
      -0.018046244978904724,
      -0.04866458475589752,
      0.07828925549983978,
      0.10188208520412445,
      0.1243949681520462,
      0.037032291293144226,
      -0.042611733078956604,
      0.0634865015745163,
      0.10724431276321411,
      -0.12260426580905914,
      -0.015485867857933044,
      -0.08524568378925323,
      0.023294970393180847,
      0.05169810354709625,
      -0.02582348883152008,
      -0.010457143187522888,
      0.05626384913921356,
      -0.02100871503353119,
      -0.10497243702411652,
      0.1000169962644577,
      -0.06291431188583374,
      -0.013732314109802246,
      0.011790797114372253,
      -0.007512107491493225,
      -0.11758574843406677,
      0.05734999477863312,
      -0.056778937578201294,
      -0.06483244895935059,
      0.02986443042755127,
      -0.06523275375366211,
      -0.057769954204559326,
      -0.04211874306201935,
      -0.04695969820022583,
      -0.0522046834230423,
      -0.03371073305606842,
      0.032484471797943115,
      -0.10115224123001099,
      -0.07566003501415253,
      0.0018239319324493408,
      0.01738351583480835,
      0.0690365582704544,
      -0.08780549466609955,
      0.039899617433547974,
      0.07104872167110443,
      0.06940752267837524,
      -0.11642768979072571,
      -0.04770052433013916,
      -0.10744570195674896,
      -0.07910142838954926
    ],
    [
      0.06962285935878754,
      -0.018664881587028503,
      0.05308891832828522,
      -0.07337579131126404,
      0.01899498701095581,
      -0.07560724020004272,
      0.062486499547958374,
      -0.054672375321388245,
      -0.03134489059448242,
      -0.1084539145231247,
      0.00041294097900390625,
      0.11868502199649811,
      0.06067226827144623,
      -0.06669262051582336,
      0.0016810894012451172,
      -0.013706058263778687,
      -0.10063427686691284,
      0.09801138937473297,
      0.0020150840282440186,
      0.02632462978363037,
      -0.05047862231731415,
      -0.05848988890647888,
      0.020611196756362915,
      0.04621386528015137,
      0.02803725004196167,
      -0.06024312973022461,
      0.12136222422122955,
      -0.01840054988861084,
      -0.0765518844127655,
      -0.05846408009529114,
      0.12305259704589844,
      6.020069122314453e-06,
      -0.016968026757240295,
      -0.05202022194862366,
      -0.03276817500591278,
      -0.10527856647968292,
      -0.0993354320526123,
      0.07316118478775024,
      0.1069311797618866,
      0.11928755044937134,
      -0.09024278819561005,
      0.06760790944099426,
      -0.07737082242965698,
      0.07457002997398376,
      0.09019428491592407,
      0.09673386812210083,
      0.09000641107559204,
      0.07819665968418121,
      0.0024329572916030884,
      0.057435303926467896,
      -0.044721364974975586,
      0.05442935228347778,
      -0.040175244212150574,
      -0.0020989179611206055,
      -0.1087973564863205,
      -0.032684326171875,
      -0.06573411822319031,
      -0.04216510057449341,
      -0.0798233151435852,
      -0.11243052780628204,
      0.008139565587043762,
      0.08112239837646484,
      0.11384367942810059,
      0.0729442685842514
    ],
    [
      -0.06479217112064362,
      -0.1236262172460556,
      0.047414228320121765,
      0.07003924250602722,
      -0.10731400549411774,
      0.044823259115219116,
      0.10568465292453766,
      0.007572069764137268,
      -0.07530735433101654,
      0.10248453915119171,
      0.05337698757648468,
      0.08277514576911926,
      -0.08453568816184998,
      0.07274319231510162,
      -0.08538420498371124,
      0.1236867904663086,
      -0.052962467074394226,
      0.07532088458538055,
      0.025030195713043213,
      0.033126309514045715,
      -0.01916937530040741,
      0.05134192109107971,
      -0.05209648609161377,
      -0.11782240867614746,
      -0.04802538454532623,
      0.09794232249259949,
      -0.03290870785713196,
      0.03928980231285095,
      -0.04621580243110657,
      0.0937686562538147,
      0.07481127977371216,
      0.04412670433521271,
      -0.06389521062374115,
      -0.10214123129844666,
      0.00470617413520813,
      -0.07333222031593323,
      0.10277421772480011,
      -0.12012197077274323,
      0.055858537554740906,
      0.12461425364017487,
      0.06260354816913605,
      0.042622342705726624,
      -0.1202683299779892,
      0.12023665010929108,
      -0.021380946040153503,
      -0.11680105328559875,
      0.12339535355567932,
      -0.05086633563041687,
      -0.008843451738357544,
      0.11440993845462799,
      -0.08665008842945099,
      -0.08843624591827393,
      0.020327165722846985,
      -0.016731739044189453,
      0.028792724013328552,
      -0.10483816266059875,
      0.0037383288145065308,
      -0.05559496581554413,
      -0.061451107263565063,
      -0.11445461213588715,
      0.06627729535102844,
      0.024079561233520508,
      -0.10568040609359741,
      0.0991939902305603
    ],
    [
      0.03770260512828827,
      0.023195400834083557,
      -0.07339204847812653,
      0.01885056495666504,
      0.12044252455234528,
      0.08573555946350098,
      -0.09735877811908722,
      0.11410264670848846,
      0.009688720107078552,
      0.06012064218521118,
      0.09708453714847565,
      0.10656364262104034,
      -0.09744185209274292,
      0.10945798456668854,
      -0.08489686250686646,
      0.009370759129524231,
      -0.08734545111656189,
      -0.02740415930747986,
      -0.00568033754825592,
      -0.014954417943954468,
      -0.019746989011764526,
      0.009858816862106323,
      0.12330234050750732,
      0.07262644171714783,
      0.06993374228477478,
      0.05003093183040619,
      0.09677264094352722,
      -0.005768626928329468,
      0.009939029812812805,
      0.025724634528160095,
      -0.1090163141489029,
      -0.10069461166858673,
      0.015325173735618591,
      -0.04890628159046173,
      -0.002293720841407776,
      -0.028682351112365723,
      0.019457846879959106,
      0.08132694661617279,
      -0.041455239057540894,
      0.1001075804233551,
      0.09869521856307983,
      -0.09593726694583893,
      -0.09652827680110931,
      -0.10113435983657837,
      -0.0685025304555893,
      -0.04865953326225281,
      -0.009408682584762573,
      -0.030399024486541748,
      -0.06315606832504272,
      -0.03971169888973236,
      -0.04521806538105011,
      0.12262977659702301,
      -0.046328604221343994,
      -0.08950011432170868,
      0.051962196826934814,
      -0.0072201937437057495,
      0.09569549560546875,
      0.07810407876968384,
      0.11484110355377197,
      -0.09154494106769562,
      0.08035792410373688,
      0.10490484535694122,
      -0.06172893941402435,
      0.11489748954772949
    ],
    [
      0.09370537102222443,
      0.001368895173072815,
      0.060269057750701904,
      -0.04370269179344177,
      -0.10902297496795654,
      0.03159750998020172,
      0.037265658378601074,
      -0.08169487118721008,
      0.06062495708465576,
      -0.10677783191204071,
      0.10757800936698914,
      0.12104879319667816,
      0.03403230011463165,
      -0.07842859625816345,
      0.060833901166915894,
      0.02130196988582611,
      0.03398984670639038,
      0.04108166694641113,
      0.09516943991184235,
      -0.05372948944568634,
      -0.028118133544921875,
      0.03408823907375336,
      0.013620138168334961,
      0.10079720616340637,
      -0.06565481424331665,
      -0.004552081227302551,
      0.023356646299362183,
      -0.03319862484931946,
      0.08521458506584167,
      0.013672694563865662,
      -0.11552874743938446,
      -0.01354198157787323,
      -0.05669461190700531,
      0.012146398425102234,
      -0.014526993036270142,
      -0.12399177253246307,
      -0.022778168320655823,
      -0.011972412467002869,
      -0.03685981035232544,
      0.11484755575656891,
      -0.02727489173412323,
      0.0803021490573883,
      0.030964717268943787,
      -0.10551664233207703,
      0.029373258352279663,
      0.10359194874763489,
      -0.08176258206367493,
      -0.08079686760902405,
      0.12235613167285919,
      0.10043874382972717,
      -0.06973674893379211,
      0.07521812617778778,
      -0.015991508960723877,
      -0.12324117124080658,
      0.009391680359840393,
      0.04038675129413605,
      -0.03749510645866394,
      0.043485432863235474,
      -0.10688760876655579,
      0.08662699162960052,
      0.10656678676605225,
      0.06893333792686462,
      0.021186411380767822,
      0.041168615221977234
    ],
    [
      -0.09044347703456879,
      -0.031234174966812134,
      -0.011933445930480957,
      -0.06956076622009277,
      -0.09232750535011292,
      0.08407719433307648,
      0.08483065664768219,
      -0.11352352797985077,
      0.03977648913860321,
      0.0508502721786499,
      0.11874604225158691,
      0.07231920957565308,
      0.1149170845746994,
      -0.04092371463775635,
      0.08754830062389374,
      0.10167516767978668,
      -0.1180410087108612,
      -0.10033833980560303,
      0.025300681591033936,
      0.06825472414493561,
      -0.06210163235664368,
      0.013766810297966003,
      -0.00018146634101867676,
      0.031638458371162415,
      -0.0671686977148056,
      0.07050487399101257,
      0.08312617242336273,
      -0.08673228323459625,
      0.001210927963256836,
      0.0003468245267868042,
      0.040139466524124146,
      0.1164480596780777,
      0.03665792942047119,
      -0.028402745723724365,
      0.11226661503314972,
      -0.04756660759449005,
      -0.03629647195339203,
      0.008534416556358337,
      -0.09518860280513763,
      0.01360216736793518,
      -0.08480943739414215,
      0.012852579355239868,
      0.01197594404220581,
      0.017302587628364563,
      -0.10541194677352905,
      -0.11872303485870361,
      0.05751466751098633,
      0.10719949007034302,
      -0.11092154681682587,
      0.0462992787361145,
      -0.09201519191265106,
      0.007836416363716125,
      0.11629471182823181,
      0.09482739865779877,
      -0.09139247238636017,
      0.07732148468494415,
      0.06528964638710022,
      -0.0001917332410812378,
      0.1210908442735672,
      -0.04964689910411835,
      -0.02908948063850403,
      -0.06317676603794098,
      0.017987102270126343,
      0.03309834003448486
    ],
    [
      0.009960025548934937,
      -0.07032963633537292,
      -0.05627080798149109,
      0.042519062757492065,
      -0.10960330069065094,
      -0.019466817378997803,
      -0.0027689486742019653,
      -0.050645485520362854,
      0.045489758253097534,
      0.00805671513080597,
      0.08775807917118073,
      -0.011101439595222473,
      -0.0788923054933548,
      0.08831897377967834,
      0.01745609939098358,
      -0.035799771547317505,
      -0.08238784968852997,
      0.02929861843585968,
      -0.11921906471252441,
      0.03292222321033478,
      0.061805590987205505,
      -0.10965006053447723,
      -0.08183404803276062,
      -0.08986572921276093,
      0.10506331920623779,
      0.10626508295536041,
      0.007825106382369995,
      0.11735072731971741,
      -0.041787996888160706,
      -0.12135277688503265,
      0.04366186261177063,
      0.04428356885910034,
      0.12254779040813446,
      -3.618001937866211e-05,
      0.095799520611763,
      0.07662047445774078,
      0.09047110378742218,
      -0.12404151260852814,
      0.10293224453926086,
      -0.10655660927295685,
      0.11206388473510742,
      -0.005180075764656067,
      -0.11077713966369629,
      0.034761592745780945,
      -0.025443345308303833,
      -0.112274169921875,
      -0.04531727731227875,
      0.012888148427009583,
      0.09735582768917084,
      -0.03842870891094208,
      0.07424598932266235,
      0.015653565526008606,
      0.004213482141494751,
      0.023918122053146362,
      -0.08203358948230743,
      -0.10389977693557739,
      -0.039276450872421265,
      -0.11648175120353699,
      -0.058293819427490234,
      0.005750730633735657,
      -0.08232615888118744,
      -0.051849499344825745,
      -0.022460803389549255,
      -0.0144004225730896
    ],
    [
      -0.06900182366371155,
      0.006006374955177307,
      -0.017545059323310852,
      0.03574945032596588,
      0.005645930767059326,
      -0.06242121756076813,
      -0.043035492300987244,
      -0.0014407187700271606,
      -0.07799816131591797,
      0.009785622358322144,
      -0.008825719356536865,
      0.04849731922149658,
      0.029583215713500977,
      0.09354794025421143,
      -0.004120677709579468,
      -0.0923631489276886,
      0.055876120924949646,
      -0.08447973430156708,
      -0.01718154549598694,
      -0.04047533869743347,
      -0.04743055999279022,
      -0.04624798893928528,
      0.11486506462097168,
      0.07155710458755493,
      0.03464217483997345,
      0.11736957728862762,
      -0.11327774822711945,
      0.020170941948890686,
      0.08002205193042755,
      0.08303624391555786,
      -0.09948171675205231,
      0.04448619484901428,
      -0.07121074199676514,
      -0.0048842281103134155,
      -0.02608378231525421,
      -0.10437056422233582,
      -0.11923930048942566,
      -0.08223724365234375,
      0.056721314787864685,
      0.05717943608760834,
      -0.10872046649456024,
      -0.04694278538227081,
      0.0020418018102645874,
      -0.10807281732559204,
      0.07043181359767914,
      0.11321654915809631,
      0.022107720375061035,
      -0.0928768515586853,
      0.029148295521736145,
      0.04537670314311981,
      0.0989803820848465,
      -0.06650874018669128,
      -0.11198872327804565,
      0.05491882562637329,
      0.007782042026519775,
      -0.04072830080986023,
      -0.052377790212631226,
      -0.06445197761058807,
      0.10118712484836578,
      -0.021567389369010925,
      0.0901508778333664,
      0.11158120632171631,
      0.015834510326385498,
      0.026627197861671448
    ],
    [
      -0.008513092994689941,
      0.08585192263126373,
      -0.11263598501682281,
      0.04971037805080414,
      -0.02036610245704651,
      0.057077035307884216,
      -0.00055675208568573,
      -0.046283259987831116,
      -0.013493746519088745,
      0.06749910116195679,
      -0.08681623637676239,
      -0.07901239395141602,
      -0.027999550104141235,
      -0.04534056782722473,
      0.049104899168014526,
      0.0841212272644043,
      -0.013387322425842285,
      0.11819672584533691,
      -0.05222749710083008,
      -0.07014492154121399,
      -0.05596175789833069,
      -0.08612154424190521,
      -0.08761672675609589,
      -0.11137694120407104,
      -0.11078490316867828,
      0.032624825835227966,
      0.07623174786567688,
      0.11735591292381287,
      0.10647466778755188,
      -0.007199212908744812,
      0.024255827069282532,
      -0.07478997111320496,
      0.0483151376247406,
      -0.119855135679245,
      0.05895911157131195,
      0.022926941514015198,
      0.03841303288936615,
      0.04576854407787323,
      -0.057388097047805786,
      0.10726329684257507,
      0.05965656042098999,
      0.08211183547973633,
      0.01650981605052948,
      0.07849831879138947,
      0.08412513136863708,
      0.05665436387062073,
      0.09522108733654022,
      -0.02267223596572876,
      0.08219201862812042,
      0.028799891471862793,
      0.07521200180053711,
      0.12174981832504272,
      0.028304636478424072,
      -0.04639586806297302,
      -0.012437015771865845,
      0.03519105911254883,
      0.021076157689094543,
      -0.0341462641954422,
      0.09793980419635773,
      0.07510091364383698,
      -0.0776442140340805,
      -0.010185182094573975,
      -0.0119992196559906,
      -0.07834134995937347
    ],
    [
      0.018231868743896484,
      -0.03837411105632782,
      -0.06453268229961395,
      -0.040193378925323486,
      -0.04456856846809387,
      0.11958000063896179,
      0.047946497797966,
      0.12301415205001831,
      0.03427444398403168,
      0.028303906321525574,
      0.051386699080467224,
      0.021454066038131714,
      -0.09809643030166626,
      -0.07391919195652008,
      -0.0302848219871521,
      0.0018791556358337402,
      0.04708930850028992,
      0.04813103377819061,
      0.09916417300701141,
      0.025446593761444092,
      -0.042661651968955994,
      -0.09400328993797302,
      -0.09155133366584778,
      -0.07466718554496765,
      0.03770044445991516,
      0.06753401458263397,
      0.10936407744884491,
      -0.03953896462917328,
      -0.009860366582870483,
      -0.037120431661605835,
      -0.00045675039291381836,
      0.040125176310539246,
      -0.0027464330196380615,
      0.0057868510484695435,
      0.015835896134376526,
      0.04655228555202484,
      -0.03792516887187958,
      -0.07453720271587372,
      0.029490575194358826,
      -0.014800697565078735,
      -0.05662849545478821,
      0.05249537527561188,
      0.0011336356401443481,
      -0.018183082342147827,
      -0.06051047146320343,
      -0.016445741057395935,
      -0.10629063844680786,
      0.028436288237571716,
      0.0018758326768875122,
      0.07585455477237701,
      0.008071303367614746,
      0.009994029998779297,
      0.03405162692070007,
      0.09511719644069672,
      -0.05906970798969269,
      0.0746256411075592,
      0.030570194125175476,
      -0.08338959515094757,
      0.043523356318473816,
      -0.0749666839838028,
      -0.03934760391712189,
      -0.05958360433578491,
      -0.08503927290439606,
      0.09844642877578735
    ],
    [
      -0.11172761023044586,
      0.06250187754631042,
      -0.11250148713588715,
      -0.015213251113891602,
      0.00745527446269989,
      0.08886381983757019,
      -0.04523669183254242,
      0.03597843647003174,
      0.019363239407539368,
      0.07354810833930969,
      0.007431447505950928,
      0.046805575489997864,
      -0.07551135122776031,
      -0.08686387538909912,
      0.11138470470905304,
      -0.09108337759971619,
      -0.021279960870742798,
      -0.015110015869140625,
      0.1222350150346756,
      -0.027014195919036865,
      -0.09516304731369019,
      -0.03168736398220062,
      0.06447763741016388,
      0.04953627288341522,
      0.10341151058673859,
      -0.02558961510658264,
      0.05888068675994873,
      -0.1176300048828125,
      0.048367470502853394,
      0.05743296444416046,
      0.08063587546348572,
      -0.07168027758598328,
      -0.03337229788303375,
      0.0302412211894989,
      -0.08882683515548706,
      -0.09943512082099915,
      -0.12025535106658936,
      0.006977856159210205,
      0.07762348651885986,
      0.03210748732089996,
      0.007620617747306824,
      0.04355323314666748,
      -0.07855051755905151,
      0.013178244233131409,
      -0.03105294704437256,
      -0.061892956495285034,
      0.10779663920402527,
      -0.0967065840959549,
      0.018318533897399902,
      -0.10983906686306,
      -0.004240840673446655,
      -0.05554525554180145,
      0.04114343225955963,
      -0.07019224762916565,
      0.08000494539737701,
      -0.10143336653709412,
      0.07507945597171783,
      -0.09389743208885193,
      0.06694817543029785,
      -0.05263330042362213,
      -0.0002911984920501709,
      -0.02281293272972107,
      0.08112876117229462,
      0.04096594452857971
    ],
    [
      -0.110150545835495,
      0.011492565274238586,
      -0.08623279631137848,
      0.09344518184661865,
      0.020537465810775757,
      -0.0321476012468338,
      -0.06377117335796356,
      0.043266117572784424,
      -0.07486213743686676,
      0.059282779693603516,
      0.06820940971374512,
      0.07672542333602905,
      0.03265473246574402,
      -0.10942110419273376,
      0.08991463482379913,
      -0.03877793252468109,
      -0.036954477429389954,
      -0.01342986524105072,
      0.09139186143875122,
      0.0961158275604248,
      0.019301503896713257,
      0.05964398384094238,
      -0.11649961769580841,
      0.00029528141021728516,
      -0.11058545112609863,
      0.042543694376945496,
      -0.08905617892742157,
      -0.0445505827665329,
      0.08737890422344208,
      0.11946198344230652,
      -0.0750475525856018,
      -0.06937636435031891,
      0.015480756759643555,
      0.049138158559799194,
      -0.020359039306640625,
      -0.03903628885746002,
      -0.08210545778274536,
      0.053359463810920715,
      0.12247022986412048,
      -0.06050989031791687,
      0.058957964181900024,
      0.06104932725429535,
      0.10047462582588196,
      -0.01423172652721405,
      0.003937229514122009,
      0.09183736145496368,
      0.07901424169540405,
      0.12346339225769043,
      -0.03582125902175903,
      0.04946082830429077,
      0.08728452026844025,
      -0.08485199511051178,
      0.024832352995872498,
      -0.02796909213066101,
      0.0803530365228653,
      -0.056140899658203125,
      0.008767321705818176,
      0.07478883862495422,
      -0.11451461911201477,
      -0.10554526746273041,
      -0.06402300298213959,
      0.08017714321613312,
      0.08381597697734833,
      -0.08537125587463379
    ],
    [
      0.023835912346839905,
      -0.06623511016368866,
      -0.058019086718559265,
      0.10780218243598938,
      0.060376137495040894,
      -0.034185364842414856,
      0.018400192260742188,
      0.024219617247581482,
      0.029280126094818115,
      -0.04278483986854553,
      -0.07361069321632385,
      0.08275797963142395,
      0.016796573996543884,
      0.05231870710849762,
      -0.04734121263027191,
      0.06054618954658508,
      0.0909707099199295,
      0.07602168619632721,
      0.03398697078227997,
      0.1229853630065918,
      -0.0002733767032623291,
      0.026612132787704468,
      0.11876623332500458,
      0.12148712575435638,
      -0.05277751386165619,
      0.1126004159450531,
      0.04613250494003296,
      -0.013992205262184143,
      0.10914325714111328,
      -0.06475365161895752,
      0.08121857047080994,
      0.12386801838874817,
      -0.08621276915073395,
      -0.07376161217689514,
      -0.12386426329612732,
      -0.022495299577713013,
      -0.11352545022964478,
      -0.04186524450778961,
      0.037949398159980774,
      0.08835971355438232,
      0.06962940096855164,
      0.0693851113319397,
      0.051857978105545044,
      -0.07752916216850281,
      -0.09924936294555664,
      0.00518171489238739,
      0.11869785189628601,
      0.007038220763206482,
      -0.010751232504844666,
      -0.08484217524528503,
      -0.061979785561561584,
      -0.09635795652866364,
      0.10008354485034943,
      -0.020366206765174866,
      -0.11042608320713043,
      0.013409331440925598,
      0.009071022272109985,
      -0.015443578362464905,
      0.044745489954948425,
      0.06722240149974823,
      -0.11755126714706421,
      -0.09576146304607391,
      -0.006004989147186279,
      -0.11589221656322479
    ],
    [
      -0.11354497075080872,
      0.11036381125450134,
      -0.009507432579994202,
      -0.06179879605770111,
      -0.04287710785865784,
      -0.09759031236171722,
      0.09754571318626404,
      -0.027104854583740234,
      -0.07027974724769592,
      -0.09480160474777222,
      0.0730612576007843,
      -0.017278924584388733,
      -0.013132154941558838,
      -0.03257915377616882,
      -0.060340359807014465,
      0.022236287593841553,
      0.0961713045835495,
      -0.0724475234746933,
      0.005989089608192444,
      -0.09506416320800781,
      -0.05861213803291321,
      0.10972124338150024,
      0.0013106316328048706,
      0.12041488289833069,
      -0.021900519728660583,
      -0.06813052296638489,
      -0.07468603551387787,
      0.11078932881355286,
      -0.09612336754798889,
      0.06559929251670837,
      0.03107278048992157,
      0.03688840568065643,
      0.0705299973487854,
      -0.032702863216400146,
      0.07734544575214386,
      -0.09959031641483307,
      -0.04398016631603241,
      0.09150516986846924,
      0.037097468972206116,
      -0.01664656400680542,
      -0.029191330075263977,
      -0.07632681727409363,
      0.07601146399974823,
      -0.003975018858909607,
      -0.004229232668876648,
      0.029561683535575867,
      0.09224353730678558,
      -0.06377291679382324,
      -0.04304967820644379,
      0.08470387756824493,
      0.07059656083583832,
      -0.06149205565452576,
      -0.12365750968456268,
      0.023188918828964233,
      0.06573675572872162,
      0.029857143759727478,
      0.08866429328918457,
      -0.09918425977230072,
      0.0630357563495636,
      -0.07770991325378418,
      0.07035084068775177,
      0.0929642915725708,
      0.03958950936794281,
      0.10113431513309479
    ],
    [
      -0.08239394426345825,
      -0.11179697513580322,
      -0.1201881468296051,
      0.07847893238067627,
      0.04378874599933624,
      -0.0915333479642868,
      0.06053510308265686,
      0.11405153572559357,
      -0.12326045334339142,
      0.09067763388156891,
      0.019171610474586487,
      0.011627614498138428,
      0.11247414350509644,
      0.11319877207279205,
      0.05266889929771423,
      0.09876686334609985,
      0.052003055810928345,
      0.02036769688129425,
      -0.10987637937068939,
      0.02334783971309662,
      -0.08893078565597534,
      0.03848327696323395,
      0.022054240107536316,
      0.002808213233947754,
      -0.08546583354473114,
      -0.0757746547460556,
      0.0923922061920166,
      0.06087738275527954,
      0.06590497493743896,
      -0.037247106432914734,
      -0.02152453362941742,
      -0.03203471004962921,
      0.08596166968345642,
      -0.053960978984832764,
      0.07873310148715973,
      0.0861867219209671,
      -0.11431950330734253,
      0.00076332688331604,
      -0.02380669116973877,
      -0.06910279393196106,
      0.05396468937397003,
      -0.015186876058578491,
      0.10943852365016937,
      -0.07823799550533295,
      0.05807892978191376,
      -0.1067240834236145,
      -0.06265270709991455,
      0.008526623249053955,
      0.098761647939682,
      0.06583990156650543,
      -0.10263568162918091,
      0.013845682144165039,
      -0.07368622720241547,
      0.005416214466094971,
      -0.10413415729999542,
      -0.03667168319225311,
      0.0857333093881607,
      -0.11469201743602753,
      -0.11917783319950104,
      0.022768035531044006,
      0.01713554561138153,
      -0.02286069095134735,
      0.10915151238441467,
      -0.07526111602783203
    ],
    [
      -0.07588502764701843,
      -0.09343451261520386,
      -0.02326531708240509,
      -0.031900614500045776,
      0.07734335958957672,
      -0.007018625736236572,
      0.03991919755935669,
      -0.051944583654403687,
      0.10139904916286469,
      0.10537734627723694,
      -0.11194612085819244,
      -0.03212495148181915,
      -0.10606217384338379,
      0.053103357553482056,
      -0.10921040177345276,
      -0.05910147726535797,
      0.12489655613899231,
      -0.1193649023771286,
      0.0922255665063858,
      0.010559886693954468,
      0.09995433688163757,
      -0.06343616545200348,
      0.08210356533527374,
      0.015081718564033508,
      0.009614050388336182,
      0.08531652390956879,
      -0.11881589889526367,
      -0.10068140923976898,
      0.12072043120861053,
      -0.07506206631660461,
      -0.090100958943367,
      -0.006111830472946167,
      -0.04001280665397644,
      -0.017101481556892395,
      -0.08374819159507751,
      0.04510235786437988,
      -0.10756020247936249,
      0.010124117136001587,
      0.07294243574142456,
      0.024017006158828735,
      0.01660872995853424,
      0.01828300952911377,
      -0.03661881387233734,
      -0.023812279105186462,
      -0.052711665630340576,
      -0.08444106578826904,
      -0.06618201732635498,
      0.12357006967067719,
      -0.0209195613861084,
      0.04378700256347656,
      0.08644425868988037,
      -0.00976473093032837,
      -0.06724676489830017,
      -0.08469237387180328,
      -0.04605041444301605,
      0.04461705684661865,
      -0.10526981949806213,
      -0.015262097120285034,
      0.0475483238697052,
      0.10198189318180084,
      0.0376163125038147,
      0.02472083270549774,
      0.08557383716106415,
      0.05776098370552063
    ],
    [
      0.042289212346076965,
      -0.03875581920146942,
      -0.10023735463619232,
      -0.027000263333320618,
      -0.022670477628707886,
      0.009179651737213135,
      -0.013747528195381165,
      0.05053606629371643,
      0.08306875824928284,
      -0.05067753791809082,
      -0.11860758066177368,
      -0.0641324520111084,
      -0.059809550642967224,
      0.0708550214767456,
      -0.08063045144081116,
      -0.011757135391235352,
      -0.026492387056350708,
      -0.07586653530597687,
      0.05666060745716095,
      -0.052069440484046936,
      -0.006466522812843323,
      -0.08788558840751648,
      -0.012607470154762268,
      0.01776072382926941,
      -0.0050866007804870605,
      -0.04670596122741699,
      0.03713545203208923,
      -0.03238719701766968,
      -0.0692998617887497,
      -0.092179074883461,
      -0.026478692889213562,
      -0.11808480322360992,
      0.1037524938583374,
      -0.05971597135066986,
      -0.05180227756500244,
      0.011554881930351257,
      0.032404154539108276,
      -0.011786550283432007,
      0.08575285971164703,
      -0.0728687047958374,
      0.04479759931564331,
      -0.0002819150686264038,
      -0.10168388485908508,
      -0.048411861062049866,
      0.03181089460849762,
      0.023880228400230408,
      0.09089192748069763,
      0.08362412452697754,
      -0.06817784905433655,
      -0.05337868630886078,
      -0.02650517225265503,
      -0.08955256640911102,
      -0.03374873101711273,
      -0.1022891104221344,
      0.047542765736579895,
      0.08844491839408875,
      0.009897053241729736,
      -0.08948507905006409,
      -0.09466350078582764,
      -0.048662394285202026,
      0.03635667264461517,
      0.003049001097679138,
      0.022727742791175842,
      0.11781015992164612
    ],
    [
      0.05805525183677673,
      0.02687782049179077,
      -0.02529023587703705,
      0.059131115674972534,
      0.045730069279670715,
      -0.11251278221607208,
      -0.07383862137794495,
      0.004195719957351685,
      0.04743029177188873,
      0.06081286072731018,
      -0.07440982758998871,
      -0.12401428818702698,
      -0.0065114498138427734,
      -0.01428966224193573,
      0.03627249598503113,
      -0.03437580168247223,
      0.09556534886360168,
      0.008340522646903992,
      0.09128086268901825,
      -0.0870392918586731,
      0.0500044971704483,
      0.0148945152759552,
      -0.06251853704452515,
      0.061968475580215454,
      -0.12300242483615875,
      0.10105837881565094,
      0.01007351279258728,
      0.012069076299667358,
      0.05780570209026337,
      0.010376542806625366,
      0.053581446409225464,
      0.07952676713466644,
      -0.09755730628967285,
      0.08269505202770233,
      -0.01871734857559204,
      -0.029068633913993835,
      0.02516019344329834,
      0.09776896238327026,
      -0.06795190274715424,
      -0.08424139022827148,
      0.07757590711116791,
      -0.05870848894119263,
      0.040243759751319885,
      -0.01841576397418976,
      0.034406617283821106,
      0.09538938105106354,
      -0.06334987282752991,
      -0.06065794825553894,
      0.06132759153842926,
      0.006844058632850647,
      -0.013757273554801941,
      -0.10979852080345154,
      0.10590729117393494,
      -0.004733860492706299,
      -0.02302342653274536,
      -0.05131123960018158,
      -0.024667277932167053,
      0.060754284262657166,
      -0.0028729140758514404,
      0.10690107941627502,
      -0.007216840982437134,
      -0.017932221293449402,
      0.07055644690990448,
      -0.0032344460487365723
    ],
    [
      -0.024949118494987488,
      0.0417783260345459,
      0.09857887029647827,
      0.03119368851184845,
      0.0870397686958313,
      0.0810047835111618,
      0.03534972667694092,
      0.04346106946468353,
      0.0403355211019516,
      0.012965843081474304,
      0.10634204745292664,
      0.11539256572723389,
      0.04449857771396637,
      -0.006242319941520691,
      0.11207425594329834,
      -0.09729006886482239,
      0.0918479859828949,
      0.06622819602489471,
      0.08026701211929321,
      -0.009604454040527344,
      -0.09326224029064178,
      0.08916735649108887,
      -0.05465695261955261,
      0.03288906812667847,
      0.07081814110279083,
      -0.11681570112705231,
      0.008295491337776184,
      -0.04440329968929291,
      0.08871941268444061,
      -0.07958768308162689,
      0.07589621841907501,
      0.0779462456703186,
      0.06896436214447021,
      0.12000153958797455,
      0.01893138885498047,
      -0.11329764127731323,
      0.08923311531543732,
      0.011443346738815308,
      0.002480626106262207,
      -0.11907365918159485,
      -0.02809453010559082,
      -0.06067097187042236,
      0.12242637574672699,
      0.08900360763072968,
      0.09324853122234344,
      0.08560457825660706,
      -0.07748423516750336,
      -0.053683698177337646,
      -0.04891878366470337,
      -0.05011028051376343,
      0.09730401635169983,
      0.04247085750102997,
      0.10016925632953644,
      -0.005847364664077759,
      -0.1114283949136734,
      -0.036265403032302856,
      0.08784933388233185,
      0.07610069215297699,
      0.03869643807411194,
      -0.036665961146354675,
      -0.11667138338088989,
      -0.06716583669185638,
      0.06517255306243896,
      -0.05041971802711487
    ],
    [
      0.059792324900627136,
      0.03413014113903046,
      -0.04801091551780701,
      0.07613478600978851,
      -0.040166571736335754,
      -0.004152834415435791,
      -0.04761412739753723,
      -0.1185714453458786,
      0.02015477418899536,
      0.03612115979194641,
      -0.06293517351150513,
      0.07668085396289825,
      -0.11213193833827972,
      -0.12049707770347595,
      -0.07720611989498138,
      -0.04320061206817627,
      -0.013882264494895935,
      -0.02415597438812256,
      0.05704855918884277,
      -0.1097031682729721,
      0.018405944108963013,
      0.002164706587791443,
      0.033016279339790344,
      0.12426000833511353,
      0.07693105936050415,
      -0.06921307742595673,
      -0.10243156552314758,
      -0.030262619256973267,
      -0.06270337104797363,
      0.0436631441116333,
      0.001145869493484497,
      0.10054044425487518,
      0.04910077154636383,
      -0.022983789443969727,
      0.004296243190765381,
      0.029935747385025024,
      -0.015510901808738708,
      0.10086682438850403,
      -0.09773753583431244,
      0.06092573702335358,
      -0.07968048751354218,
      -0.10951018333435059,
      -0.025662079453468323,
      0.06091311573982239,
      0.08832024037837982,
      0.03136780858039856,
      -0.010803624987602234,
      -0.007007420063018799,
      -0.05067266523838043,
      -0.011217176914215088,
      -0.00863674283027649,
      0.10637032985687256,
      0.07315552234649658,
      -0.10002799332141876,
      0.0005170851945877075,
      -0.07688373327255249,
      -0.019842609763145447,
      -0.09934601187705994,
      0.03249514102935791,
      -0.09013475477695465,
      0.12340262532234192,
      0.0944003164768219,
      -0.08604486286640167,
      -0.11768299341201782
    ],
    [
      0.004877209663391113,
      -0.034893959760665894,
      0.03669583797454834,
      -0.08461426198482513,
      0.051167652010917664,
      -0.10796867311000824,
      -0.0659712553024292,
      -0.06571272015571594,
      0.06048642098903656,
      -0.0032726526260375977,
      -0.1201285719871521,
      -0.07139000296592712,
      -0.05784711241722107,
      -0.11597870290279388,
      0.016005858778953552,
      0.04454223811626434,
      -0.022934705018997192,
      -0.04974310100078583,
      -0.0007580667734146118,
      -0.09928521513938904,
      -0.07611268758773804,
      -0.0028507858514785767,
      0.11104716360569,
      -0.03843854367733002,
      0.06195743381977081,
      -0.04919379949569702,
      -0.03327472507953644,
      -0.11899305880069733,
      0.10356062650680542,
      0.12171594798564911,
      -0.002625405788421631,
      0.07942122220993042,
      0.10224270820617676,
      0.062089696526527405,
      0.06437741219997406,
      -0.11899882555007935,
      -0.11745883524417877,
      -0.09594254195690155,
      0.03909820318222046,
      -0.1081220805644989,
      -0.09541808068752289,
      -0.06058785319328308,
      -0.11521066725254059,
      0.00016842782497406006,
      0.018033519387245178,
      -0.07315005362033844,
      0.08184567093849182,
      -0.04745560884475708,
      -0.0351908802986145,
      0.09523439407348633,
      0.1073189526796341,
      -0.014340057969093323,
      -0.0897347629070282,
      -0.06270863115787506,
      0.015917405486106873,
      0.07327406108379364,
      0.062230587005615234,
      -0.05519780516624451,
      -0.118170827627182,
      -0.10939337313175201,
      -0.039769530296325684,
      0.0015680193901062012,
      -0.05614694952964783,
      -0.09883815050125122
    ],
    [
      0.013173460960388184,
      -0.09921759366989136,
      -0.09599052369594574,
      -0.10161824524402618,
      -0.03387168049812317,
      0.1104072630405426,
      0.04886491596698761,
      -0.0148211270570755,
      0.025726407766342163,
      0.04977613687515259,
      0.0007282793521881104,
      -0.10082179307937622,
      -0.07701407372951508,
      -0.08491909503936768,
      -0.003174036741256714,
      -0.11442521214485168,
      -0.022727638483047485,
      -0.045708999037742615,
      0.12267126142978668,
      0.10160301625728607,
      0.07260671257972717,
      0.007010281085968018,
      -0.040471598505973816,
      0.031883805990219116,
      -0.086366206407547,
      -0.0533130019903183,
      -0.025110676884651184,
      -0.02936933934688568,
      -0.11841277778148651,
      0.04969137907028198,
      0.10293525457382202,
      -0.06894667446613312,
      0.03369578719139099,
      -0.014496788382530212,
      -0.004559054970741272,
      0.007286250591278076,
      0.10832281410694122,
      0.016748815774917603,
      -0.07908463478088379,
      -0.04496419429779053,
      0.0610659122467041,
      0.03900681436061859,
      0.002429455518722534,
      -0.016497120261192322,
      -0.0486346036195755,
      -0.04436589777469635,
      -0.06593574583530426,
      0.02048271894454956,
      0.03510525822639465,
      0.0957181304693222,
      -0.0282391756772995,
      0.008948594331741333,
      0.08078618347644806,
      0.05437383055686951,
      0.0160609632730484,
      0.03840982913970947,
      0.006488308310508728,
      -0.10722397267818451,
      0.0048188865184783936,
      -0.02732236683368683,
      0.11280147731304169,
      0.11282846331596375,
      0.02479882538318634,
      0.11172538995742798
    ],
    [
      -0.06437736749649048,
      0.1086467057466507,
      0.1076231449842453,
      -0.004777625203132629,
      -0.10031367838382721,
      -0.04033704102039337,
      -0.03342841565608978,
      0.002064749598503113,
      -0.11333140730857849,
      0.023165687918663025,
      -0.0519864559173584,
      -0.03200514614582062,
      -0.06456153094768524,
      -0.02639174461364746,
      -0.11609064042568207,
      -0.06627099215984344,
      0.011515617370605469,
      0.08190949261188507,
      0.11359347403049469,
      -0.09455694258213043,
      0.05249014496803284,
      -0.07046197354793549,
      -0.09664462506771088,
      -0.005504414439201355,
      -0.07170583307743073,
      -0.10765579342842102,
      -0.11681705713272095,
      -0.0836685448884964,
      0.10271696746349335,
      0.06971350312232971,
      -0.04948088526725769,
      -0.08366508781909943,
      -0.09615522623062134,
      -0.07381518185138702,
      -0.05143728852272034,
      0.07507365942001343,
      0.040907055139541626,
      -0.0481715202331543,
      0.08605392277240753,
      -0.0776541531085968,
      -0.10183599591255188,
      0.027281269431114197,
      -0.06892511248588562,
      0.03555980324745178,
      0.1059044748544693,
      -0.05911317467689514,
      -0.0872264951467514,
      0.04705001413822174,
      -0.11289338767528534,
      0.11152221262454987,
      -0.05903202295303345,
      0.06043247878551483,
      -0.0993964672088623,
      -0.0846085250377655,
      0.013769328594207764,
      0.0444256067276001,
      0.09692439436912537,
      0.10454198718070984,
      -0.007188946008682251,
      -0.016070902347564697,
      0.02066272497177124,
      -0.029036372900009155,
      0.0042551010847091675,
      -0.11838103830814362
    ],
    [
      -0.1026134341955185,
      0.08565780520439148,
      -0.07304458320140839,
      0.09843568503856659,
      0.01371796429157257,
      0.030448108911514282,
      0.11360970139503479,
      -0.06952378153800964,
      -0.019732236862182617,
      0.022146180272102356,
      0.042705222964286804,
      -0.1216517835855484,
      0.04442732036113739,
      -0.07371574640274048,
      0.016418755054473877,
      0.08456870913505554,
      -0.012451902031898499,
      -0.00395435094833374,
      -0.00933942198753357,
      0.10431031882762909,
      0.07104118168354034,
      0.021021157503128052,
      -0.07522690296173096,
      -0.06787961721420288,
      0.09956935048103333,
      0.08992758393287659,
      0.07237625122070312,
      -0.0974646657705307,
      0.09734909236431122,
      -0.01194898784160614,
      0.09209463000297546,
      0.10856868326663971,
      0.013701379299163818,
      -0.0520147979259491,
      0.11758135259151459,
      -0.0651400089263916,
      0.08167684078216553,
      -0.11986126005649567,
      -0.03931410610675812,
      -0.10898183286190033,
      -0.05607202649116516,
      0.05307738482952118,
      -0.08956600725650787,
      -0.10810050368309021,
      0.08937941491603851,
      0.06672756373882294,
      -0.0013668984174728394,
      -0.08812010288238525,
      -0.033117055892944336,
      -0.040472567081451416,
      0.0771988034248352,
      -0.04088582098484039,
      -0.03600195050239563,
      -0.08860740065574646,
      -0.058873459696769714,
      0.06768108904361725,
      0.08053569495677948,
      0.018160909414291382,
      -0.046899765729904175,
      0.12006133794784546,
      0.0246724933385849,
      -0.04824955761432648,
      -0.04332464933395386,
      -0.01749385893344879
    ],
    [
      0.05926220118999481,
      0.04572094976902008,
      0.09062007069587708,
      -0.005632117390632629,
      0.10338659584522247,
      -0.050773411989212036,
      -0.057569146156311035,
      -0.04616217315196991,
      -0.11727599799633026,
      -0.082055002450943,
      -0.11310935020446777,
      -0.007387205958366394,
      0.0011784285306930542,
      -0.032442763447761536,
      -0.08542294800281525,
      0.1134110689163208,
      -0.041417524218559265,
      0.0595691055059433,
      0.08705127239227295,
      -0.08216960728168488,
      -0.015627890825271606,
      0.07224591076374054,
      0.12116988003253937,
      -0.015770137310028076,
      0.09057790040969849,
      -0.09810827672481537,
      -0.08121742308139801,
      0.10279189050197601,
      -0.011834949254989624,
      0.12349031865596771,
      0.009089648723602295,
      -0.05183863639831543,
      0.11871443688869476,
      0.10931044816970825,
      0.01160074770450592,
      -0.07577566802501678,
      -0.005412116646766663,
      -0.06011460721492767,
      0.09108515083789825,
      0.005790442228317261,
      0.02631518244743347,
      0.07580812275409698,
      0.04140518605709076,
      -0.07803329825401306,
      0.10384052991867065,
      0.07679307460784912,
      -0.07716703414916992,
      0.09451286494731903,
      0.03546293079853058,
      -0.02460610866546631,
      -0.0893954187631607,
      -0.020740360021591187,
      -0.12255541980266571,
      0.07134512066841125,
      0.09053169190883636,
      -0.035987257957458496,
      0.11588120460510254,
      -0.04628641903400421,
      0.021406054496765137,
      -0.08711175620555878,
      -0.005284801125526428,
      0.05052873492240906,
      0.053841814398765564,
      -0.004191562533378601
    ],
    [
      -0.06303279101848602,
      0.08737318217754364,
      0.08275823295116425,
      0.020060062408447266,
      -0.05748449265956879,
      0.026503190398216248,
      0.0003342479467391968,
      0.11420036852359772,
      0.01852409541606903,
      0.009641170501708984,
      0.008544936776161194,
      0.06650114059448242,
      -0.0015444755554199219,
      0.10714304447174072,
      0.06512373685836792,
      -0.09445337951183319,
      -1.430511474609375e-06,
      -0.10610085725784302,
      -0.09597606956958771,
      0.02428664267063141,
      0.02808983623981476,
      -0.010939031839370728,
      0.11880780756473541,
      -0.06715147197246552,
      -0.05238571763038635,
      -0.020018205046653748,
      0.0007578879594802856,
      -0.010587796568870544,
      0.11254860460758209,
      -0.052793294191360474,
      -0.06538437306880951,
      0.010743752121925354,
      0.09388527274131775,
      0.029669448733329773,
      0.06734156608581543,
      0.02419815957546234,
      0.10653606057167053,
      0.07507795095443726,
      0.08944609761238098,
      -0.0168362557888031,
      -0.10348694026470184,
      -0.05929553508758545,
      0.042583540081977844,
      0.08769333362579346,
      -0.0488380491733551,
      0.10342738032341003,
      0.017965778708457947,
      0.0004965066909790039,
      0.00487305223941803,
      -0.0220840722322464,
      0.11702357232570648,
      0.005429372191429138,
      0.07656361162662506,
      -0.10550172626972198,
      -0.06440262496471405,
      0.01405458152294159,
      0.09981246292591095,
      0.05951091647148132,
      0.023807436227798462,
      -0.12349894642829895,
      0.002349942922592163,
      -0.08251270651817322,
      -0.10673399269580841,
      0.017092928290367126
    ]
  ],
  "L2.Bias": [
    -0.07908816635608673,
    0.1134548932313919,
    -0.06794272363185883,
    0.04028351604938507,
    0.07337035238742828,
    -0.0971546471118927,
    0.06397250294685364,
    -0.016737014055252075,
    0.06477034091949463,
    0.120966836810112,
    -0.05327068269252777,
    -0.05413798987865448,
    0.09931865334510803,
    0.01390005648136139,
    -0.012466594576835632,
    0.09483353793621063,
    -0.06039300560951233,
    -0.006172016263008118,
    0.08585947751998901,
    0.0488513708114624,
    -0.08085185289382935,
    0.03248956799507141,
    -0.09530459344387054,
    -0.0678841769695282,
    0.08037647604942322,
    -0.03331403434276581,
    -0.06366963684558868,
    0.008860290050506592,
    0.030546292662620544,
    -0.0777021050453186,
    -0.08429542183876038,
    -0.1210586428642273
  ],
  "L3.Weight": [
    [
      0.04567618668079376,
      -0.11406152695417404,
      0.013471856713294983,
      -0.03953756392002106,
      -0.11558720469474792,
      -0.05640923231840134,
      -0.13588647544384003,
      -0.09357371181249619,
      -0.005510345101356506,
      -0.15112906694412231,
      -0.15503905713558197,
      0.13241644203662872,
      0.016634345054626465,
      -0.07818017154932022,
      -0.005877584218978882,
      0.1310914307832718,
      -0.14747871458530426,
      -0.0937240943312645,
      -0.12783437967300415,
      -0.012851834297180176,
      -0.006083399057388306,
      -0.137763112783432,
      0.1226978749036789,
      -0.13575032353401184,
      0.16504503786563873,
      -0.12168760597705841,
      -0.024226456880569458,
      0.033054932951927185,
      -0.07857324928045273,
      0.1625712662935257,
      -0.12187591195106506,
      -0.009798452258110046
    ]
  ],
  "L3.Bias": [
    -0.1298002302646637
  ]
}